nep4_zbl 2 Al Mg 
zbl 1 2
cutoff 6 5 82 55
n_max 4 4
basis_size 8 8
l_max 4 2 0
ANN 50 0
 -1.8458031e+00
 -1.3102252e+00
 -9.7241175e-01
 -7.9682112e-01
 -1.5371397e+00
  4.1832358e-01
  9.4084072e-01
 -1.9227271e-01
  1.4180666e-01
  1.1549573e+00
 -1.5857373e-01
 -1.5102805e+00
 -3.0786970e-01
  1.1957814e-01
 -2.7949294e-01
  1.5124367e+00
  2.7440513e-02
  1.3077550e+00
 -8.4364641e-01
 -6.3773811e-01
  3.6294439e-01
 -4.9123909e-02
 -3.1282499e-02
  6.3872623e-01
  3.6959735e-01
  5.6230938e-01
  2.1725407e-02
  2.2039770e-01
  4.2758328e-01
 -7.0991958e-03
 -2.6514658e-01
  6.8798977e-01
  2.6485354e-01
  4.8022572e-02
  3.9352971e-01
 -1.6153177e-02
  5.7204962e-03
 -2.2378121e-02
 -1.7384570e-02
  2.4623049e-02
 -1.1121577e-01
 -1.2292599e-02
 -1.1960325e-01
 -2.4303338e-02
 -1.8165367e-02
  3.9044522e-02
  6.1899144e-02
  1.9105745e-02
 -2.0501847e+00
 -1.8578300e+00
 -8.9285392e-03
  2.1657163e-02
  5.4883836e-03
 -7.9163387e-02
 -2.5081772e-02
 -3.0818519e-03
 -2.2655623e-02
  1.5145980e-03
  1.5219772e-02
  8.4853433e-03
  3.0396962e+00
 -2.0080721e-02
 -7.2098088e-01
  5.4580611e-01
 -4.0501305e-03
  1.0349992e-02
 -4.1248882e-03
  1.1698775e-02
  1.8964352e-02
  1.0864057e-02
 -1.7317034e-02
 -8.0402121e-03
 -3.1689074e-02
  4.0271409e-02
  1.6600108e-02
 -2.7209973e-02
 -3.3136286e-02
  3.1144587e-02
 -9.4530480e-03
  1.3364431e-02
  1.7459888e-02
  5.3139310e-02
  5.1004861e-02
  2.4628052e-02
  8.4897270e-03
  7.4267210e-03
 -2.4168171e-02
 -6.9242590e-03
  2.5577304e-01
  5.9030368e-03
  3.2850858e-03
  2.9257899e-02
  2.1073427e-03
 -4.3668147e-02
 -8.9265719e-02
 -4.8070207e-01
 -2.6307048e-03
 -3.9431367e-02
 -1.9716355e-03
  1.5464614e-02
  5.6390488e-03
  1.5761603e-02
 -1.3169891e-02
  6.9664665e-02
  1.6388748e-02
  4.9721438e-02
 -1.1786442e+00
 -1.6742507e-02
  1.1176134e+00
 -1.1872938e-02
  1.3744897e-03
 -2.2145530e-02
 -4.3493215e-02
 -1.5346641e-02
 -5.4056142e-03
  7.7540926e-03
 -1.1287538e-03
  4.6565565e-03
 -4.0420741e-02
  6.5377809e-02
  3.5924867e-02
 -3.7302440e-01
  1.6544518e-03
 -2.6638482e-02
 -3.3099940e-01
  1.0739491e-02
  1.4572160e-02
  1.0627511e-01
  8.2655385e-02
  2.4129427e-03
  1.5153219e-02
  8.3270771e-03
  1.1325682e-02
  2.9160192e-03
  1.7700491e-02
 -3.8452977e-03
  1.2921542e-02
  3.0295702e-02
  6.2313941e-03
  1.1045447e-02
  3.0268084e-03
  3.6458548e-03
 -1.9896373e-03
  1.2407213e-02
  5.0570589e-02
  1.2442250e-02
 -4.0359637e-03
  7.2381802e-02
  1.2298224e-02
 -1.0868525e-02
 -1.3127328e-01
 -4.2828920e-01
 -3.7805265e-01
 -1.2638958e+00
 -1.7497474e+00
  3.9805964e-02
 -6.2597759e-02
 -2.3167248e-01
  3.2083961e-01
  3.1591514e-01
 -6.8511978e-02
 -8.7338738e-02
 -3.2606715e-01
 -6.0320413e-01
  4.2026634e-03
  7.7283323e-01
  2.6109698e-01
  3.7825819e-02
 -1.9681860e-02
  7.1489133e-02
  6.7837280e-01
  5.1688593e-02
 -9.4473049e-02
 -1.2994316e-01
 -2.5849726e-02
  1.5450466e-01
 -5.9929675e-01
 -5.7804673e-03
  1.2072457e-02
 -3.2488091e-03
  2.9524530e-03
 -1.7975911e-02
 -2.7219586e-02
 -2.3850895e-01
 -7.8644484e-01
 -2.2958029e-02
 -2.4592957e-02
  3.0678142e-02
  2.3127634e-02
  2.7898438e-02
  5.3658045e-04
 -2.0443538e-02
 -2.5545305e-02
 -5.2156099e-03
 -6.8655178e-02
 -3.6368567e-02
 -3.1637489e-03
  4.3382932e-02
 -1.0205544e-02
  7.4988574e-02
  3.9047591e-02
 -4.8001319e-02
  2.4708465e-04
 -1.8016880e+00
 -4.9684778e-02
 -2.7641223e-03
 -1.0031316e-02
  6.9200754e-02
  6.0310561e-02
 -1.3343367e-02
 -1.7613566e+00
  3.5780886e-01
 -2.2094367e+00
 -6.0589820e-01
 -1.0470185e+00
  1.6931190e-05
 -2.1348062e+00
 -3.5907000e-01
 -1.3581568e-01
 -8.9970565e-01
 -2.5071293e-01
 -8.2237351e-01
 -9.3929207e-01
 -1.7758957e+00
 -6.9942093e-04
 -4.0545893e-01
  2.4862507e-01
 -3.3061126e-01
 -9.7130299e-02
  5.8390039e-01
  2.7650210e-01
  9.2516172e-01
 -6.8906093e-01
  1.5781386e-02
  1.0829426e+00
  2.2474932e-02
 -1.3290666e-01
 -1.4080493e-01
 -5.5407789e-03
  1.8360067e-02
  7.8681672e-01
 -3.0127308e-01
  3.4052675e+00
 -3.3594763e-01
  7.0425272e-01
 -4.4151135e-02
 -5.3795427e-03
 -5.5817524e-03
 -1.2500010e-02
 -8.9936629e-03
 -4.4899964e-01
 -3.4707531e-03
 -4.5589246e-02
 -1.5504701e-03
 -8.3512273e-03
 -3.5026994e-02
 -9.5265539e-04
  6.1710473e-02
 -3.2275885e-02
 -1.2204748e-02
 -1.3596560e-01
  2.0030600e-01
 -1.6858767e+00
 -5.7422821e-03
  2.4500577e-02
  5.7046738e-02
  2.2701735e-02
  7.0723467e-02
 -4.8191208e-02
 -2.6012663e-02
  6.4319021e-01
 -4.4382396e-01
  1.5177919e+00
 -1.8231947e+00
 -1.3258774e+00
  3.4412988e-02
  2.1996922e+00
 -4.3345213e-01
  2.8965455e-01
  4.2619991e-01
  4.7224635e-01
  5.6154009e-02
 -4.8751497e-01
  4.4553858e-01
  2.7871642e-02
  6.8591499e-01
  8.3421510e-01
  8.4594831e-02
  1.0919899e-01
 -4.6305531e-03
  7.0811138e-02
  8.7555128e-01
 -7.1723327e-02
  2.8726023e-01
 -3.9700333e-02
 -1.0799792e-02
 -1.4496908e-02
  1.5040449e-02
 -1.9921726e-02
 -2.9447291e-02
  3.3750886e-01
 -6.9370833e-03
  1.4177705e-01
  1.7687333e+00
 -5.2245373e-01
 -2.0986399e-02
 -4.4550359e-01
 -7.6347895e-02
  9.7623561e-03
 -7.0425518e-02
  6.1462121e-03
  4.3914899e-02
  9.5460571e-02
 -1.2080238e-01
  9.2523195e-02
 -4.9674276e-01
  2.3963609e+00
 -1.3898142e-02
  1.8771064e-01
 -1.0218738e-02
  6.7486353e-02
  4.4074428e-01
  7.4339032e-02
  1.1818659e-01
  1.4381327e-01
  1.0833196e-02
  1.7987520e-02
 -7.9240866e-02
  1.6023742e-02
 -1.2892561e-02
 -5.9106080e-03
  1.2008828e-01
  2.6952106e-01
  4.6333307e-01
  6.3351768e-01
  2.1476852e-02
  2.3978311e-03
 -5.4098260e-02
 -1.5511016e+00
 -2.9822867e-03
 -3.8245719e-02
 -6.0879916e-02
 -9.7199148e-03
 -2.7535049e-02
  2.4564515e-03
  1.2087402e-02
 -1.4922946e-02
  8.5191261e-03
  1.5214586e-02
 -1.2877752e-03
 -9.0499960e-02
  2.6057301e-02
  1.2667428e-01
  1.4446635e-03
  4.4135917e-02
  1.4529275e+00
 -3.8972087e-03
 -2.2765221e-02
 -7.4679391e-03
 -3.7098341e-02
 -8.6796176e-01
  6.1617118e-01
  1.0104551e+00
  4.3225989e-01
 -1.7996731e+00
 -2.6322067e-02
 -4.3466526e-01
 -4.1123733e-02
 -3.7103448e-02
 -1.4012759e-02
  2.2816377e+00
  1.3389412e-01
  1.4617184e-02
 -2.4847014e-02
  3.3737220e-02
 -2.2957958e-03
  1.3692090e-02
 -1.7421244e-02
 -2.3964486e-01
  1.1739630e-02
 -3.7569816e-03
 -2.1125611e-02
 -2.3439266e-01
 -8.2173068e-03
 -6.5636672e-02
 -9.6053099e-03
  1.8112455e-02
  9.2455512e-03
 -2.1822602e-02
  1.9487794e-02
  1.4452931e+00
  1.7050663e+00
  1.8361028e-01
  1.7711753e-01
 -8.6355102e-01
 -1.9525543e-01
 -2.6126351e-02
 -1.3865852e+00
 -1.8903011e-02
 -2.6543230e-02
 -2.2877648e-03
  6.5352158e-03
 -2.7709818e-02
  2.8607285e-02
 -4.6969127e-02
  5.1172908e-02
  2.4020825e-02
 -2.2134890e-01
  2.0299752e+00
 -3.5160338e-03
 -7.5044646e-03
  1.7677998e-02
 -2.1373276e-01
 -3.2654565e-02
 -6.6076638e-03
  2.4821839e-04
 -8.5939365e-03
 -2.6710213e-03
 -3.6841679e-02
  6.0934699e-03
 -1.2068006e+00
 -1.6118042e-01
 -2.2593768e-02
 -3.5583720e-01
  1.6297907e+00
 -2.3217024e-02
  5.7618851e-03
 -5.2157033e-02
  7.3236208e-03
  1.9782744e-03
  2.8118932e-01
 -1.5639471e-01
 -5.9264880e-01
  3.8137920e-02
 -9.6283145e-02
  1.2066205e-02
 -1.1932395e+00
 -5.4377140e-03
  4.5849420e-02
  5.9284484e-01
  1.6853352e-01
 -7.1763016e-02
 -6.2320435e-01
  2.6935099e-02
 -4.8119150e-02
  2.5439305e-02
 -5.4794298e-03
 -2.3289675e-02
 -1.0134686e-02
  8.1356959e-03
 -1.8499072e+00
  4.3438882e-01
  3.8302514e-01
 -4.2442408e-01
  4.6953272e-02
  6.2017250e-01
  3.0940899e-01
 -1.8354654e-02
  4.0729055e-03
  4.8086852e-02
 -6.9248825e-01
  1.0622256e+00
 -7.4743360e-01
  2.5411634e+00
 -1.4874319e+00
 -2.2209132e+00
 -9.9242622e-01
 -6.8684036e-01
  5.6429161e-03
 -1.2227520e+00
 -1.5691623e-02
  1.2602867e-01
  3.5486701e-01
 -2.7531341e-02
  2.9027907e-02
  3.2118778e-03
 -9.5566818e-03
 -1.6091149e-01
  9.0299964e-02
 -5.9859887e-02
  1.2072250e-01
 -1.1514607e-01
  5.3660940e-02
 -4.0736902e-01
 -2.9521647e-01
  1.9059616e+00
  5.6780696e-01
  9.4455111e-01
 -2.6508166e-02
  7.2859424e-01
  1.3423740e+00
  1.2170716e-01
  4.4150677e-02
  2.4050160e-01
  1.2088957e+00
  3.3365238e+00
  3.3668905e-02
 -7.9059750e-03
  3.1109181e-01
  2.3564920e-02
  2.6446170e-01
  1.7678559e-04
  1.0286540e-01
  8.2660586e-02
  7.4290715e-02
 -1.0845769e-02
 -8.6706551e-03
 -9.0834340e-03
  4.0650803e-01
 -6.3020492e-04
 -2.1549523e-01
 -1.7241516e+00
  1.2854901e-01
  1.1337156e+00
 -3.0416942e-01
 -5.1865098e-03
 -5.5939519e-01
 -1.2240305e-01
 -2.8066143e-02
  4.1439002e-03
 -6.3564503e-01
  9.1754019e-01
  1.1646672e-01
  6.8624220e-03
  3.5665672e-02
 -3.6169165e-01
  3.6818257e-03
 -9.2833146e-02
  8.6146463e-03
  1.4887334e-01
 -1.4312285e+00
 -1.7386496e-01
  3.2250836e-02
 -3.4818612e-02
  4.8411405e-03
  6.8033682e-03
  7.8670271e-03
 -2.9997989e-03
 -1.8158788e-02
 -5.1404547e-04
 -7.0536387e-01
  7.9604551e-02
  2.9783168e-01
  9.4819613e-02
  1.6555926e+00
 -2.4729834e-03
  2.1141823e-02
 -1.4075742e+00
 -1.3422517e-02
  2.5818322e-02
  1.3969034e-02
 -1.5952418e-02
 -1.4730109e-03
  1.3587032e-02
  9.3319556e-03
 -2.7512258e-02
  1.2546693e-02
 -4.2475099e-03
  4.6805218e-02
 -3.0804623e-02
  9.8633664e-03
 -2.3957184e-02
 -4.9735583e-02
  4.6420237e-03
  7.4272831e-03
 -1.6427878e-02
 -1.0960529e-02
 -4.7428329e-03
 -2.7503051e-02
 -2.3423027e-02
 -2.9044178e+00
 -2.3589233e-01
 -1.1551108e+00
 -1.0495677e+00
  2.0967307e+00
 -1.7710846e-02
  7.7750986e-03
  3.4074217e-02
 -6.6219461e-01
 -1.2991440e-02
 -5.6427568e-01
  1.6619429e-01
  2.8997136e-02
  7.0828223e-03
 -2.1627771e-02
 -2.2563276e-01
  7.4755919e-01
 -9.0960851e-03
  8.0311432e-02
  2.6485643e-03
  1.2668705e+00
  1.9287970e-02
  3.5651052e-01
 -1.4178182e-02
 -1.8824030e-02
  3.0826187e-02
  1.1338326e-01
 -2.1856274e-02
  3.1083900e-02
  1.6297272e+00
 -1.2881982e+00
 -7.7863120e-02
 -1.8926808e-01
 -1.1288909e-01
 -1.0546027e-01
  1.1543352e-02
 -1.6034672e-02
  1.8581564e-02
  9.9614812e-03
  1.5098435e-02
  3.9076861e-02
  2.8588412e-02
 -2.2355841e-02
  1.1624896e-02
  1.7579291e-02
 -2.2030467e-02
  2.6292384e-03
 -2.6190454e-02
  5.4206856e-04
  3.0454060e-02
  2.2303475e-02
  7.0340238e-03
  4.8552562e-02
 -1.4736095e-02
  9.9693926e-04
 -3.8021784e-02
 -3.0426241e-02
 -4.4999341e-03
 -1.0238717e-02
  1.9392036e-02
  3.4696409e-01
 -7.4419087e-01
  3.6831501e-01
  4.2833474e-01
  8.5507923e-01
 -3.3903220e-01
  2.7660115e+00
 -8.0291927e-01
 -8.8900648e-02
 -2.1574283e-01
  1.6023706e-01
 -1.5514901e-02
  2.6858410e-02
 -3.0797036e+00
 -2.0111898e-01
 -2.1819758e+00
  7.5044346e-01
 -1.0331011e-02
  4.1768434e-03
  2.5530015e-03
 -5.4333878e-01
  2.1383404e-03
 -5.5174202e-01
 -2.9285467e-01
  3.2763407e-02
  2.5655525e-02
  8.8008214e-03
  2.8362586e-03
 -5.5755269e-02
  5.0144844e-02
  2.7308437e-01
  1.1200958e+00
  5.3394485e-01
 -9.7561997e-01
 -5.8938730e-01
 -1.5482888e-01
  4.5832711e-01
 -3.4167913e-01
  2.6809392e+00
 -8.8553905e-02
  5.7662600e-01
 -8.6563744e-02
 -2.0499215e-04
  4.3342516e-02
 -5.2385849e-01
 -4.5585833e-02
 -5.2308249e-01
 -6.7102977e-05
  1.6672254e-01
 -6.8411410e-02
 -9.4415635e-01
 -3.8397124e-01
 -3.1291386e-01
  1.3634593e+00
 -7.1680777e-02
 -1.9553469e-02
  2.5663048e-02
 -3.0316038e-02
  3.0046949e+00
 -2.9175578e-02
  3.3086383e-01
  4.0664256e-02
  2.9515025e-01
  1.8558262e-01
  3.5443747e-01
  5.8436589e-03
  1.2469438e+00
 -4.6003267e-02
  1.1806888e-02
  6.0893837e-03
  2.1618001e+00
 -3.1336895e-03
  6.9180980e-02
 -6.6591906e-03
 -1.2358162e-03
  3.2812819e-02
 -2.1685082e-02
  3.4665673e-03
  3.4852102e-02
 -1.1552947e-04
  1.2394799e-02
 -7.2677575e-02
 -1.3907456e-04
 -1.0651384e-02
 -1.5822268e-03
 -2.5349542e-02
 -3.6761921e-02
  3.3803914e-02
  1.5313016e-02
 -3.1193245e-02
 -2.5063440e-01
 -1.3915379e+00
  7.5304568e-01
  1.0020508e+00
 -3.3365393e+00
 -7.5709363e-03
 -3.8712372e-03
  1.1346353e-01
  2.2975925e-02
  1.1073285e-02
  4.6119189e-01
  1.6056024e-01
  2.2018522e-02
 -6.9060167e-03
  4.1887954e-02
 -3.9584385e-03
  3.1572881e-01
  6.6777222e-02
  3.9863769e-02
  5.3539053e-02
  1.0074730e+00
 -1.2890433e-01
  5.3077227e-01
  1.2787769e-03
 -7.6156825e-02
 -9.2164213e-03
 -6.0825940e-02
  4.0589198e-02
  3.4486387e-02
  4.6092585e-02
 -2.9136903e+00
  8.5375942e-02
 -1.7116246e+00
  2.5869619e-02
 -3.3439538e+00
 -1.3395609e-01
 -8.8723439e-01
 -3.4632616e-02
 -4.3533709e-02
 -1.4638139e-02
 -2.3668298e-01
 -4.9812946e-02
 -4.1050777e-02
  1.2579637e-02
  6.6650170e-03
 -2.9675335e-02
 -1.1518436e-02
 -2.5669940e-02
 -1.6595317e-02
  5.8848467e-03
 -1.0456704e-02
  1.7855480e-01
 -1.0227780e-01
  5.3025535e-03
 -1.3709472e-03
 -1.3419746e-02
  2.0774299e-02
  1.4540435e-02
 -1.3698050e-02
  5.7681318e-02
  2.8413436e+00
 -1.8397439e+00
 -7.5951004e-01
 -3.1733260e-01
  1.6822884e+00
  6.2013984e-01
  1.2895479e+00
  1.4044687e-01
  9.3256748e-01
  1.2772994e+00
  2.7378190e-01
  1.1548291e+00
  1.2594481e+00
 -7.5401592e-01
  1.3647914e+00
 -4.7908369e-01
  1.5303575e+00
  4.7481537e-02
  1.2420382e-01
  2.3585787e-02
 -1.4836611e+00
 -2.3480785e+00
  1.5655515e+00
  2.6007041e-01
 -8.9235288e-01
  2.7634355e-01
  3.5693064e-02
  1.6350670e-02
  8.0844563e-01
  1.2498108e-02
 -3.8881505e-01
  7.3676661e-02
 -7.6411426e-01
  9.7337639e-01
 -1.8596795e-01
 -4.2427443e-03
  9.5574969e-01
  7.0459443e-01
  5.7138130e-02
  1.8377097e-01
  1.1363602e+00
  7.1446851e-02
  1.3420336e-02
 -1.8615093e-02
  3.1168637e-01
 -7.0244873e-01
 -1.7468359e+00
  4.9940038e-02
 -1.5289776e-01
  7.4261084e-04
  9.2727952e-03
  1.0601819e+00
 -2.0699881e-01
  4.4423811e-02
 -4.1263781e-02
  5.2395235e-03
  4.9605031e-02
  2.8243968e-03
 -1.4159105e-02
  3.2392550e-02
  3.5784859e-02
 -6.0108501e-01
 -4.6747145e-01
 -1.4025335e+00
 -2.1195614e+00
  9.5113302e-03
 -1.1029134e-03
  2.3970628e-02
  1.1747455e-01
  3.0144537e-03
  5.2304335e-02
  7.1998276e-02
  3.2771826e-02
 -4.5076585e-03
  5.1321454e-02
  2.4196491e-01
  7.3799440e-03
 -5.4840040e-01
  4.9663084e-03
  2.9179703e-03
  1.6044706e-01
 -3.3495575e-03
  5.5274416e-02
 -1.2644950e+00
 -2.9802667e-03
  1.1423670e-01
 -3.6805641e-02
 -6.2354118e-01
  2.0224838e-02
 -1.3311515e-02
 -2.3008747e+00
  1.8386216e-01
 -1.2977530e+00
  2.8042738e+00
 -4.3682113e+00
  3.1388503e-01
 -7.0976865e-01
  6.7327656e-02
  1.6448826e-02
  6.7276403e-02
  2.3387527e-01
  1.9396393e+00
  2.3678331e-01
  9.2590423e-03
  7.2345652e-02
  9.2232299e-01
 -8.8348240e-01
 -6.8345433e-01
  2.9397938e-01
  3.5265453e-02
  1.2905936e-02
 -9.8008758e-01
  7.4595904e-01
 -1.7624812e-03
 -6.0126841e-02
 -2.3695398e-02
  3.1186420e-01
  1.2484117e+00
 -3.6813854e-03
 -7.0313700e-03
  3.0084715e+00
  6.5360121e-02
  7.8105307e-03
  3.6129425e+00
 -2.2149930e+00
  5.6386206e-02
 -4.2177707e-02
 -3.4066528e-04
 -1.5761864e-01
  5.1324748e-02
  2.2489415e-01
  2.1084720e-01
 -4.2598519e-02
  3.8869911e-01
 -2.7730484e-02
  1.2073431e-01
 -6.1463878e-02
 -4.2180255e-02
  8.4859982e-02
  1.5885666e-02
  3.3889621e-02
  7.5916811e-03
 -2.1272145e-02
 -1.0506698e-02
 -2.4950841e-02
 -3.6980290e-02
  1.1874063e-02
 -4.2221285e-03
 -1.4810079e+00
  1.5324087e-02
  1.2218696e-02
 -2.1287668e-02
 -3.4271339e-01
  1.2429790e-01
  3.9939061e-02
  8.0466801e-03
  2.9784737e-02
  6.6790015e-02
  8.2877120e-03
  2.9806005e-02
 -5.4680444e-03
 -3.4696106e-03
  1.6010892e-02
  2.2170551e-03
 -1.9448251e-02
  6.0151052e-04
 -2.1728905e-02
 -1.6637877e-02
  3.9012074e-03
  5.1474855e-03
  2.0832423e-02
  2.5793629e+00
 -2.2250246e-02
 -1.6797470e-02
 -2.2644404e-02
 -2.5738545e-02
 -9.1295457e-03
 -9.6961272e-01
  3.0754546e-03
  2.7528515e-02
 -6.5023601e-01
  6.5780020e-01
  1.7737484e-01
 -2.1020463e+00
 -1.7976178e-01
  3.8451765e-02
  2.1723332e-01
  3.6671668e-02
  1.3026291e-02
  4.6588466e-02
 -3.1674125e-03
 -2.5524551e-01
 -4.8812155e-02
  2.3886863e-02
  3.4891868e-03
  1.6329886e-02
 -3.1290833e-02
 -6.8030427e-03
 -1.0276867e-01
  1.0169961e-02
 -2.2151882e-02
 -2.5059400e-02
 -1.6292559e-02
 -2.5264578e-02
  4.3606814e-03
 -1.6083522e-02
 -1.9775927e-02
 -1.7900992e-03
  1.0090361e-02
  4.2643007e-02
 -1.4194794e+00
  1.8429625e+00
  1.1526736e+00
  3.0405948e-01
  2.0427388e-01
 -1.5691845e-02
 -2.4484687e-01
 -9.6900058e-01
 -3.9433447e-01
 -1.8314943e-01
 -7.2164708e-03
  9.4558531e-01
  7.0723748e-01
  1.1699733e-01
 -6.8109393e-02
 -6.7681313e-02
 -1.2341786e-01
 -6.8241161e-01
 -9.3206018e-03
  2.0583579e-02
 -3.0845955e-02
 -2.3585989e-01
  1.4554457e-01
  1.1524162e-01
  2.4953069e-01
  1.7029673e-02
 -1.1534555e-02
 -4.1498907e-02
 -2.5361495e-02
  2.5912017e-02
 -6.2257615e-03
 -7.4006371e-02
 -1.0795168e-01
 -3.5878614e-01
 -5.7767577e-02
  4.0117450e-02
  1.8909423e-03
  6.9459453e-02
 -1.2046196e-02
 -3.0744802e-03
 -4.8234321e-02
  2.8168153e-02
  4.0123165e-03
  6.3991213e-01
  2.2156846e-02
 -4.4190446e-03
  2.2599204e-02
  2.3377143e-02
  1.2415514e-02
  2.4736758e-02
  5.1926677e-03
 -4.3371855e-03
  2.1829797e-02
  7.7405097e-03
  9.8330099e-03
  2.2517037e-02
  4.5905095e-02
 -6.6761720e-01
  1.4447884e-02
  3.3927202e-02
 -9.5169164e-02
  1.0011828e-01
 -3.6374796e-02
 -1.8516655e+00
  2.8111830e-01
 -2.2778235e-02
  2.6279867e-02
 -6.9371350e-02
  1.8746458e-02
 -7.1120616e-03
 -1.6406205e-02
 -3.0211478e-02
  5.3242403e-03
 -4.2330246e-02
 -1.3359909e-02
 -1.4291669e-02
  1.5390145e-02
 -4.8782557e-02
  3.8463876e-02
 -2.3372205e-02
  1.6205207e-02
  4.1565616e-03
 -1.0726680e-02
 -4.4127341e-02
 -3.0656291e-02
 -1.3620127e-03
  7.4708350e-03
  1.8601162e-02
  1.1802841e-03
  2.4631115e-02
 -2.2339256e+00
  4.0233386e-01
 -1.1168970e+00
 -3.7361369e-02
 -1.2989820e+00
 -2.3117987e-02
 -5.8617059e-02
  7.0005623e-03
 -7.3774397e-02
 -4.3537118e-04
 -9.2777926e-01
  1.3088299e-01
 -3.8110156e-02
  1.4216826e+00
  3.2508171e-03
 -4.4064939e-01
  2.9807322e+00
  2.6683632e-02
  9.9478555e-01
  5.1276362e-01
 -2.0232512e-01
 -1.9871224e-01
  1.0108393e-01
 -5.8717005e-02
 -4.2413357e-03
 -4.2357832e-02
 -1.4697625e-02
 -4.6086805e-03
 -2.3827198e-01
 -3.4289360e-03
  1.2762003e+00
  4.9489906e-01
  7.9609954e-01
 -2.2065911e+00
  1.1890239e-01
 -7.1231145e-01
  8.0299843e-04
 -9.9735782e-03
 -3.3214081e-02
 -1.1139871e-02
 -4.8583038e-02
 -4.5941500e-03
 -5.9704054e-03
 -7.3215462e-02
  1.0548111e-03
 -4.5599700e-03
 -1.6339010e-01
 -1.3617266e-02
 -3.3489414e-02
 -4.3426013e-01
 -5.4955798e-01
  1.2682045e-01
 -2.6950673e-03
 -6.8700895e-02
 -1.9482350e-02
  7.2986507e-03
 -6.0632178e-03
  1.2393372e-02
 -4.2145327e-02
 -8.8865794e-03
 -5.2731198e-01
  1.1885360e+00
  3.4012842e-01
  8.8915682e-01
  2.0135209e-01
  7.2430777e-03
  2.0699546e-02
  1.4539841e-03
 -1.0861722e-01
  2.2366326e-03
 -5.2636564e-01
 -5.9055764e-02
  1.3409024e-02
 -9.1978207e-02
 -4.4762373e-02
 -2.3872010e-02
  7.4605411e-04
  9.7206719e-03
 -9.0391767e-01
 -9.6247001e-03
 -3.5497572e-03
  1.5616107e-02
  7.1419552e-02
  6.3108103e-03
 -7.1394667e-02
 -1.2871489e-02
  1.3636451e-02
 -5.9832647e-02
 -4.1330531e-02
  1.5737696e-02
 -5.9534423e-02
  5.9997378e-04
 -5.5102095e-02
 -2.0703711e-03
 -6.0778530e-03
  4.2610453e-03
 -2.4038618e-02
 -6.6639595e-03
 -1.2225349e-02
 -8.2587209e-03
 -1.6371682e-03
 -1.7576054e-02
 -2.3033010e-02
  7.1791068e-02
 -3.9067701e-03
 -3.1047303e-02
  3.6483515e-02
 -1.9915530e-01
  3.1963766e-02
  1.3760065e+00
 -3.0745880e-03
 -9.1064506e-04
  3.8377717e-01
  4.8461724e-02
  1.6823839e-01
  2.5542326e-02
 -1.2616111e-02
  1.9563127e-02
 -2.9926008e-02
 -6.4536482e-03
 -2.6863902e-03
 -6.7265570e-02
 -2.3685420e-02
 -2.8255438e-02
  5.3406935e-03
 -4.8655053e-03
  2.2316029e-02
  2.0233871e-02
 -4.3839786e-02
 -1.1234373e-02
  5.7324681e-02
  2.1319078e-01
 -2.5056005e-03
 -5.2910943e-02
 -1.6248159e-02
  4.7964938e-03
  1.0034601e-01
 -1.7607948e-02
  3.4386657e-02
  1.9069455e-03
  5.4476153e-02
 -3.8346797e-03
  1.2715950e-02
 -9.7159594e-01
  3.3999719e-02
 -8.5392613e-03
 -1.5180517e-02
  2.5003441e-02
  3.0149916e-02
  1.1114086e-02
  2.6123521e-03
 -2.3158205e-01
 -2.7624635e-02
 -9.0603784e-02
 -5.4281402e-02
  4.0590275e-02
 -1.6442243e-02
  1.2091808e+00
  4.0305727e-03
  1.6242428e-02
 -2.1418501e-02
  1.1700289e-02
  9.5998747e-03
 -3.0403236e-02
 -4.5206420e-02
 -8.0667531e-01
 -1.7567359e-02
 -4.4910040e-02
  4.4279879e-01
  4.2366363e-02
  5.9372533e-02
  3.5691403e-03
 -3.0307227e-03
  2.1602300e-03
 -1.7155986e-02
  2.2779794e-03
 -1.6392360e-02
  2.4136619e-03
  1.2378970e-02
  3.1138575e-04
 -9.0045661e-01
 -5.0474528e-02
 -9.7988349e-01
  2.7612698e+00
 -3.8261315e-01
  3.6362346e-02
 -9.0494975e-03
  2.9387146e-01
 -1.2821937e-02
 -1.1365899e-02
 -1.7683472e-02
  1.6074892e-02
 -7.9123136e-03
 -1.2732550e-02
 -1.6817320e-03
 -8.4656049e-03
 -8.1010848e-01
 -2.1055097e-02
  1.0168409e-01
 -7.6147996e-02
 -7.1074134e-01
 -3.2742962e-01
  7.4674532e-02
 -1.8332822e-02
 -4.9658529e-02
  7.5274687e-03
 -2.3512496e-02
 -1.2646391e-02
  3.2558639e-03
  4.3688556e-03
  1.1607839e+00
 -4.9133912e-01
  7.4043119e-01
 -3.2465345e-01
 -1.2498146e+00
 -1.4780751e-01
  8.3953729e-03
  1.9366267e+00
  3.2654315e-02
  1.2165263e-02
  1.0784080e+00
  4.3292999e+00
  5.2640880e-03
 -6.6775260e-03
  5.1183537e-02
  1.8152000e-01
  1.0045008e-01
  7.7410089e-04
  3.6127236e-02
  2.9521426e-03
  2.7327636e-01
  1.2356761e-01
 -3.1899267e-03
  1.8419357e-02
  1.0581927e-03
  9.9848527e-03
  1.4614922e+00
  1.2088903e-02
  1.4981666e+00
  1.4791077e-01
  2.7024875e+00
 -2.4384210e-01
  5.4708320e-01
 -1.2222724e+00
  5.4756337e-01
 -8.9063340e-01
  2.6867666e+00
 -8.3079286e-02
 -3.5614157e-01
  1.5161726e-01
 -6.4270660e-02
  9.0087748e-01
 -9.3168482e-02
  2.5955427e-01
 -7.7656078e-01
  6.4546213e-02
  8.4651130e-01
 -4.3603984e-01
 -6.9336021e-01
  2.1014005e-02
 -1.3942899e+00
 -1.1536419e+00
 -1.2369863e+00
 -4.6132272e-01
  5.1603758e-01
 -9.9984325e-02
 -1.0542222e-01
 -6.0940761e-02
 -8.3468832e-02
  4.1769502e-01
 -6.8255228e-01
 -5.0966185e-01
  6.8110959e-03
 -1.1871165e+00
 -1.8025320e+00
 -1.2083529e-02
 -4.6709767e-03
  4.1289087e-02
 -2.2038743e-02
 -4.0482130e-04
  4.0574402e-02
  1.4003560e-02
 -2.7190599e-01
 -3.7874326e-02
  9.1415256e-02
 -2.5900256e-02
  3.6134472e-01
  2.6902171e-02
  2.1226125e+00
 -3.4914643e-02
  1.4395189e-01
 -1.0299285e-02
 -6.7992508e-02
  2.4148300e-01
 -1.1958818e+00
 -1.2800489e-02
  6.6785735e-01
 -1.5862102e-02
  6.6201366e-03
  1.3144812e-02
 -3.5402951e+00
  8.3511109e-03
 -7.7815190e-02
  1.1797353e+00
 -4.3290234e-01
 -2.4979343e-03
 -1.6178055e-02
 -1.1356418e-02
 -1.0869192e-02
 -3.9844684e-02
 -1.1225366e-01
 -7.7258032e-03
  5.1864333e-02
 -7.7884948e-01
 -5.0787651e-03
  1.0751495e-02
  3.1394878e-01
 -7.0664167e-02
 -5.2604508e-02
 -3.1701845e-04
  9.9980633e-04
 -7.3462769e-02
 -8.4113292e-03
 -2.1424619e-02
 -3.2914469e-03
  2.0194883e-02
 -5.1072654e-03
 -4.3128312e-02
 -8.1760267e-04
 -4.9187047e-03
  8.8780409e-01
  5.2124381e-01
 -2.3882443e-02
  8.5786736e-01
  1.3531617e+00
 -3.8961284e-03
  2.9888913e-02
  2.0423102e-01
 -7.0485614e-02
 -9.1791700e-04
 -6.8624362e-02
  1.2594020e-03
  6.8660886e-03
  1.0366889e-02
 -1.8665519e-02
 -2.4578843e-02
  6.9217259e-01
 -2.4754375e-02
  5.6530438e-02
 -5.2595912e-03
 -1.9578893e-01
  3.8030988e-03
 -5.9405800e-02
 -9.5211947e-03
  5.2118651e-03
 -1.0534427e-01
 -9.6616991e-02
  1.6930779e+00
 -1.1556012e-02
 -1.6700964e-02
  1.5388942e-01
 -7.1244359e-02
 -8.4089944e-03
 -4.5624409e-02
 -9.6946281e-01
  7.7167424e-05
  4.1836753e-02
  1.9351160e-02
  5.9186020e-03
  8.6530345e-03
  1.0127539e-02
 -7.7236835e-03
 -8.0004044e-02
 -2.2459112e-03
  7.2482221e-02
 -1.4403068e-02
 -1.0546939e-02
  1.7262260e+00
  2.1649539e-02
  1.4439065e-02
  1.7109947e-02
  1.7183190e-02
  3.0861199e-03
 -3.8301609e-03
  1.3529754e-03
  5.4101734e-03
  4.3267072e-03
  2.2905245e-02
  3.7600223e-02
 -4.9437171e-01
  1.0744306e+00
  8.7200299e-02
  1.8001065e-01
  1.5868793e+00
  5.8054745e-02
 -1.4597509e-03
 -3.9676700e-02
 -1.8137816e-02
  2.9074498e-02
 -6.4214040e-04
  3.1688677e-03
 -9.4553446e-03
  3.8423077e-03
 -9.0461634e-03
 -1.8121860e+00
 -6.6274893e-03
  2.6259625e-03
  1.0534740e-02
  3.4995403e-02
 -7.6480140e-03
  1.7207153e-02
 -2.0397183e-02
 -2.3493762e-03
 -4.7831919e-02
  2.2108752e-02
 -5.0933130e-02
  1.3318184e-02
  8.6212978e-03
 -8.2228772e-02
 -3.1202538e-02
 -2.0959873e-01
 -9.5339924e-01
 -1.1317438e+00
 -1.7605246e+00
  8.9240211e-01
 -1.0078551e+00
 -9.4553488e-01
 -8.8417232e-01
 -2.2140200e+00
  8.7465405e-01
 -5.5983770e-01
 -1.4013795e+00
 -1.6217662e+00
  2.4626842e+00
  3.7478164e-01
 -2.0841780e+00
  1.8767673e+00
 -3.2582086e-01
 -1.4027309e+00
 -8.6931205e-01
 -1.5808856e+00
 -3.6287361e-01
 -2.1143208e-01
 -2.3787548e-01
  1.9862388e+00
 -3.2742336e-01
  1.0262500e-01
 -3.8892546e-01
 -1.8837078e-02
  1.0998212e-01
 -3.4340066e-01
  2.2898014e+00
  7.6572114e-01
  1.0760704e+00
 -1.1149855e+00
  5.9243077e-01
  1.3975631e+00
 -1.7793772e+00
 -5.3053969e-01
 -2.6915777e-01
 -1.8549532e+00
 -1.0245069e+00
 -5.6540245e-01
  4.3617198e-01
  1.2893692e-01
 -1.0807908e+00
 -6.8642807e-01
  1.6341797e+00
 -5.6378245e-01
  1.5995110e+00
  1.3812723e+00
 -3.5034275e-01
 -7.7600718e-01
  7.7462119e-01
  3.7967503e-01
  1.7185413e+00
  2.4948011e-01
 -1.5075814e+00
 -1.1610304e+00
  1.7085553e+00
 -1.4062710e+00
 -8.6898595e-01
  2.9628439e+00
 -1.3858346e+00
  8.3125073e-01
 -1.6805805e+00
 -1.3254292e+00
 -6.1193675e-01
 -1.8802054e-01
 -2.7585146e-01
  3.0113739e-01
 -5.3652567e-01
 -8.5199428e-01
 -1.3487341e-01
  6.8421674e-01
  4.8907101e-01
  1.4025493e+00
  7.3169041e-01
  3.8254479e-01
 -1.2422024e+00
 -1.6454617e+00
 -1.6542093e+00
  9.4452709e-01
 -1.7399198e+00
  2.4833475e-01
 -1.4922051e-01
 -1.4456425e+00
 -9.5924860e-01
 -6.3262171e-01
 -2.3944631e-02
  7.2305924e-01
  2.3293625e-01
 -8.9430588e-01
  4.7959611e-01
 -2.3611236e+00
  7.3451436e-01
 -2.6205680e-01
 -1.7038075e+00
  2.2167617e-01
 -8.2743183e-02
 -1.2720712e+00
  3.4021948e-02
  1.2207578e+00
  1.0108523e+00
  2.0464821e-01
 -2.9052633e-01
 -1.5744065e-01
  4.6557087e-01
 -2.0629314e-01
 -6.3904233e-02
 -1.2333705e+00
  1.9779723e-02
  1.4217786e-02
  3.9441353e-01
  2.2092290e-02
 -6.0845292e-01
 -1.7844209e-02
  4.3815318e-03
 -7.7363104e-02
  9.3659498e-02
 -1.1067615e-02
 -5.8553122e-02
  6.8717167e-02
  2.5246473e-02
 -1.2818618e-01
  1.9384054e-02
  1.3960926e-02
  1.8906763e-03
  2.2338305e-02
  3.8978457e-02
  1.1993775e-02
  2.4308106e-03
 -6.5746748e-01
 -5.5436589e-02
  2.4180595e-02
 -3.8686924e-02
 -1.3076325e-02
 -9.7661326e-03
 -4.6779614e-02
  3.7515506e-02
 -2.3282280e-02
  3.6590572e-02
  1.6370906e-02
 -5.6966186e-05
  6.5759760e-03
 -4.7135804e-02
  2.3564221e-02
  6.2899999e-03
 -2.2814825e-02
  3.7631262e-02
  1.1513045e-02
  7.1085557e-02
 -1.0700427e-02
 -4.6604224e-02
 -2.4743140e-02
 -1.3673685e-02
  1.2859906e-02
 -6.2621191e-02
 -1.4061572e-02
  3.6666598e-02
 -7.3388582e-01
 -6.3525558e-01
  5.0325274e-01
 -1.9985131e+00
 -7.4115627e-02
 -1.1159909e-01
 -2.5620101e-02
 -1.6151825e-02
  7.7992873e-03
  3.3534455e-01
 -6.8679726e-01
 -2.7206030e-02
  1.7707080e-03
 -3.2699596e-02
 -1.2957325e-02
  2.2217225e-01
 -3.1305963e-04
  1.0490281e-01
  4.7432467e-01
  1.1215165e-01
  1.3540906e-02
 -3.2614425e-03
  3.0375585e-02
 -4.4037163e-01
 -8.9380696e-02
  1.4254560e-01
  9.9216839e-03
  1.4443473e-02
  2.5495207e-02
  9.3149617e-03
 -1.3460343e-01
 -2.0312765e+00
 -2.8539151e-01
 -1.3099842e+00
 -2.4470407e-01
 -2.3523219e-02
  1.2387170e-01
  3.7580740e-03
 -1.1564765e-02
  4.6535048e-01
 -3.2622948e-02
  8.8517062e-02
  6.1943289e-03
 -4.1454095e-01
 -3.6268655e-02
  2.0498078e-02
  1.8123170e-02
  4.3571512e-03
  3.3470366e-02
  2.6687968e-01
  4.9249403e-02
 -2.3391824e-03
 -4.1379832e-02
  7.0847902e-03
 -3.4305371e-02
  1.3382909e-02
 -1.8018572e-02
 -2.9818194e-02
 -2.8652400e-03
  7.0491634e-02
 -3.7525501e-02
 -1.8269899e-01
 -1.5132783e-02
 -4.3784823e-02
  2.4146486e-02
  8.4370282e-03
  1.2901061e+00
  3.5802323e-02
  1.0273688e+00
  4.5399200e-02
  1.4333633e-01
 -3.3763316e-02
 -3.4649368e-02
 -2.2550117e-02
 -2.8262343e-02
 -2.3366679e-03
  4.1228007e-03
  9.0916539e-03
  6.1334658e-02
  1.1076365e-02
  3.7093405e-02
 -1.4649536e-02
 -1.6153062e-02
  7.6989071e-03
 -3.4506805e-02
 -1.9404629e-02
 -2.6993172e-02
  1.7138250e-02
 -6.9895457e-03
 -3.5649188e-02
  3.5194755e-02
  2.9625154e-01
  2.8134087e-01
 -4.0183343e-02
  7.9791144e-02
  9.2056189e-03
 -2.8647462e-02
 -1.5123729e-02
 -4.3994918e-02
  1.1409174e+00
 -1.0209832e-02
 -4.1065179e-02
  3.3666764e-03
 -2.2892218e-02
  2.6097107e-03
 -7.7969064e-03
 -1.1574744e-02
 -1.9164564e-02
 -5.9253713e-03
  1.0118762e-02
 -5.2272230e-02
 -6.1880294e-02
 -1.5782740e-02
 -4.9753897e-02
 -1.0599557e-02
 -2.0098103e-02
 -7.9073273e-02
 -1.8944152e-02
  2.7184604e-02
 -1.7258974e+00
 -1.4954807e-01
 -8.2419023e-02
  6.2110595e-02
 -1.5648849e+00
  2.2747030e-02
 -1.3065226e-02
  1.3852164e-02
  8.8609204e-02
 -2.6750574e-03
 -2.7455091e-05
 -1.1572815e-02
 -6.7690022e-02
 -2.0996857e-02
 -1.1266002e-02
 -4.1694731e-02
 -4.3954577e-02
  5.3743053e-02
  7.6771821e-03
 -1.6765125e-03
  1.0265156e+00
  7.8029834e-02
  1.4614968e-02
  4.1051690e-02
 -2.6701880e-03
  3.7589587e-02
 -1.0565971e-02
  2.3182686e-03
 -1.9821465e-02
  9.4378367e-02
 -1.1859339e-02
  1.7445501e+00
 -9.6703589e-01
 -4.2682904e-01
  2.2171544e-01
 -1.6996720e+00
  8.1233844e-02
  3.1405552e-03
  1.6474064e-01
  7.1933314e-02
 -5.0386591e-03
 -6.5265797e-02
 -4.3832436e-02
  2.7983351e-02
  4.9701071e-01
 -2.9136655e+00
 -2.8628200e-02
 -9.2679012e-01
 -4.2986339e-03
  1.4648613e-01
 -1.1984357e-02
 -6.4104111e-03
 -1.7069718e-03
  5.2904512e-04
  6.4547831e-01
  9.7754821e-02
  4.3278337e-03
  1.1094463e-01
  3.1375442e-02
 -1.6399680e-02
  9.5821628e-03
  2.4290597e-02
  1.1646908e-01
  1.2204352e-01
 -7.5342721e-01
  4.0943691e-05
 -2.1167472e-02
 -1.7762693e-02
  5.9491310e-02
 -7.9206107e-03
  2.0172643e-02
  2.3810067e-03
  1.5817404e-02
 -1.5962251e-02
 -2.8813707e-02
  3.4954526e-02
  2.8672993e-01
  1.6770792e-01
  5.7558399e-03
 -2.2177337e-02
 -1.4752561e-02
  4.0371247e-02
  1.7912482e-04
  6.2792689e-02
  4.3692682e-02
  2.7083747e-02
 -2.2652565e-02
  2.8057864e-02
 -3.5717987e-02
 -4.7851205e-02
 -2.5855590e-02
  6.1849791e-01
 -1.0879446e+00
  6.8735284e-01
 -1.3992554e-01
 -2.0029287e-01
 -8.2502007e-02
 -1.2073108e-01
 -1.0674295e+00
 -7.5460076e-03
  7.9947662e-01
 -2.4298022e-02
 -2.2541909e-02
  2.8734505e-02
 -1.7669145e-03
 -1.5144718e-01
  3.2228383e-01
 -3.2563165e-01
 -3.6339037e-04
 -6.5498360e-02
 -1.4053762e+00
 -7.4070729e-03
  3.6190145e-02
  1.7770413e-01
 -1.1589296e+00
  4.2854869e-01
 -6.9976544e-01
  9.2336692e-02
  1.5427199e-02
 -1.3272218e-01
  1.7038176e-02
 -2.5052195e+00
 -1.3008647e-01
  6.2564439e-01
  2.3411272e-01
  6.0385579e-01
  1.6415105e+00
 -3.3181999e-02
 -5.7724380e-01
 -2.0290226e-01
 -1.6463226e+00
  5.8452994e-01
  8.2191747e-01
 -2.3243544e-03
 -9.8157161e-01
  6.1165472e-04
  7.9648763e-01
  1.2619486e-01
  2.4121191e-01
 -6.3843399e-01
 -1.7925596e-02
  2.2002206e+00
 -4.0835589e-01
 -1.6505864e-01
 -4.2881441e-01
  3.7122586e-01
  1.5869921e-01
  2.4948778e-02
 -1.0711244e-01
  2.3757842e-01
 -2.1256038e-03
 -3.9054868e-01
 -1.2458847e+00
  2.1827140e-01
 -2.9017559e-01
 -4.1400552e-01
  6.4148000e-03
  1.6347222e-02
 -2.6528863e-02
  4.2534366e-02
  1.5975969e+00
  3.1996395e-02
 -5.0534913e-03
 -3.5255615e-02
  5.2423692e-01
  9.8542112e-01
  1.4931692e-02
  1.1076149e-01
  2.8000534e-02
  6.4838761e-01
  1.4078286e-02
  7.0170090e-03
 -5.7637371e-02
  2.8880965e-03
  3.5189852e-02
 -1.0062000e-02
 -3.8952768e-02
  6.5645361e-01
 -3.1457769e-03
 -2.7041560e-02
 -4.4338019e-03
 -2.0556910e-02
 -3.8330186e-02
  4.1935253e-03
 -4.6228722e-02
 -1.0569145e-01
  6.2218398e-02
 -1.8575767e-03
  7.5006979e-03
 -1.5027462e-02
  9.0775043e-01
  2.7034832e-02
 -3.1219672e-02
  3.3252737e-03
  1.5264390e-02
  5.2903681e-03
 -3.9094284e-02
  1.0134795e-02
  1.2567007e-02
 -4.1211858e-01
  4.4490978e-02
 -1.6837288e-02
  1.0759344e+00
  2.8891150e-02
  2.1251790e-02
  3.0924503e-02
 -2.4979822e-02
 -7.0825338e-02
 -1.9468969e-02
 -2.5385762e-02
  1.3164218e-01
  1.1990201e-02
 -5.7045507e-01
  4.8192581e-03
  2.5301561e+00
  7.3944046e-03
 -1.4223127e-01
 -6.7850821e-02
 -2.3971861e-03
  9.8128453e-02
  1.2419174e-01
  5.3813998e-02
 -3.1247856e-03
  3.4497395e-02
 -7.0160933e-02
 -2.4556506e-03
  1.6117226e-02
  1.1704900e-01
 -2.0309988e-02
  8.9514911e-02
 -2.1541880e-01
 -3.5372026e-02
  1.8304794e-01
  3.5799989e-03
 -1.7477127e-02
 -5.9024423e-02
  2.3801187e-02
  2.4003729e-02
 -7.5009122e-02
  2.5237354e-02
  2.6118639e-01
  5.3423140e-02
  1.7926607e+00
 -1.2258217e-01
 -1.7202743e+00
  1.4442070e-01
 -2.8322980e-01
 -2.4835175e-02
 -7.2755860e-03
 -3.1361843e-03
  1.1136853e-01
 -4.3254133e-02
 -1.1524712e-01
  8.9525223e-02
 -1.7140468e+00
 -2.1043302e-01
 -1.0669210e+00
 -3.0046871e-02
 -6.2313493e-02
 -3.7124150e-02
 -4.7417200e-01
 -7.2242215e-02
  1.4054342e-01
  1.5123653e-01
 -2.7095541e-01
 -4.8542641e-02
 -3.1747781e-02
  1.7274779e-01
  2.8748381e-01
  8.2704864e-02
  6.7011821e-03
 -2.4499130e-02
 -2.8013760e-01
 -2.1332470e-01
 -9.1875839e-01
 -2.1894740e-01
  3.0748233e-02
  5.6398608e-02
 -9.0330549e-02
 -9.3867458e-02
 -1.9857173e-03
  3.5043966e-02
 -3.2477751e-02
  4.9153555e-02
  3.5754118e-02
  7.5872496e-02
  4.0429276e-03
 -5.6946278e-03
 -4.9405929e-02
  4.8236120e-03
  1.6692920e-02
 -6.2774259e-01
 -3.0274639e-02
 -1.8622722e-01
  1.0187119e-01
  2.9663792e-02
 -3.5954654e-02
  8.5750474e-03
 -3.5573044e-04
 -1.0071236e-01
 -3.3582211e-02
  2.2350008e+00
  3.5811163e-02
  6.7352039e-01
  7.0401931e-01
  4.3534943e-01
  2.6686965e-02
 -7.6492839e-02
 -3.0829830e-02
 -2.6367083e-02
 -1.3290021e-02
 -4.5949067e-03
 -5.8041699e-03
  1.3279932e-02
 -4.7980066e-02
 -7.6986447e-02
  3.8779807e+00
  1.4958147e-02
 -4.5666236e-02
 -5.4158572e-02
  5.1253688e-01
  1.7991176e-01
  4.7821449e-03
  1.7675930e-01
  1.8903758e-01
  4.8246518e-01
 -2.7115345e-02
  2.7146297e-02
 -5.2459086e-03
  2.1750523e-02
  5.3806633e-02
 -2.8084886e-01
  1.3160048e+00
 -1.0838395e-01
 -4.8884824e-01
 -9.8242736e-01
 -1.6720012e-01
 -6.0823453e-03
  2.0914322e-02
 -4.5394164e-02
 -2.9412864e-03
 -3.1047864e-03
 -3.7873373e-03
  1.6969027e-02
  2.4395247e-04
 -3.1228498e-02
 -2.4694409e-02
  3.3913313e-03
 -1.5534531e-02
 -8.2136309e-03
 -4.9592745e-02
 -7.5930230e-02
  1.3251781e-02
  1.5464915e-03
  9.4919372e-03
  1.2657872e-02
 -4.9117193e-02
 -9.3363617e-03
  1.3761189e-02
 -5.5735498e-03
  8.7130703e-02
  2.4083786e-02
  9.9602332e-03
  4.6837643e-02
  3.1143653e-01
  5.4733194e-02
  4.8526086e-02
 -8.4487181e-03
 -5.3490694e-03
  2.5978321e-02
  4.7488320e-01
 -1.9448036e-02
  4.2041079e-03
 -4.7362226e-01
 -2.0226674e-02
  3.8743459e-02
 -1.0291236e-02
  6.8119429e-02
 -3.2731587e-01
 -7.7953585e-03
 -1.1300374e-02
  2.7746562e-02
 -4.1996410e-01
  4.2152543e-02
 -4.1397523e-02
 -2.4469974e-02
  7.5025968e-02
  4.7985326e-02
 -2.0439915e-01
 -2.8909557e-03
  4.6827834e-02
 -4.1921157e-01
 -1.2875589e+00
  1.9782456e+00
  4.0375504e-01
 -1.0277423e+00
 -3.6363313e-03
  1.4998788e-02
  1.7705394e-02
  3.6423415e-01
  3.7216011e-01
  6.7130253e-02
 -7.7097215e-02
 -3.8493682e-02
 -7.9916567e-02
  4.1927081e-03
  5.0478373e-02
  1.6654057e-02
  3.1584166e-03
  5.8997497e-03
 -1.1617310e+00
  1.9605391e-01
  6.6412389e-02
 -7.2128638e-03
 -1.8796906e-02
  2.3766356e-02
  1.0687930e-01
  5.6581758e-04
  3.5385869e-02
 -2.1529245e-01
  2.8949492e-03
  4.5553258e-01
  1.3569705e-01
 -6.6296118e-01
  1.7587830e+00
 -6.5497530e-01
  3.3143949e-04
  1.7349271e-02
  7.7015422e-02
  3.9155129e-02
 -1.5509108e+00
 -9.3913651e-01
  1.2922697e-01
  8.9667095e-03
  6.6254866e-01
 -3.1611678e-01
 -8.2510084e-01
 -2.5592923e-02
  1.7198641e-02
 -1.9586137e-02
  1.8078639e-01
 -1.0112173e-01
 -6.9897054e-03
  3.7221022e-02
  2.2618179e-01
 -1.4316952e+00
 -7.8851208e-02
  1.5531302e-02
 -4.2919591e-01
 -2.6755372e-02
  2.8746100e-03
  1.6161039e-02
 -2.6946142e-01
 -1.4618948e+00
  8.1781633e-02
 -2.6559331e-02
 -1.1207733e-01
 -2.3773413e-02
  5.5629205e-02
  1.8899555e-03
 -5.5298543e-01
 -1.3568072e-02
 -9.1733553e-02
  4.6015803e-02
 -8.1396224e-03
 -2.6170691e-02
 -6.5086745e-02
 -6.8852128e-03
  1.6491337e-03
 -8.1163980e-03
 -1.1523978e-02
 -3.2448035e-02
 -1.9196600e-02
  2.5243230e-02
  8.0694202e-03
  1.2049446e-02
 -1.6932860e-02
  2.3781445e-02
 -2.7258100e-02
 -1.1306522e-02
  6.2525142e-03
 -3.4688011e-02
 -4.2459732e-01
  5.3326327e-02
  1.2087177e-01
 -2.4745766e-02
  5.2187596e-02
 -1.2320561e-02
 -3.0092383e-02
 -6.7007393e-02
  3.4021311e-02
 -1.8620979e-02
 -2.8935794e-02
  2.8783649e-02
 -1.2891633e-02
 -1.3538674e-02
  4.8744801e-02
  4.7702123e-03
  1.6380196e-02
  2.4445402e-02
 -1.2507936e-02
 -1.2466961e-02
  9.0353811e-01
 -1.1720065e-02
  9.7634463e-04
 -5.5328319e-03
  1.3908734e-02
  2.3859270e-02
 -2.1184405e-02
 -1.4162798e-03
  1.1586116e-02
  3.1705506e-02
  3.7097940e-01
 -2.2683202e-01
 -1.5466071e+00
 -2.4492030e-03
  1.6232228e-02
  1.5565560e-02
  4.8177540e-03
  1.2436471e+00
 -2.1494988e-01
  1.8907538e-02
 -1.3672438e-02
  1.9612223e-02
  7.6828653e-01
  8.3671613e-03
  9.4928767e-04
 -1.9378001e-02
 -6.1356735e-01
 -5.1075742e-03
  8.8411644e-03
  8.3856389e-02
  1.2126366e-02
  5.3572054e-03
  3.0422121e-02
 -1.0985998e-01
 -1.9291639e-02
 -7.4957430e-01
 -4.0459197e-02
  8.1951432e-03
 -4.7550939e-02
  8.1900280e-04
  2.1610606e-02
  8.6345091e-02
  6.1238271e-01
  2.5858709e-01
  1.4080360e-02
 -2.6999093e-03
  2.9367538e-02
 -3.0553837e-03
 -4.9127728e-02
  5.4907069e-02
  1.6713011e+00
  1.5947381e-02
  5.4726303e-03
  5.2875284e-02
 -9.4225091e-01
  1.4066315e-02
 -1.2038874e-02
  2.8436910e-02
 -5.7476498e-03
  4.5537124e-03
 -9.2189377e-03
  5.1753752e-02
 -3.0731045e-02
  2.9734574e-02
  2.7780311e-02
 -1.0084160e-01
 -2.1119993e-02
  1.4097404e+00
  4.1658614e-02
  1.4987305e-01
  4.9322616e-02
  4.8267376e-03
  2.7892721e+00
  3.1561020e-01
 -3.9698351e-02
 -1.0582750e-01
  3.5115175e-02
  1.8260231e-02
  8.6139617e-03
  3.5336247e-01
 -1.9864300e-01
  3.3789913e-03
 -1.4685133e-02
  2.3969231e-02
 -9.0119531e-03
  1.7743235e-02
  5.4223988e-02
 -2.8380297e-02
 -1.3314749e-01
  6.6833086e-02
 -8.4490120e-02
 -3.5342168e-02
 -1.4358936e-02
 -1.1942050e-02
  1.1124670e-02
  1.3067580e-03
 -1.1505384e-03
  1.3661912e-01
 -2.1766496e+00
  3.6326617e-01
  6.4177442e-01
 -4.4078296e-01
  1.4518396e+00
  1.8560596e+00
 -1.2411816e-02
 -3.7328267e-01
  7.4937262e-02
  3.5465892e-02
 -8.6769116e-01
  9.3000857e-03
 -1.5836429e-02
 -3.0097600e-02
  1.5949924e-03
 -2.3662526e-02
 -1.6712492e-02
 -3.0584075e-02
  1.0728122e-02
 -2.7210254e-02
 -1.6433498e-01
  1.1901535e-01
  4.5393307e-02
  1.0234255e+00
 -1.1037810e-01
 -7.7803992e-02
 -4.3337043e-02
  9.6853726e-02
  3.4679167e-02
 -1.7212028e-02
  1.5267092e-03
  3.0409736e-03
 -3.6019240e-02
 -1.4547274e-02
 -2.0300539e-01
 -2.5840936e-04
  8.9867916e-03
  8.7394729e-02
  1.4220548e-02
 -1.5927449e-02
  8.2715219e-03
 -6.2930979e-02
  1.5958982e-02
 -9.2057409e-03
 -3.4209895e-03
  5.0825090e-03
 -4.6753373e-02
 -2.5196040e-02
  1.0134682e-02
  1.5736591e-02
 -2.0817378e-01
 -7.7093011e-01
 -1.5075705e-03
  7.9053147e-03
 -2.3130856e-03
  1.1401991e-02
  2.0332744e-02
  2.4700886e-02
 -2.5254607e-02
  9.6267238e-03
 -3.0084299e-02
  1.6660742e-01
  1.1715908e+00
  2.1828287e+00
 -1.8014248e-01
  5.5740219e-01
 -5.4371417e-01
  9.1866530e-02
 -9.2454530e-02
 -6.6456459e-02
 -3.3124056e-02
 -2.2400613e-01
  6.4003237e-02
 -3.0206457e-02
 -1.3249794e-01
 -5.1762849e-01
 -8.4749877e-01
  5.2835781e-02
  1.4048001e-02
 -2.1342118e-01
 -2.9106513e-01
 -4.3978244e-01
  1.2860915e-02
  7.5906374e-02
 -2.3921315e-01
 -1.0532551e-01
 -6.8116643e-02
 -2.5176324e-02
  4.5382690e-02
  7.9680875e-02
 -6.0792971e-01
 -2.0356391e-01
 -1.6652548e-01
  9.5835549e-01
  2.0923559e-01
 -1.0007406e-01
  8.1389060e-04
 -7.7369779e-02
 -6.4629167e-03
  3.7273485e-02
 -3.6876634e-01
  1.4169772e-02
  3.7572417e-02
  9.0722889e-03
 -2.2024328e-02
 -2.0804212e-03
 -2.9234041e-02
 -4.0034126e-02
  1.0412429e-02
 -5.6562696e-02
  3.6000270e-02
  1.5621397e-02
  6.1645538e-02
 -1.7674869e-02
  1.7804746e-02
  6.7391592e-01
  1.3326675e-02
  4.0963389e-02
  4.8420954e-02
 -1.5266094e-02
 -1.7705366e-03
  1.6877600e+00
  1.0328280e+00
  1.9980391e+00
 -7.4430287e-01
  7.2022694e-01
  3.5201064e-01
 -1.6859119e-01
 -1.9070902e+00
 -6.0021658e-03
 -7.2526217e-02
  2.6372740e-01
 -5.5390585e-02
 -3.6570143e-03
  1.2816444e-01
  2.0451425e-01
 -3.6376381e-01
 -2.7214238e-01
 -1.3156678e-02
  4.2762184e-01
  2.3831148e-02
  1.3192694e-02
 -7.3842444e-02
  2.7071905e-01
 -3.6265779e-01
  6.6139263e-01
 -9.1622204e-02
 -3.5154231e-02
  2.0347370e-02
  5.8309329e-01
 -1.9593911e-02
  1.7371347e-02
  4.8934794e-03
 -1.2734161e-02
 -2.9464034e-02
  1.2369964e-02
  4.8504933e-03
 -2.4736226e-03
 -2.5275223e-02
 -6.1781280e-02
 -1.1932374e-03
  5.5236887e-02
 -8.5317492e-02
 -6.4648278e-02
  1.9613497e-02
  2.2012314e-02
  8.9143850e-03
  2.9384820e-02
  5.9924986e-02
 -4.1313991e-03
 -2.3156060e-02
 -2.9767498e-02
  1.0015247e+00
 -2.6609428e-02
  3.3238396e-02
  3.5492159e-02
 -2.2928009e-04
 -6.9439575e-02
 -1.8642615e-01
  2.3717333e-03
 -1.4167566e+00
 -2.5024221e+00
  4.3176621e-01
 -2.0412664e-01
  5.9685665e-01
  1.4868906e-01
  1.6777912e-02
  1.5042870e-02
  7.0021981e-01
  9.1163136e-02
 -1.8347603e-01
  1.4919871e-02
  4.2088374e-02
 -1.4601324e-01
  1.8851444e-02
  2.6280023e-03
 -4.3622563e-03
 -4.9481437e-01
  7.1832389e-03
 -1.4195645e+00
 -1.2154077e-01
 -2.3579594e-02
 -1.3531600e-01
  2.0385647e-02
 -4.1113667e-02
 -6.0708398e-01
  1.7252075e-03
 -4.9864940e-02
  1.3807755e-02
 -1.2418032e+00
 -3.8624480e-02
 -2.1935804e-01
 -1.7352165e-01
  1.6326480e-02
  3.5386455e-01
  5.2398182e-02
  3.8813259e-02
 -1.2554036e-02
  1.1149559e-02
 -1.1617852e-02
 -5.7314360e-03
 -1.0593610e+00
 -6.4568263e-03
 -6.4613912e-03
 -1.7807735e-02
 -6.0451161e-02
  9.1740116e-03
 -2.5707906e-02
 -6.0743783e-03
 -2.0113559e-02
 -1.7301580e-02
  7.2570845e-02
  2.9439108e-02
  4.0834383e-03
 -1.2055045e-02
  1.5325084e-02
 -1.5808027e-03
  6.3514411e-02
  2.8761476e-02
 -1.9356908e-02
  5.0270311e-03
  4.6339288e-02
  1.8287472e-02
 -7.3840864e-02
  2.3242917e-02
  1.4130766e+00
  3.6056999e-03
  1.4532901e-02
  1.3654360e-03
  1.2915465e-02
 -3.0306466e-02
  1.3166080e+00
 -4.3621950e-02
 -4.9864285e-02
 -4.0365439e-02
  3.1603821e-02
 -4.7783345e-02
 -1.3446601e-02
 -7.7280100e-03
 -5.5768466e-01
  2.1653997e-02
 -8.1797047e-03
 -3.3577264e-03
 -2.4772702e-02
 -8.5707400e-03
 -6.6819742e-02
 -4.5801047e-02
 -5.9050325e-02
  7.4444804e-03
 -3.2101108e-03
 -2.2562331e-02
  4.6137217e-02
 -7.0472900e-03
  5.7797238e-02
 -3.9199445e-01
  2.2344483e-02
  1.2828021e-02
 -6.9295568e-04
 -5.3768475e-03
  1.5370426e+00
  6.5310816e-03
 -2.3234034e-02
  1.0600490e-02
  2.2752942e-03
  8.2754716e-03
 -9.8741157e-03
  6.2885694e-02
 -2.4109174e-02
 -4.6985750e-03
 -7.6388428e-03
 -3.0250350e-04
  2.6147094e-02
 -2.3102434e-02
  3.0227080e-02
  6.4100914e-02
 -7.7781105e-01
 -8.8379653e-03
  5.9242407e-03
  2.2663265e-02
  3.2229421e-03
 -8.4021845e-04
 -3.0870216e+00
  4.5191601e-01
  1.0684419e+00
 -1.3412390e+00
  1.9397379e+00
  2.1905935e-01
 -3.1819806e-01
  2.0080082e-01
  2.8735481e-02
  1.3692185e-01
 -6.1476469e-01
  3.7521336e-02
 -3.3109561e-02
 -4.8011044e-01
  1.5312906e-01
 -7.1193717e-02
 -3.4565430e-02
 -1.1194643e-01
  8.0627270e-02
  2.5777000e-03
 -1.0317045e-01
  4.3533267e-03
 -1.4402674e-03
  6.7524309e-03
  4.8103984e-02
 -4.1131742e-02
 -1.7492491e+00
 -1.7601367e-02
  4.9382267e-03
  5.7145720e-04
 -1.1820795e-01
 -1.0107204e+00
 -2.1467136e-02
 -1.0161566e+00
  5.4071173e-02
  3.7272545e-03
 -4.3224514e-02
 -4.9562588e-02
 -9.0320595e-03
  2.1228156e+00
 -5.8015729e-03
 -1.2904792e-02
  3.1780146e-02
  2.3000337e-02
 -4.9515732e-02
  6.6763381e-03
  8.9510344e-03
 -1.8715748e-03
 -6.2892087e-02
  5.5072522e-03
  6.0415603e-02
  2.7332548e-02
 -3.3059906e-02
  5.1386368e-02
  1.1849208e+00
 -3.7059665e-02
 -2.1950702e-01
 -1.5432124e-02
 -7.6151104e-03
 -2.5175762e-01
  1.7203601e-01
 -1.9306318e+00
 -2.4360240e+00
  2.2205333e-01
  7.5070381e-02
  1.3247961e-02
  8.7842690e-03
 -6.2366053e-02
 -1.7240932e-03
  6.9666556e-03
  5.4153871e-02
  1.9484608e-02
 -4.2292718e-03
 -1.0730349e-03
 -4.4045015e-03
 -4.0012963e-02
  2.1336472e-02
 -1.0724438e-02
 -1.4205433e-02
 -3.6359958e-02
  6.9851889e-03
 -2.6532145e-02
 -5.6388337e-02
  2.4320492e-01
 -1.1736039e+00
 -1.2547731e-02
  1.2906262e-03
 -1.3610392e-02
  1.2864238e-02
  1.3578260e-02
 -5.2171502e-02
  1.7472538e-01
 -3.6086654e-04
 -5.9819078e-01
  3.0070331e-02
  6.5042535e-03
  1.8760136e-03
  1.8861635e-02
  6.1100394e-02
 -1.1325970e-01
  1.8727059e-02
 -8.5247345e-02
 -4.4801034e-02
 -1.2704276e-02
  1.5523514e-02
 -5.9603319e-02
  1.2095152e-01
 -1.5953628e-03
  2.1983391e-02
  4.2963237e-02
  7.6213232e-03
  3.3187244e-02
  5.5364859e-03
 -3.2604358e-04
 -1.6814388e-02
 -1.4204141e-02
  4.3855678e-02
  1.6827596e-02
  7.8526326e-02
 -1.0234627e-01
  9.0733729e-02
  2.4285085e+00
 -2.0070996e+00
 -1.6598234e-02
  1.5173787e-01
 -2.8860191e-02
  2.7425217e-02
 -3.1489581e-02
 -2.3151999e-02
 -2.1276693e+00
  1.0697116e-03
 -6.3981414e-02
 -8.6188046e-03
 -9.4732415e-04
  1.9104591e-02
 -2.1461599e-02
  5.3601903e-03
 -3.0113354e-02
 -5.6464575e-02
 -7.6824292e-03
 -9.6997349e-03
  5.1738784e-02
  6.0289904e-02
  2.2443531e-03
  4.3832019e-02
 -7.9442644e-03
 -1.2258646e-03
 -3.6963802e-02
 -1.7485801e-02
 -4.8524760e-02
 -1.0933301e-01
 -9.2486364e-01
 -1.2670671e+00
  3.2777640e-01
  3.8911853e+00
  3.7461065e-03
 -1.8252464e-01
  1.7873223e+00
  2.4484418e-01
 -1.7668556e-01
 -1.5322931e-01
  4.5351386e-02
  1.3436592e+00
  1.4185564e-02
 -9.0185948e-02
 -4.3938255e-01
 -4.0108196e-02
 -2.0553796e-01
  5.3056651e-01
  1.0543343e-01
 -3.1210908e-01
  1.7565669e-02
  2.9921168e-01
 -9.5287317e-01
  8.4435374e-01
 -6.3630347e-03
 -2.2369582e-02
  4.9059205e-02
  4.0406190e-02
  4.7329026e-03
 -6.8872184e-01
  1.3919688e+00
 -1.5785214e+00
  9.0710707e-02
 -1.3034828e-01
  1.7048713e-02
  1.4532097e-01
 -8.8513821e-01
  1.6772728e-01
  1.2322098e+00
  2.0065610e-01
  1.6162628e-01
 -1.1461575e-02
  5.9910429e-01
  6.7841806e-02
  6.3027334e-01
 -1.1907319e-01
 -2.0440049e-02
 -1.0223494e-01
  2.1813770e-01
  1.7166033e-01
 -2.2945562e-02
  8.6546701e-01
 -7.2285146e-01
 -1.1784899e-01
  6.6421896e-02
  1.5738208e-02
 -1.3195967e-03
  1.9961510e-02
 -1.5205595e-01
  5.0558351e-02
  1.4352746e+00
  2.0873356e-01
  7.9777551e-01
  5.3665107e-01
  6.1728212e-04
 -6.4101905e-02
 -6.9167855e-04
  3.7397332e-03
 -4.2149883e-02
  7.1267206e-03
  9.5433247e-01
  4.5404814e-02
  5.0539330e-02
 -1.9572362e-02
 -8.7455571e-02
 -1.5696090e-02
  1.2272944e-02
 -1.1710715e-03
 -7.9729566e-03
 -9.1383103e-03
  2.4963900e-02
  2.9902538e-02
  4.4927928e-03
 -2.1959699e-03
  8.3886348e-03
 -4.3083229e-03
  3.9380722e-02
 -1.1256017e-02
 -4.4938563e-03
  1.3731235e+00
 -4.4714963e-01
 -1.7900237e+00
  2.1556284e+00
 -2.1958454e+00
  5.6842685e-01
 -1.4133953e-02
 -2.9459763e-02
  5.0037866e-03
  5.3658534e-02
  4.2158272e-02
 -1.8723117e-02
 -2.7385734e-03
  3.7251610e-02
  4.5567781e-01
  3.4478337e-01
  1.5119956e-02
  7.8206487e-02
  4.2132504e-02
 -1.3869090e+00
  1.3705063e-01
 -2.3365295e-02
 -2.5912426e-02
 -1.3117142e-02
 -2.6957462e-02
 -6.6201226e-03
 -7.1598887e-03
 -5.5136491e-02
  1.8989948e+00
 -4.9743280e-02
  4.2137735e-02
  6.1012071e-01
  1.2016640e+00
 -3.6643124e+00
  9.3525720e-01
 -3.8280058e-01
 -3.3180650e-02
 -7.0569548e-03
  1.6772461e-01
  3.1301820e-01
 -9.3989437e-03
 -5.5474695e-02
  1.8215891e-02
 -1.2323248e-01
 -3.8102373e-01
  4.7837090e-02
  1.3540116e-01
 -6.6789113e-02
  2.9805437e-01
 -2.4296765e-01
 -2.0511005e-02
 -3.6134538e-03
 -1.1291920e-02
 -9.7877875e-02
  7.9349438e-03
  2.9696370e-02
 -2.6598537e-01
  1.5689893e-02
  1.6020345e-02
 -2.0478856e-02
  1.0198139e-03
 -9.2234915e-01
 -1.9487506e-02
 -2.3066575e-02
  2.5727117e-02
  2.0746151e-02
 -6.2032137e-02
  3.8478002e-02
 -1.8236145e-02
  1.8369066e-02
  6.1004095e-02
  1.7710716e-02
  1.0144437e-02
  8.1453985e-03
  1.0343146e-02
 -2.9702425e-01
 -3.8697392e-02
  1.8753048e-02
  1.6553050e-02
  2.3857644e-03
 -1.5920376e-02
  2.6718963e-02
 -1.4234185e-02
 -2.0685378e-02
 -3.5894018e-02
 -6.9323957e-02
  2.0595598e+00
 -1.5710677e-01
  9.4562039e-02
 -4.2227615e-02
  3.7409075e-02
  3.2254906e+00
 -5.0007659e-01
  7.0263004e-01
 -2.5752306e-01
 -1.2272736e-02
  8.7363087e-03
  4.0924689e-03
 -4.5219451e-02
  3.2236412e-02
  1.5690314e-03
  2.9203754e-02
  3.5493400e-02
 -4.3113488e-03
  1.0303748e-02
 -2.3140216e-01
 -1.9298424e-01
  2.7673678e-02
  5.6352842e-01
 -5.6309003e-02
 -7.3781153e-03
  4.9467847e-02
 -7.4588177e-03
  1.5143020e-01
  1.0356059e+00
 -1.6123593e-02
 -1.9191558e-02
  4.2175915e-02
 -1.5042818e-03
  7.3422543e-03
 -1.1466172e-01
 -3.3003008e-01
 -7.4342288e-02
  1.8117956e+00
 -2.4868305e-01
  8.5621104e-02
  3.6924787e-02
 -3.6661230e-02
 -5.7423644e-02
  4.4066496e-02
 -1.7023772e-02
 -3.2401904e-02
  2.2513573e-03
  9.1354206e-02
  3.8404319e-02
  4.4799328e-02
  2.4465259e-02
  1.7138940e+00
  3.1999357e-02
  1.4602895e-01
  3.8969036e-02
 -1.8116099e+00
  1.1084952e+00
 -1.7786466e-02
 -3.9778154e-02
  5.3078406e-02
 -1.3472707e-02
  1.8619837e-02
 -1.3543770e-02
 -8.1690932e-03
  2.6098007e-02
  9.9030221e-03
  3.6081251e-02
 -2.4241915e-02
 -6.4061410e-03
  3.0845204e-02
 -3.7471767e-04
 -2.4477743e-02
 -6.8331324e-02
  1.7468635e+00
  8.4099257e-03
  4.0099945e-02
 -1.5632050e-02
  6.1147969e-02
 -7.3482908e-02
 -3.0595638e-02
 -4.4842444e-02
 -4.6795169e-03
 -1.2712824e-01
 -4.2521764e-02
  4.8274180e-01
  2.5371849e-03
  8.8005065e-04
  1.8315321e-01
 -3.1083647e-02
  3.8336627e-03
  6.9851400e-03
 -3.9707989e-02
  3.5038412e-02
  9.3924133e-03
  2.4620098e-01
  5.6521457e-01
  4.8192415e-01
 -2.3158874e-01
 -1.6845468e+00
  1.5586814e+00
 -2.6211476e-01
  2.2279377e+00
 -2.7817610e-01
  7.6112324e-01
 -1.9942655e-01
 -1.5925483e-01
 -2.0399587e+00
 -3.2288405e-01
 -1.3961170e+00
 -2.0031736e+00
 -6.7033005e-01
 -2.2180563e-01
 -4.1138524e-01
 -8.3144283e-01
 -4.7487471e-02
 -3.1960467e-01
  1.9467432e+00
  7.3021358e-01
  4.1486430e-01
  1.5835111e+00
  1.2119598e+00
  5.4135442e-01
 -1.4296479e+00
 -2.0648415e+00
 -3.3366676e-02
  1.9171620e-02
 -1.1428777e+00
 -1.0889091e+00
  1.4524575e+00
  2.1276245e+00
 -2.3343909e-01
 -1.8585274e+00
  3.9874440e-01
  1.6472073e+00
  9.3190765e-01
  9.8847426e-02
 -1.1346041e-01
 -3.3909345e-01
  2.4448013e+00
 -2.3000367e-01
  3.1007618e-01
 -1.6709526e+00
  1.3748497e+00
  7.9420322e-01
 -7.7984762e-01
 -6.3114218e-02
  1.0953319e+00
  6.6123337e-01
  4.8342338e-01
 -4.5185867e-01
  7.4347191e-02
  2.9127736e+00
  1.4973652e-01
 -1.0054379e+00
  2.6385772e+00
  4.7505602e-01
  7.4425650e-01
  7.8461057e-01
 -8.5038114e-01
  2.5599504e+00
 -7.3623180e-01
 -2.8955200e-01
  5.5207312e-02
  2.0065155e+00
 -1.4249214e+00
 -1.9393803e-01
  1.0974216e+00
 -8.1845796e-01
 -2.2330712e-01
 -3.1403479e-01
 -1.0880253e+00
  1.2730169e-01
 -1.2984458e+00
  1.3652564e+00
 -7.5003576e-01
 -2.0096308e-02
 -1.5562863e+00
  1.9341603e-01
 -3.5011366e-01
 -1.9979409e+00
 -1.1132771e+00
  7.8600818e-01
  5.0533032e-01
 -9.9416393e-01
 -2.7183133e-01
 -8.9864695e-01
  1.3236989e+00
 -2.5152940e-01
  7.7905482e-01
  8.8300633e-01
 -1.8901508e-02
 -9.0121084e-01
  2.7972952e-01
 -5.2689865e-02
  4.4766669e+00
  1.5798256e+00
  4.1509487e-02
 -2.2185619e+00
  3.3984766e+00
  5.9804791e-01
 -1.0730521e-02
 -3.5900202e+00
  1.0166049e+00
  2.2761383e+00
  1.5308263e+00
  7.3601979e-01
  3.8082984e-01
  1.3945296e+00
  1.5198025e+00
  2.2926745e+00
 -1.1042949e+00
 -3.9797044e+00
 -2.3694837e-02
  1.2361372e-01
 -1.7899119e+00
  1.3320423e+00
  2.1950310e-01
  2.2797568e+00
  1.4914150e+00
 -3.5949829e-01
  2.7450266e-01
 -3.7782049e-01
 -2.5048876e+00
  7.8410602e-01
 -1.6817455e-01
 -1.6188190e+00
 -1.0064300e+00
 -1.4365356e+00
  3.5262093e-01
 -1.4304640e+00
 -1.8343132e+00
  6.8167138e-01
 -2.4555854e-01
  5.7037890e-01
 -1.1316336e+00
 -3.7296624e+00
  4.1057006e-01
 -2.5140138e+00
  1.1096579e-01
 -5.3206924e-02
  1.0777445e+00
 -3.6727315e-01
  5.6620592e-01
  3.9386246e-01
  3.6101878e-01
 -4.1079456e-01
 -1.2346269e+00
 -4.2166796e-01
  1.9887052e+00
 -2.8512805e+00
 -9.6488309e-01
  1.8297501e-01
  6.5891379e-01
 -4.6848276e-01
 -1.2206002e+00
  2.0088344e+00
  3.5786099e+00
 -1.3019837e+00
  1.7146401e+00
 -2.2346945e-01
 -3.3299599e-02
 -7.8417641e-01
  1.7758530e-01
 -1.9105469e+00
 -1.0802616e+00
 -1.5967920e+00
  1.1358534e+00
  3.0098770e+00
  2.9923528e-01
  1.1482688e+00
  1.2877363e-01
 -1.6205968e+00
  3.8264383e-02
 -1.4768553e+00
  9.2218852e-01
  1.8985454e+00
  3.0564967e-01
  5.5885762e-01
  5.9446645e-01
  1.0497520e+00
 -7.0397392e-02
 -1.8556126e+00
  1.3975356e+00
 -5.1101246e+00
 -1.3305150e-01
 -1.1016741e-01
 -1.2102748e-01
 -2.6470876e+00
  1.4165715e+00
 -9.3234676e-01
  1.4985958e+00
 -2.2724607e+00
  3.4150189e-01
 -2.5484899e-01
  2.5668922e-01
 -1.5959711e+00
 -5.4501116e-01
 -1.0721834e+00
 -2.4003677e+00
  1.7618597e-01
 -2.3235285e-01
 -1.0145446e+00
 -2.4614532e+00
  7.7156925e-01
 -4.2262268e-01
  3.0700195e+00
  1.4906405e+00
  3.6345828e-01
  3.6541542e-01
 -9.1637504e-01
  7.9595335e-02
 -1.9937209e+00
  4.6463674e-01
  5.6769025e-01
  3.7809765e-01
  4.4061220e-01
  3.6135633e+00
 -1.1280061e+00
  3.7609458e+00
  1.6625382e+00
  1.7457277e+00
 -2.4215719e-01
  2.0061491e+00
  3.1824875e-01
  3.5622440e-02
  1.3221206e-01
  1.7995406e+00
  7.9760844e-01
  7.0755444e-02
  7.0363724e-01
  1.1152537e-01
  1.0039939e+00
  1.3920199e+00
 -2.1939991e+00
 -3.0435688e+00
  1.4473320e+00
  2.7136624e+00
 -3.2172289e-02
  6.4432055e-02
 -5.3246623e-01
  1.0552649e+00
  5.7427507e-02
 -7.3224649e-02
 -1.1684356e+00
  4.6084296e-02
 -2.7474735e+00
 -2.0020251e+00
 -1.8341902e+00
 -1.0522992e-01
  8.1619960e-01
  2.8329854e+00
 -2.2802343e+00
 -1.4737966e+00
  3.1995201e-01
  1.6971071e-01
  1.0811205e+00
 -2.1937269e-01
 -1.4470602e+00
 -9.5801860e-01
  3.7688357e-01
  2.1756282e+00
 -1.8437705e+00
 -8.5978490e-01
 -7.1216089e-01
 -9.0060103e-01
 -1.4340909e-02
  2.3250589e-01
  8.6727148e-01
  4.7005597e-01
 -7.6523846e-01
 -5.0392258e-01
  9.2877132e-01
 -4.5844647e-01
 -6.1129171e-01
 -9.5283848e-01
 -4.9599215e-02
  2.9350469e-01
 -6.1473210e-04
 -1.0308564e-01
 -2.0642445e+00
  4.5574057e-01
 -1.1167662e+00
 -7.3580402e-01
  2.6577945e+00
 -1.3557408e+00
  1.1348013e+00
  1.1726736e+00
  1.1762916e+00
  8.3464432e-01
  2.9676417e-01
  1.2871950e+00
 -2.0280147e+00
  2.4750988e+00
 -1.9237069e+00
 -8.2712293e-01
 -1.0794233e+00
  5.7319421e-03
  2.3970711e-03
  5.5281669e-01
 -5.1381832e-01
 -1.9413474e+00
 -4.6778521e-01
 -1.4977130e+00
 -5.8883452e-01
 -2.4424921e-01
 -5.7996058e-01
 -1.5240973e+00
 -6.7642736e-01
  1.0321457e+00
 -5.8579183e-01
 -9.5588976e-01
  6.4347517e-01
 -3.9991829e-01
  2.8289044e-01
  3.6306236e-02
 -1.4322164e+00
  5.1823008e-01
  1.3499466e+00
 -1.5320861e-01
  1.7374597e-01
  1.4224141e+00
  2.0651074e-01
 -5.2671381e-03
  2.0099911e-01
 -3.1722158e-01
  1.6924517e-01
 -3.8706979e-01
 -1.3604254e+00
  2.6903668e-02
 -1.3778869e+00
 -1.5896514e-02
 -1.1992717e+00
 -1.2181480e+00
  2.5208881e-01
 -4.3048121e-02
 -1.6505407e+00
 -1.1397778e+00
  3.6117145e-01
  5.8394158e-01
  2.2535878e-03
 -4.8079973e-01
  9.6714240e-01
  6.8019277e-01
 -1.2196430e-02
 -1.5379952e-02
  4.3087018e-01
  5.5817884e-01
 -6.8521845e-01
  6.7284411e-01
 -3.3808556e-01
  1.3406126e+00
 -8.9807850e-01
  4.4578898e-01
  4.3802090e-02
  3.3003572e-02
  1.0849129e+00
  1.0371536e+00
 -3.4582976e-01
 -2.3580699e-01
 -3.7755407e-02
 -9.6700287e-01
  1.0560745e+00
 -2.0049226e+00
 -5.2817118e-01
  7.1882576e-01
  1.6559055e+00
 -1.3431988e+00
 -1.9105223e-01
  7.1351045e-01
  3.9660782e-01
 -1.2016412e+00
 -2.8505644e-01
 -9.2747051e-01
  3.9437350e-02
  1.8448846e+00
 -3.3456555e-01
 -2.7642114e+00
 -6.3086534e-01
  6.4783335e-01
  2.0618494e-01
 -8.6904329e-01
 -4.6463361e-01
  9.0194792e-01
 -1.7001646e+00
 -3.3218285e-01
 -7.5353235e-01
 -1.9571893e+00
 -7.8435779e-01
 -4.3683127e-02
 -3.0817741e-01
 -4.5003158e-01
 -1.8974059e+00
 -1.2501361e+00
  1.4157984e+00
  7.2566801e-01
 -8.7179762e-01
  6.3530698e-02
 -2.2825098e-01
  2.2517730e-01
 -1.3961548e-01
 -3.1907263e-01
 -3.3388123e-01
  3.9794013e-01
  1.6045989e+00
 -6.3095146e-01
 -1.6732540e+00
 -1.6654637e-01
  1.8211269e+00
 -5.3486810e-03
 -1.2474612e+00
 -9.2981800e-02
  4.8407029e-02
  2.1056136e-01
 -1.9947231e-01
  9.9105723e-02
 -5.2439219e-01
  3.3468223e-01
 -2.4480923e-01
 -6.1758155e-01
 -1.0511216e+00
  8.9666426e-01
 -6.5220684e-02
 -5.5846971e-01
 -3.2760153e+00
 -4.3519888e-02
 -2.4285829e-01
 -1.7823932e+00
  2.2573597e+00
  5.3033412e-01
  4.2799336e-01
 -1.4477681e+00
  5.8232880e-01
 -9.5190281e-01
 -4.7864549e-02
  5.0094903e-01
 -1.5826002e-01
  2.3492038e-01
 -1.7093263e+00
 -1.1779828e+00
 -9.6324867e-01
 -3.9405525e-01
 -1.6532376e+00
  5.1248014e-01
 -2.3407216e-01
 -5.5371088e-01
 -5.2519566e-01
  3.9830765e-01
 -8.6204678e-02
 -1.2417417e+00
 -2.1545191e-01
 -1.2921622e+00
  1.8001093e-02
 -2.8093383e-01
 -5.9310389e-01
 -1.4577534e+00
  1.3398721e-02
  1.3398721e-02
  1.3398721e-02
  1.3398721e-02
  1.3398721e-02
  6.9747843e-02
  6.9747843e-02
  6.9747843e-02
  6.9747843e-02
  6.9747843e-02
  6.1458152e-02
  6.1458152e-02
  6.1458152e-02
  6.1458152e-02
  6.1458152e-02
  3.6929954e-02
  3.6929954e-02
  3.6929954e-02
  3.6929954e-02
  3.6929954e-02
  1.9013453e-02
  1.9013453e-02
  1.9013453e-02
  1.9013453e-02
  1.9013453e-02
  4.6505094e-02
  4.6505094e-02
  4.6505094e-02
  4.6505094e-02
  4.6505094e-02
