nep4_zbl 2 Al Mg 
zbl 1 2
cutoff 6 5 82 55
n_max 4 4
basis_size 8 8
l_max 4 2 0
ANN 50 0
 -5.0852013e-01
  1.6568923e+00
  1.3796141e+00
 -1.8970253e-01
 -1.1449103e+00
  9.6537787e-03
  1.5379374e-01
  4.0584117e-01
  1.3661933e-01
 -7.2434789e-01
 -3.5249677e-02
  2.9880650e-02
  1.1725514e-01
 -3.1020602e-02
 -8.1480891e-02
  2.0725816e-02
  8.2181422e-03
  1.0322522e-02
  1.0167976e-01
 -4.0910158e-02
  2.0388679e-01
  3.3578210e-02
 -1.2913278e-03
  8.9822724e-02
 -1.3394794e-02
 -1.1488015e-02
  5.3143274e-02
  1.4706347e-02
 -6.6920915e-03
  9.9745102e-02
 -2.4272650e-01
  8.8333446e-01
 -2.8644646e-02
 -5.0723732e-01
  7.0589143e-01
 -5.9836321e-02
  3.8510471e-04
  5.6040425e-02
  1.8933341e-01
 -2.4017815e-02
 -8.6384960e-02
  4.0849209e-02
  8.2717501e-03
  1.1814028e-02
  1.5157265e-02
  1.1471254e-01
  6.9610879e-02
 -1.0308957e-02
 -4.7085401e-02
 -2.5520074e-01
  7.0118741e-03
  2.6705134e-01
 -4.0931776e-02
  4.5153420e-02
 -2.8148126e-03
  1.7177971e-01
 -5.7917526e-03
  6.1825357e-02
 -6.6586725e-02
 -6.4543068e-02
 -1.1643414e-01
 -3.7971642e-02
 -4.5830361e-03
 -2.9612800e-01
  4.9905655e-01
  1.9167174e-01
  3.4065738e-02
 -2.5476910e-02
  6.4341657e-02
 -1.4771461e-01
  5.0456416e-02
 -6.2036768e-02
  7.2742910e-03
  3.9551213e-02
  1.1326239e-02
 -2.1895831e-03
  7.7848241e-02
 -8.7749818e-03
  1.6719969e-02
 -1.7525628e-02
  1.4127415e-02
 -2.3249846e-02
 -1.3383718e-02
  8.5384483e-03
 -8.0891214e-03
  1.8481179e-03
  1.4253020e-01
  6.0971595e-02
 -1.1173645e-01
  1.0109403e-02
 -1.4630029e+00
  1.4384780e+00
  1.1654830e+00
  4.5563321e+00
  3.5049074e+00
 -1.1680923e-02
 -4.3294784e-03
  1.4963956e-01
 -1.0629847e-01
  5.1555730e-02
 -1.0066639e-02
 -2.3707071e-01
 -1.3318095e+00
 -7.3446554e-01
 -4.7544885e-01
  1.2357792e-01
 -3.1949591e-03
  1.1064862e+00
  1.8878250e-01
  9.4044328e-01
  3.6878802e-02
 -7.5251274e-02
  4.5232943e-01
 -2.9158694e-01
 -2.2864611e-01
 -4.5936968e-02
 -6.4487562e-02
  3.0245798e-02
 -1.7110443e-01
  4.1127931e-02
 -6.9744688e-01
  1.6598926e+00
  3.2995522e-02
  9.0514952e-01
 -7.5277317e-01
  1.9928384e-01
  1.0998485e-01
  3.5368660e-01
  2.6089883e-01
 -5.0674230e-03
 -7.4158020e-02
 -1.6224878e-02
 -1.6299874e-01
 -3.6983207e-02
  2.6667252e-02
  1.9881621e-01
  1.5710995e-02
  8.4091201e-03
  2.6330052e-02
 -5.7371943e-03
  1.2193985e+00
  1.0033506e-01
  3.2399174e-02
  3.8059734e-02
 -4.6629807e-01
 -1.5743121e-03
  3.9038207e-02
 -2.7524151e-02
 -2.2037126e-02
 -3.6893882e-02
 -6.9531548e-01
 -9.2913628e-01
 -1.1776592e+00
  5.2342814e-01
 -6.6808200e-01
 -6.5375529e-02
 -5.6218728e-02
  2.0075444e-02
 -7.6039320e-01
 -2.9270431e-01
  2.2243258e-02
 -1.5533644e-01
 -2.2292519e-02
 -2.6285464e-01
 -4.0184763e-01
 -1.4884096e-01
  6.6507990e-03
 -6.8402785e-01
  2.5351665e-03
  2.4305223e-01
 -8.5407004e-02
 -3.9968017e-01
  5.0083756e-01
  1.4353892e-01
 -1.2754331e-02
 -1.4817165e-01
 -3.4330171e-02
 -2.3445848e-03
 -7.9471946e-02
  3.9042693e-02
 -3.5791448e-01
 -5.3735286e-01
 -6.9322133e-01
  1.8751827e-01
 -4.4603539e-01
  2.1496068e-01
  6.5541506e-02
  3.6418002e-02
  3.3386904e-01
  1.0805295e-01
 -7.7593207e-02
  5.1696086e-01
 -4.5108023e-01
 -6.3014382e-01
  4.0660623e-01
  5.4939932e-01
  2.1737780e-01
 -1.0760303e+00
 -2.4822261e-03
 -3.4365094e-01
  6.2362790e-01
  9.4794132e-02
  7.9445934e-01
 -1.6506821e-03
  7.9942936e-01
  6.9460464e-03
  1.4018571e-01
 -4.8401105e-01
 -1.0029496e-02
  6.1288648e-03
 -2.3548862e-01
 -4.0375063e-01
 -8.8785195e-01
 -2.9259026e-01
  8.8700551e-01
 -3.4131560e-01
 -2.6969704e-01
 -1.2123005e-01
 -6.3588005e-01
 -6.7546874e-01
  4.3593243e-01
  2.5884727e-01
 -1.7122862e+00
  2.3591455e-02
 -1.4865793e-01
  8.4933281e-01
 -1.7137892e+00
 -1.9697563e-01
 -7.6479346e-02
 -2.4779801e+00
 -1.1419030e+00
  7.5856484e-03
 -6.0273761e-01
  3.9447817e-01
  5.4291707e-01
 -2.9472193e-02
 -2.9135737e-01
  1.7723460e-01
 -9.6781533e-03
  6.7856652e-01
 -9.2878133e-02
  2.7533028e-02
  1.3439680e-02
 -9.6777268e-02
  2.7944592e-01
  1.7224019e-02
 -8.0343150e-02
  1.3097303e-02
  1.7780496e-02
  1.1492516e-02
 -5.7410277e-02
 -1.6758047e-02
  6.8701141e-02
  4.2946748e-03
 -1.5794221e-02
  1.5472932e-02
  5.5502285e-03
  7.6163709e-03
  2.2906207e-02
 -3.2948618e-04
  2.7115880e-02
 -1.2890493e-02
 -6.1013509e-02
 -6.5814070e-02
 -4.7120329e-02
  8.9641936e-02
  4.1730817e-02
  1.4177133e-02
 -3.6057334e-02
 -1.2277952e-02
  8.6986125e-02
  1.2655614e-01
  5.1451989e-02
 -2.3885536e+00
  1.8324949e-01
 -7.3855678e-03
 -1.3421792e-02
  8.3314972e-03
  1.9986646e-01
  3.1689414e-01
  2.1610698e-02
  1.9553864e-01
 -4.8984770e-02
  2.4826536e-01
  4.7952581e-02
  2.1466477e-02
  7.9662465e-02
 -3.9792457e-01
  3.6944616e-01
 -1.4850351e-02
 -3.4760323e-01
 -4.4969930e-03
 -4.9409203e-02
  9.0702064e-02
 -4.2516631e-03
  3.5391193e-02
  1.9779023e-02
 -1.1448326e-01
  3.9093684e-02
  1.0550836e-02
  1.3049723e-01
 -7.3830289e-01
 -7.5351167e-03
  7.6870328e-01
 -7.9439694e-01
 -6.3997440e-02
  1.2935685e-01
 -4.9567759e-02
 -9.5593190e-01
 -1.9410169e-02
  3.7477354e-03
 -5.7130860e-04
 -1.9441073e-01
 -4.7695437e-03
  8.8208420e-03
 -2.4868913e-01
  1.1270912e-01
  4.5423750e-02
  6.8167284e-02
  1.5758646e-01
  5.6307103e-02
 -2.2317654e-02
  2.3034099e-03
 -1.4839675e-01
  2.8579772e-01
 -1.4888650e-01
  2.3547318e+00
 -8.9015663e-03
 -2.4443232e-03
  1.9556988e-02
  7.9504311e-01
  6.8111348e-01
 -2.0780082e-01
 -2.0844196e-01
 -1.3699907e+00
 -2.3906896e-01
 -1.1976428e-01
 -2.4651133e-01
 -1.5918909e-02
 -1.6916934e-02
 -5.8589924e-02
  3.3073060e-02
  4.3158885e-02
 -3.9549015e-02
  3.9696191e-03
  2.3542695e-02
 -7.0367312e-01
  4.0987067e-02
  1.4187535e-02
  3.4044299e-03
  4.3256078e-02
  7.0904656e-03
  8.2476698e-02
  5.0745462e-03
 -2.0777252e-02
 -1.3111223e-02
 -3.3472046e-02
 -4.5262698e-02
  7.3325358e-02
  1.1764641e-02
 -3.6323747e-01
  4.3152589e-01
 -1.7272151e-01
 -1.6491678e+00
  2.6337845e+00
 -5.9804734e-02
  4.3011326e-02
  7.9718903e-02
  1.3732974e-01
 -2.8893925e-02
  4.5573078e-02
 -1.9018782e-02
  1.3299203e+00
 -4.9774623e-03
  1.4475557e-01
  5.3726818e-02
 -3.3029448e-02
  2.8677323e-01
  1.7464608e-01
  4.7566366e-01
  2.1404245e-01
 -6.1353822e-03
  2.3522440e-02
 -3.7983730e-02
  1.2785235e-02
  1.6391193e-02
  6.5008500e-03
  1.6305618e-01
  6.6165994e-03
 -5.8813021e-03
 -1.8393883e+00
  1.0472008e+00
  7.5887060e-01
  1.0514766e+00
  7.2295600e-01
 -2.5480056e-01
  9.3864975e-03
 -1.7975506e-01
  4.7991940e-01
 -2.4677761e-02
 -8.6215831e-02
 -2.6694275e-03
 -5.6415848e-03
 -3.9006416e-02
  2.3500670e-02
  3.7566975e-02
  1.4286005e-01
 -4.8187099e-04
  7.3159349e-01
  4.9986909e-03
 -1.7219816e-01
  4.7711108e-02
 -2.2548271e-04
  3.5244732e-03
 -3.5279192e-02
  2.2361895e-02
 -1.2827431e-03
  5.0628507e-03
  1.8056177e-02
 -6.6965399e-03
  4.3121943e-01
  1.8714401e-01
 -1.1813217e+00
  1.1232189e+00
  4.8954502e-01
 -1.0802961e-01
 -1.7049302e+00
 -6.8307476e-04
 -3.5021126e-01
  7.8613210e-01
  3.7573013e-01
  1.1418821e-02
 -1.4353405e-01
 -3.8399866e-01
 -1.5010462e+00
 -8.5214056e-02
 -2.7947608e-01
 -2.2424762e-01
 -4.0956947e-01
  2.3681916e-02
 -4.0339804e-01
 -7.4160260e-01
  7.0436025e-04
  3.4442095e-03
  2.7754891e-01
 -1.3191664e-02
 -3.0514362e-01
  2.4667904e-02
 -1.2969470e-02
 -2.4047102e-01
 -1.1195195e-01
 -8.7732477e-03
 -6.2770960e-03
 -4.3268606e-01
  5.7751697e-01
 -1.0082987e-01
  2.4207987e-02
 -8.0520593e-02
 -1.5508093e-02
  3.6221731e-03
  8.5488409e-03
 -2.3739036e-02
  4.6406914e-02
  1.3324139e-01
  3.8147677e-04
 -6.6583604e-03
  1.3793737e-03
  3.2630369e-02
  3.1604297e-02
 -9.5887929e-02
  2.4521410e-02
  4.5028566e-03
  1.0907041e-02
  2.4788633e-02
  1.1161163e-02
  1.3147695e-02
  2.4027992e-02
  1.1283597e-02
  7.3368168e-03
  1.1794646e-02
 -5.7651371e-01
  6.1388444e-02
  4.2671144e-02
  1.0195725e+00
  1.0215486e+00
  5.3296853e-02
  8.7465504e-03
  8.0715567e-03
 -4.8952582e-03
  8.7852746e-02
  1.2030956e-01
  1.0640604e-02
 -2.2548279e-01
  1.2404294e-02
  2.1167213e-02
  7.8996480e-02
 -1.5174389e-03
 -9.4278470e-02
  2.1150567e-02
  8.6514596e-03
 -2.0665753e-01
 -9.4923392e-02
 -4.1457798e-02
  3.1848677e-02
  1.1830451e-02
 -9.2731174e-03
  2.5026023e-02
  6.0359970e-02
 -1.3321129e-02
 -4.8918349e-01
 -2.3042090e-01
  4.5248222e-01
  2.2323700e-03
 -5.3172535e-01
  8.7746429e-01
 -9.8954722e-02
 -2.0340085e-02
 -4.8434287e-03
  3.5493348e-02
 -4.7809459e-02
 -6.4784982e-03
  5.3964026e-02
  2.4980584e-03
 -1.2653186e-02
  3.1413332e-02
  4.3658909e-01
  1.2043885e-02
 -1.0113070e-01
 -3.1841304e-02
 -3.8487327e-03
  3.7175976e-02
 -2.6208550e-02
 -2.9775163e-02
 -6.5894937e-03
 -7.0324552e-01
 -4.4890013e-02
  1.7216621e-02
 -9.4404500e-03
  4.3454926e-02
  2.7594804e-03
 -8.0602437e-01
  1.1281008e+00
 -5.1580930e-01
 -4.6023294e-02
 -7.9704589e-01
 -2.1178558e-01
  7.3830193e-01
 -2.1067332e-01
  5.1453215e-01
  6.5370888e-01
  1.0399473e+00
  7.3403525e-01
 -6.1312132e-02
  4.1589937e-01
 -7.3905386e-02
  1.4680367e+00
  6.8777591e-01
  3.8477463e-01
  5.5491710e-01
 -9.2584467e-01
  3.8543072e-01
  6.2270943e-02
  5.5484790e-01
 -6.6264258e-03
 -1.2821370e+00
  2.7136534e-01
  5.0071734e-01
  2.9347785e-02
 -2.1937134e-02
  1.1952278e-01
  1.7992656e+00
  2.4614189e+00
 -1.6838735e+00
 -1.5479393e+00
 -8.4646386e-01
 -4.0357146e-01
  3.3326185e-01
 -6.8694210e-01
  2.5246531e-01
 -2.1437531e+00
 -1.6083587e-02
 -3.1663541e-02
 -2.0639297e-02
 -4.2461202e-01
  1.1713585e+00
 -3.7188357e-01
  4.2472017e-01
  3.0157939e-01
 -5.6962484e-01
 -1.0664175e+00
  7.9717445e-01
  3.9094362e-02
 -2.4830930e-02
 -4.6064454e-01
 -4.2854622e-01
 -3.8745156e-01
 -5.8647431e-03
 -3.1972343e-01
  1.9299485e-01
 -4.2011815e-01
 -5.5686522e-01
  2.6944605e-01
  5.9336834e-03
 -7.4444747e-01
  5.1558757e-01
  9.0523651e-03
  5.8893695e-02
  4.9022473e-03
  1.9883653e-02
  9.3503103e-02
 -1.4867631e-01
  4.3056969e-02
  4.2060208e-02
  4.0940773e-03
 -1.3274971e-02
  9.2799023e-02
 -6.7932636e-02
 -6.2434822e-02
 -2.8606452e-02
 -6.1050408e-02
 -8.9651877e-03
  8.7626234e-02
 -3.7489086e-03
  3.9064813e-02
 -6.9963552e-02
  1.1940948e-01
  5.3422637e-03
  2.4993764e-02
 -2.6041236e-02
  1.4787012e-02
  2.3209175e-01
  1.4097083e+00
 -3.0196855e+00
 -1.0627683e+00
  1.0392841e+00
 -1.8312773e-02
  1.1482131e-02
 -1.9769979e-01
  2.4677397e-01
 -2.5703278e-01
  6.5106869e-01
  4.1057449e-02
 -8.4846550e-01
  4.1608118e-02
  6.4367449e-01
  1.0177803e+00
  1.7849122e+00
 -1.2744141e-01
  3.4923437e-01
 -8.2904565e-01
  4.5718920e-01
  1.6208343e-01
 -8.1246650e-01
 -3.2656774e-01
 -3.9858201e-01
  1.0963635e-01
  4.0015948e-01
 -2.5222093e-02
  2.8417369e-03
 -1.8572008e-02
  3.4918964e-01
 -7.9839003e-01
 -8.1474960e-02
  8.3819741e-01
 -7.0581806e-01
 -1.9941520e-02
 -1.4686634e-02
 -4.5186061e-02
  2.4120130e-02
 -1.2661710e-01
  6.4165697e-02
 -1.7786516e-01
 -4.7095457e-01
 -5.9995037e-02
 -1.3209603e-02
 -2.2180694e-01
  1.7648104e-03
  4.3383218e-02
  1.4158635e-01
  2.7342120e-01
  1.5953565e-02
 -1.7855538e-01
 -9.9901110e-04
  5.3382241e-03
  8.2770083e-03
  2.5738545e-03
  7.5405003e-03
  3.3687476e-02
 -1.8366125e-01
  3.4268167e-02
 -4.3698481e-01
  8.9852594e-02
  4.4546300e-01
 -9.3818742e-01
  3.4218454e+00
  4.3170795e-02
  3.0803349e-02
  4.9727965e-02
  1.5578507e-02
 -1.8143491e-01
  2.6997605e-02
 -5.4054804e-02
 -3.3437145e-01
 -1.4480254e-01
 -2.0426834e-01
 -1.7683359e-02
  1.7793305e-02
 -5.9233442e-02
  2.0861935e-02
 -8.1751294e-02
 -1.2741444e-01
 -3.4419200e-01
 -1.2796259e-01
 -1.0696235e-01
 -7.7143773e-02
 -6.3287742e-03
  2.3493758e-01
  5.4578360e-02
 -4.2791823e-03
  5.5781387e-02
 -2.1722923e-01
  8.0502254e-01
 -8.7625697e-02
 -9.1567981e-01
  1.5576131e+00
  1.0964997e+00
  4.2262785e-02
  3.4292746e-02
  2.2953808e-01
  1.6199893e-01
 -1.1636857e-01
  5.7141286e-01
  1.9056061e-02
  1.7073657e-01
  3.6089066e-01
  6.9392437e-01
  3.8733662e-04
 -4.5136088e-01
 -3.8669430e-02
 -8.4922123e-01
  4.2526427e-01
  4.5813453e-01
 -8.6926609e-02
  6.8989076e-02
  2.2198010e-02
  6.0436218e-03
 -1.1121647e-02
 -5.4089803e-01
  2.5152059e-02
  8.4324786e-03
 -5.9338633e-02
  3.0980194e-01
 -1.3422768e-02
 -6.9294232e-01
  6.8615675e-01
 -6.4721026e-02
  5.2422892e-02
  1.0607668e-02
  1.0631773e-01
 -3.6475021e-02
  2.4291234e-02
  9.2143929e-03
 -2.4180206e-02
  5.8684684e-02
  2.2809478e-02
  8.5032515e-02
 -1.6832210e-02
  6.0769864e-03
  1.0682246e-02
  1.0351676e-02
  2.7864290e-02
  1.4631124e-02
 -1.1391825e-02
  9.7452000e-02
  4.0997132e-03
  1.0694134e-02
 -1.6824214e-02
  3.1925958e-02
  8.8261419e-05
  1.2171353e-02
  2.2256108e-01
  2.2112539e-01
 -1.3191422e+00
 -6.1061335e-01
  1.9348567e+00
  8.9161664e-01
  1.5744071e-01
 -4.7335893e-02
  1.3169417e-01
 -4.7523659e-02
  3.2687388e-02
 -1.9467667e-02
  4.2713668e-02
  6.5312549e-02
 -9.2347813e-01
  1.5300473e-02
  1.2531815e-02
 -6.6151887e-02
  9.6767306e-02
 -4.7686890e-02
  2.0387948e-01
  8.7682441e-02
 -4.5606431e-02
  3.5691056e-03
 -2.3811925e-02
  2.5095182e-02
  5.9096839e-02
 -1.6642479e-02
 -3.5915759e-03
  8.1083566e-02
  1.0547875e+00
 -1.6665283e-01
 -3.4475434e-01
 -2.3715706e+00
 -7.9857659e-01
 -7.7865861e-02
 -9.0321666e-03
 -2.6194816e-02
 -1.5772283e-02
 -3.9678058e-01
 -5.2230623e-02
 -2.0382227e-03
 -1.9584328e-01
 -1.0926616e-01
 -9.9152267e-02
 -5.9996974e-01
  5.3064473e-04
 -3.7856977e-02
 -8.0907680e-02
 -6.4028752e-01
  1.1945345e-01
  2.6842028e-02
  2.5980905e-01
 -7.9887733e-03
 -1.6503846e-02
 -5.0350577e-02
  2.2441442e-03
 -8.1151299e-02
  7.9526618e-02
 -2.7411038e-02
 -5.9307086e-01
 -4.9313813e-02
  9.6335813e-02
  2.5094727e-01
  1.3282900e+00
 -4.4037215e-02
  1.0144351e-02
 -1.0212513e+00
 -1.3241316e-01
 -3.4485459e-02
 -6.2913257e-03
  3.2209743e-02
 -4.3559134e-01
 -6.9046039e-03
  1.3633220e-01
  6.5450653e-02
  1.2611677e-01
 -3.3888302e-04
  1.2158687e-01
  1.2088295e+00
 -8.4763512e-02
 -2.6844602e-02
  2.0173170e-01
  9.2499243e-04
 -1.0325105e-01
  1.2994402e-02
  1.6841030e-01
 -3.0275497e-03
  1.7357336e-02
  4.9326345e-02
 -2.3428223e-01
 -1.7089205e-02
 -2.2180089e-01
 -8.5043716e-01
  4.7482461e-01
  9.7786620e-02
  6.2870318e-01
  3.1233571e-02
  1.1796752e-01
 -4.2251501e-02
  4.6942059e-02
 -2.0926088e-02
  2.0189433e-01
  4.2330064e-02
 -6.2161867e-02
  5.0350752e-02
  3.7060139e-01
 -5.0793905e-02
 -2.3360029e-03
 -6.3144714e-02
  6.3473451e-01
  2.3959151e-03
 -2.3986202e-02
  2.0443335e-02
 -1.0398670e-01
 -4.2319361e-02
  1.8959908e-02
  6.5549232e-02
  4.8981186e-02
 -7.0384391e-02
 -1.7593633e-02
  2.6358241e-02
  9.2909494e-03
 -5.7030749e-01
  7.3993999e-01
 -1.7863257e-02
 -2.0831387e-02
 -9.0198619e-03
  7.4186981e-02
 -5.2844640e-02
  1.5910644e-02
 -8.5912850e-03
  1.3700299e-01
  9.9772297e-02
  4.5176733e-02
 -1.9019263e-02
 -3.9041691e-02
  1.2806305e-03
  2.7618851e-03
  5.1931906e-03
  1.9891752e-02
  4.8783269e-02
 -2.8472350e-03
  1.6337439e-02
 -7.0032008e-02
 -2.9708559e-03
  6.1338808e-02
 -3.3574950e-02
  2.4863802e-02
 -1.0559700e-01
  9.9693798e-02
 -7.6816964e-01
 -1.0013463e+00
  6.7314357e-01
 -1.8513143e+00
  8.8417195e-03
  1.2601937e-01
  3.1389382e-01
 -1.5248258e-01
 -4.4744932e-03
 -5.8197975e-02
 -1.4340451e-01
  1.5629061e-01
 -6.6808671e-02
 -8.5569263e-01
 -1.8803041e-01
 -2.7624393e-02
  1.2947185e-01
 -2.6897294e-02
 -5.7617318e-02
 -9.4361734e-01
 -4.2856640e-01
  8.2852915e-03
 -1.1884768e-02
 -1.3777538e-02
 -4.0494047e-02
 -2.5146753e-02
  5.3010106e-02
  7.4774939e-01
  2.4517372e-01
  9.0337509e-01
 -5.6603742e-01
 -1.3559894e-01
 -1.2503692e+00
  4.1039705e-01
  8.9526279e-03
  1.5154306e-02
  5.7639696e-02
 -2.0841051e-02
  4.4997051e-04
 -5.2096620e-03
  7.9551004e-03
  4.3954004e-02
 -9.5221912e-03
 -1.8863272e-02
 -1.6675334e-02
 -2.4631532e-02
  6.2224814e-03
  2.6895249e-02
 -1.4030854e-02
  5.7291627e-02
 -6.7962967e-03
  5.5481765e-02
 -1.8129490e-01
  1.8511290e-03
 -2.2606630e-02
 -9.1641182e-03
  2.0260182e-03
 -4.0011857e-02
 -5.0439369e-02
  2.5803762e-02
 -7.2705108e-03
 -2.9285591e-02
  1.7473888e-01
 -1.4634021e-01
  4.3117505e-04
  2.5232827e-02
  8.4246257e-03
 -6.5764450e-02
 -4.0475141e-02
 -1.1632475e-02
 -2.8707685e-02
 -5.7227691e-03
  3.8249772e-02
  2.2468792e-02
 -1.8244731e-03
  3.0925876e-02
 -1.2619338e-03
  3.0305658e-02
  1.8318454e-02
 -1.9216029e-02
 -6.2971329e-03
  3.3442125e-02
  2.5333071e-02
  2.3954185e-02
 -7.7092797e-03
 -4.1081040e-04
  2.0432657e-02
  4.7424149e-02
  7.2092784e-04
 -3.9277148e-02
  1.6939521e-01
  1.2528133e-03
 -1.1741793e-01
  1.9314940e-01
 -6.8234268e-04
 -8.4155547e-03
 -1.2262088e-02
  1.2781993e-02
 -3.1162798e-02
 -3.7778769e-02
  6.6350616e-04
  5.8957528e-02
  2.1706117e-02
 -1.2964450e-02
  9.0497226e-02
  2.0690169e-02
 -1.1900330e-01
  2.4962110e-02
 -6.7992373e-03
  7.3384032e-02
 -5.2373677e-02
  7.7055325e-04
  1.1864456e-03
  1.3524520e-02
 -5.2166384e-02
 -2.6969401e-02
  2.1086184e-02
  3.1923279e-03
  3.0159336e-01
 -2.8528580e-02
  4.1767052e-01
 -4.3604840e-03
 -7.8250068e-01
  9.1045177e-01
  1.3157027e-02
 -1.0284312e-01
 -2.9315073e-02
  1.3630411e-01
 -2.2904413e-02
 -1.2009435e-02
  1.4375521e-01
  1.3575934e-01
  1.3985171e-02
  1.4391690e-02
  1.3157180e-01
  8.6978627e-03
 -5.8996804e-02
  2.1010721e-03
 -1.4614040e-01
 -7.5283036e-02
  1.4604189e-01
  6.3373828e-03
  7.9600878e-02
 -1.1177332e-01
  1.3402492e-01
  6.4525716e-02
 -4.5995641e-02
  2.7502976e-02
 -3.7678476e-02
  2.6878055e-02
 -2.2502805e-01
  2.1203866e-02
  2.7600372e-01
 -6.1534524e-01
  1.0452019e-01
 -2.7918685e-02
  7.2695352e-02
 -2.0283306e-02
  4.0209219e-02
  5.5870735e-03
 -9.6083703e-03
 -7.5689435e-02
 -9.7150411e-03
  3.1168770e-02
  3.9983802e-02
  3.4049314e-02
 -1.1602711e-02
  2.0121217e-02
  2.3851592e-02
  6.9796266e-03
 -4.8775028e-02
  1.8750841e-02
  4.4346005e-03
  7.3756494e-02
 -3.0009856e-03
  7.7880818e-01
  2.5729300e-03
 -1.8954617e-01
  1.6598707e-02
  1.6472067e-01
  1.7581329e+00
 -3.6836839e-01
 -1.2533352e-01
  2.8561525e+00
  1.5267509e+00
  2.0172732e-01
  5.4430850e-02
  2.9957607e-01
 -9.5331170e-02
 -1.4120395e-01
  8.6870372e-01
 -8.4161200e-02
  1.5221342e-01
  7.8526422e-02
  9.6248388e-01
  1.1214427e-01
  5.7841323e-02
  2.7581447e-01
 -1.8442682e+00
  2.0867053e-01
  6.1818752e-03
 -1.3458627e-01
 -8.2683422e-02
  8.4052342e-01
 -5.6122687e-02
  2.9368111e-01
  6.0108695e-02
  1.3993302e-01
 -1.9217089e-02
 -1.5012310e+00
 -8.1450999e-01
 -1.9244696e-01
  1.2101016e+00
 -2.3063786e+00
 -3.3046371e-01
 -7.9731219e-02
  6.3896984e-01
 -4.3850660e-01
  2.5187779e-02
  2.1523599e-01
 -6.9672751e-01
 -2.8621882e-02
 -4.1360620e-01
 -1.3129032e-01
 -1.1187652e-01
 -3.8284790e-02
 -3.3513319e-01
  8.8487171e-02
  1.7222893e-01
 -6.1201620e-01
 -4.1223222e-01
  4.9897808e-01
 -2.3726597e-01
  2.7622601e-02
  7.4624422e-04
 -2.1687019e-01
 -3.6255208e-01
  1.7873218e-02
 -3.7831992e-03
  2.0115747e+00
  1.0037925e+00
  1.2932369e-01
 -6.0915953e-01
 -1.6790607e+00
 -4.5872558e-02
 -3.2374103e-02
 -7.9544641e-02
  7.0228083e-03
 -4.4526944e-01
 -4.5682198e-01
 -9.8648483e-01
  8.8497009e-03
 -3.1243935e-01
  6.0056541e-03
  1.7821049e-02
 -4.4054151e-01
  1.5843913e-01
 -6.8317875e-03
  5.8176991e-02
  8.2328856e-02
 -1.1813937e-02
 -3.7544817e-02
 -1.1145585e-01
 -1.1168758e-01
  3.4963381e-03
 -2.1074887e-01
 -2.8823426e-01
 -4.2600483e-02
 -5.3954814e-02
  1.7847465e-01
  7.3413432e-02
 -1.3801632e-02
  3.1447610e-01
 -1.7480372e+00
 -5.4402653e-02
 -6.0439862e-02
  1.2230135e-03
 -5.2746111e-03
  2.3091508e-02
 -1.1518419e-03
 -4.9426470e-02
 -8.9087617e-01
 -7.7185594e-02
 -2.8762963e-02
 -5.7226222e-02
  3.5726378e-04
  5.8095446e-03
 -1.1878309e-01
  1.7371003e-02
  3.3418380e-02
 -2.0359166e-02
  2.0688619e-02
  1.4623574e-02
  1.7438147e-02
 -6.8345509e-02
 -9.8774530e-02
 -8.3889984e-02
  4.8276524e-05
 -5.0957227e-04
 -2.9692438e-01
  2.4325380e-01
  1.0742813e-01
 -7.5922531e-01
  4.7430387e-01
 -8.4709205e-02
  4.0969392e-03
 -5.1270533e-02
 -1.9261264e-03
  6.1616104e-02
 -1.0838563e-01
 -1.0706958e-02
  3.4022382e-03
  9.6776120e-02
 -4.3255233e-04
  8.8901035e-03
  4.7109444e-02
 -1.6522675e-03
 -3.1942892e-04
 -1.0734827e-02
 -2.1309726e-02
 -6.4914078e-02
 -7.5538256e-03
  9.4134144e-02
  1.2492306e-03
  5.9028126e-02
 -3.4604039e-02
 -1.8056234e-02
 -2.7002968e-02
 -1.3637626e-02
  1.6200949e-01
  5.6213634e-03
 -9.6805245e-03
  9.8065013e-01
 -8.3730304e-01
 -1.9801459e-03
 -1.1472302e-02
  1.0115590e-01
 -1.3238576e-01
  5.0412279e-02
 -3.0267127e-02
 -7.7504255e-03
 -4.2819094e-02
 -4.8455920e-02
 -1.0051947e-01
 -1.0242823e-01
  1.0065535e-03
 -5.1975716e-02
 -3.4101669e-02
  1.7735412e-02
  2.4088690e-02
  9.4805956e-03
 -4.6649501e-03
 -7.4016340e-02
  3.8883485e-02
 -8.1114825e-03
 -4.0347017e-02
 -3.6604546e-02
  1.4390028e-02
  8.0848774e-03
 -2.5021312e+00
  1.3033396e+00
  2.3761556e+00
  1.3435255e+00
 -2.7762754e+00
 -1.8814133e-01
  8.4835835e-02
 -2.4731009e-01
 -5.2351457e-01
  3.1062221e-02
 -5.7438517e-01
  5.9923328e-02
  1.4492854e+00
 -1.8371486e-04
 -2.7165332e-01
 -1.5377977e-01
  2.3936674e-02
  1.2031285e-03
 -2.6197168e-01
 -1.9418044e-03
 -5.1187485e-01
  4.0480375e-02
 -1.3408458e-01
 -2.2364264e-02
 -4.7282726e-02
 -1.7200224e-02
  3.8839977e-02
 -6.7815140e-02
 -1.4114565e-02
  2.8456502e-02
  4.5163894e-01
 -8.7060380e-01
 -6.1540425e-02
  4.4309509e-01
 -7.8316694e-01
 -2.6083240e-01
  1.9150401e-02
 -3.3216223e-02
 -4.4062537e-01
 -1.3233590e-01
  2.5935632e-01
 -2.4203373e-01
 -2.0702215e-02
 -3.2223325e-02
 -2.9414636e-01
 -5.1451665e-01
 -3.4626496e-03
 -1.7151869e-03
 -6.3905749e-03
  3.0684096e-01
 -2.5178403e-01
 -2.9841089e-01
 -2.5699271e-02
 -2.8658137e-01
  3.2042995e-02
 -3.5614450e-02
 -1.9263996e-02
  1.8817842e-02
  5.2477010e-02
 -8.6646248e-03
  1.0173319e-01
 -1.3410243e-02
  1.9922791e-02
  1.4829903e+00
 -4.7684908e-01
  6.2211506e-02
  1.1367708e-02
  6.6477753e-02
 -1.0321831e-01
  1.5889519e-01
  2.1806719e-02
 -4.4220048e-03
 -1.7081781e-01
  1.6264860e-02
 -1.3817815e-01
  6.6076756e-02
 -3.3702797e-03
  1.8347930e-03
 -1.9868020e-02
  7.8012818e-03
 -2.9054943e-02
  5.5913995e-03
 -4.9744003e-02
 -4.6029426e-02
 -1.5712010e-02
 -5.2940756e-02
 -8.2070440e-02
  3.2410566e-02
  4.2369189e-03
  7.2544930e-03
 -1.1625977e-01
  5.2385014e-01
 -3.2046479e-03
 -5.9553146e-01
  6.6876578e-01
 -8.4463060e-02
 -4.6595182e-02
 -5.5108868e-02
  2.3715815e-01
 -9.9107936e-02
  8.4515632e-04
  3.0029478e-02
  1.9308545e-02
  6.0246275e-03
  6.6245109e-02
  1.3178623e-01
 -4.7173313e-04
 -7.2494976e-02
 -2.9808715e-02
 -4.6937343e-02
  7.7175680e-03
  4.0011689e-02
 -2.7376268e-02
  1.5173067e-02
 -6.1896048e-02
  2.8785368e-02
  4.3002583e-02
 -6.9344364e-04
 -3.0442784e-03
 -3.1627968e-03
  7.5235277e-02
  2.3541030e-02
  3.3304331e-01
  1.2050489e+00
 -5.7476413e-01
 -5.4028701e-02
  8.2151946e-03
  3.1635880e-02
 -3.4909254e-01
  6.9453694e-02
  1.0250622e-02
  7.6996768e-03
 -5.2643999e-02
  3.8454781e-04
  1.4892533e-02
  1.2717368e-02
 -1.1069096e-01
  9.7632007e-04
 -6.6897467e-02
 -7.5574784e-04
 -7.2676975e-01
 -1.4896567e-01
  2.7994631e-02
 -5.4629249e-03
  8.4042765e-02
  2.9967058e-02
 -2.1620652e-02
 -1.2902216e-03
  2.2805242e-02
 -1.2584773e-02
  7.5487250e-01
  1.8510158e+00
 -4.7321016e-01
 -8.5434325e-02
 -8.2233965e-01
 -2.4255238e-02
  3.9176124e-01
 -3.1577101e-01
  1.1429184e-01
 -6.8785824e-02
  4.7805053e-01
  7.6538336e-01
 -2.7380228e-01
  5.1497683e-02
 -7.9289693e-01
  2.9924461e-01
  8.3331347e-01
  5.0977874e-01
  1.3775125e-01
  5.8733958e-01
  1.7309356e+00
  1.0249496e+00
  7.2790313e-01
  1.5914072e-03
 -2.7602464e-02
  1.6354190e-01
  7.0985168e-02
 -6.2960707e-02
  2.5182614e-02
  6.6859866e-03
  1.5299258e+00
 -1.8027859e+00
 -8.6613901e-02
 -1.0513175e+00
 -1.3317059e+00
 -4.3877778e-03
  4.6108417e-02
  3.3988824e-01
 -9.4392843e-04
 -1.7648961e-02
  8.6782925e-02
 -2.3222136e-01
 -8.3126547e-03
 -1.1089710e-02
 -6.3128741e-03
 -7.6512448e-02
  4.3223437e-02
 -9.0865470e-02
  1.8596252e-02
 -1.9002851e+00
 -3.1367749e-01
 -6.8607032e-02
 -1.0003028e-02
 -9.4389513e-02
 -1.7987065e-02
  6.9400527e-02
  1.0121291e-01
 -6.1239403e-02
 -6.2628657e-02
 -3.1281270e-03
  7.3772001e-01
 -1.3093144e+00
  1.0783424e+00
 -5.5594433e-02
 -1.6660767e+00
  1.1510819e+00
 -7.1279073e-01
  4.2100140e-01
 -1.0075157e+00
  2.8448033e-01
  1.1456592e+00
  1.5239347e-02
 -4.2040912e-03
 -1.5734448e+00
 -1.0640540e+00
 -7.6092666e-01
 -1.5055175e-01
 -1.2304037e+00
  4.6784186e-01
 -1.0706936e-01
 -1.2345979e+00
  6.7440504e-01
  1.3234714e+00
 -3.4165257e-01
 -1.6255977e+00
 -6.7843330e-01
  5.3452849e-02
 -1.4074904e-01
  1.5347530e-01
  1.1590127e+00
 -1.2518343e+00
  1.0976542e+00
 -6.9116974e-01
  9.5519453e-01
 -1.0919080e+00
 -8.8767135e-01
  1.0589293e+00
 -7.9902399e-01
  8.0391252e-01
  3.1497562e-01
  1.5388300e-01
 -8.5828698e-01
  3.8008904e-01
 -1.4953259e+00
  1.5373100e+00
 -6.8202502e-01
 -8.5202575e-01
 -1.1673592e+00
  1.2178239e+00
  8.2685101e-01
  4.1393599e-01
  8.2971698e-01
  1.1411371e+00
  1.1387799e+00
  1.9852945e+00
 -1.9535648e+00
  1.3859158e+00
 -1.4781131e+00
  7.7472903e-02
  2.9744080e-01
 -6.9827443e-01
 -4.7000036e-01
  2.5617734e-01
  3.0971134e-01
 -1.1322926e+00
  1.8627089e-01
  4.6279296e-01
  1.2760647e-01
  1.1662358e+00
 -2.2592204e+00
  5.4423106e-01
  9.6619189e-01
 -8.0153996e-01
  6.7938966e-01
  1.2648686e+00
  2.1679837e-01
  6.9222617e-01
 -6.1186773e-01
  4.1359279e-01
  6.2751949e-01
  1.8813322e-01
 -8.0118251e-01
 -4.6208811e-01
 -5.7263639e-02
  1.6626076e-01
  3.8647512e-01
 -1.8402702e-01
  9.5654851e-01
 -1.2674702e+00
 -7.7005845e-01
 -4.1254088e-01
  1.6769876e-01
 -2.2810304e-01
 -1.5733331e+00
 -1.2016723e+00
 -1.4434795e-01
  3.5424510e-01
 -5.6125939e-01
  9.2146260e-01
  5.5530447e-01
 -4.7087541e-01
  1.6905357e+00
 -1.8478650e-01
 -3.0453160e+00
  4.1984668e-01
  4.8841111e-02
 -2.8969228e-01
  1.0579726e-01
 -8.3410755e-02
  1.0970443e-01
  9.7096033e-02
  1.4189935e-01
 -1.4329584e-02
  5.0896412e-01
  3.9489616e-02
  3.8479842e-02
  3.3610843e-02
 -8.7882914e-02
  1.6355619e-01
  1.9902804e-01
 -1.2673627e-01
  3.3010708e-03
 -1.0429272e-01
 -6.4907782e-03
  8.2462028e-02
 -3.4127084e-03
  1.6707959e-02
  2.2452768e-02
 -5.9501011e-02
 -6.2058531e-02
 -2.2811582e-02
  2.0360313e-01
 -2.8415261e-02
  2.9817656e-01
  3.4438193e-01
 -2.3104528e-02
 -8.3817769e-04
 -4.5162980e-02
  2.6378602e-02
 -7.4627794e-02
 -1.3088338e-03
 -2.2173990e-03
  5.2999016e-02
  1.5445737e-02
  9.1969520e-02
 -1.0831840e-02
  9.4586527e-03
  2.3218036e-02
  1.7315773e-02
  6.0172822e-02
 -3.8044147e-02
  7.9554558e-02
 -5.1894147e-02
 -1.1676156e-02
  5.3155534e-02
  1.5232145e-02
  2.5983322e-02
  6.1173998e-02
  1.9520341e-04
  8.4776676e-04
  5.7426286e-01
 -1.4742917e+00
  3.3323693e-01
 -2.1150136e+00
  1.2743644e+00
 -8.5885137e-02
  1.4246298e-01
  2.6831562e-02
  1.0047793e-01
 -2.3555107e-01
  1.7536317e+00
 -8.3437860e-03
  4.0067768e-01
  3.8655993e-02
  6.6839606e-02
  8.4715374e-02
 -5.8285661e-02
 -2.3533402e-03
 -1.0954848e-01
  1.0554180e-02
  1.1565110e-01
 -5.0962255e-03
  2.5808826e-01
 -1.8096643e-02
 -1.5092602e-01
  1.1929189e-01
  9.7607989e-03
 -4.0767349e-02
  1.6149839e-03
 -2.7511014e-02
  1.8594275e-01
 -3.4987381e-01
  1.8506395e-02
  6.5245402e-01
 -4.0289363e-01
  1.0891220e-02
 -6.8279810e-02
 -6.2636003e-02
  2.1799691e-02
  5.1152207e-02
  1.2024301e-01
 -4.3031093e-02
  1.8315502e-02
  1.2456950e-03
 -2.4842424e-02
 -3.6291420e-02
 -4.2345200e-02
 -9.1182981e-03
  6.8815678e-02
 -3.3375040e-02
 -6.3716404e-02
 -1.7537021e-03
 -4.3042428e-03
 -7.4002752e-03
 -1.4723728e-02
  5.9891988e-02
 -4.6989374e-02
  1.3032684e-01
 -5.2023415e-02
  3.3898599e-02
 -2.8693098e-01
 -2.2649432e-02
  1.5589045e-01
  1.7622277e-01
  1.0786566e+00
 -6.3321613e-02
  2.0672947e-01
  4.7543426e-03
  3.7092271e-03
 -5.5520099e-02
 -7.1535087e-03
  8.4623016e-02
  2.1767939e-02
  3.6934048e-02
  3.8897902e-02
  1.0850830e-02
  5.4535149e-03
 -8.5623953e-03
 -6.1336096e-02
  1.9574276e-01
 -2.5668240e-03
 -2.3041723e-02
  3.1758358e-03
  1.7814471e-01
 -5.9076756e-02
 -4.9318887e-02
 -7.3578335e-02
 -2.8732944e-02
  2.3483055e-02
 -1.3991710e-02
  2.8557342e-01
 -6.8037605e-01
  3.2838631e-01
 -2.7539983e-01
 -2.6310375e-01
 -5.1674992e-02
 -2.5589836e-05
 -9.5311198e-03
  3.0428912e-03
 -7.0732337e-04
 -3.4453146e-02
 -8.8438541e-02
  1.5516809e-02
  1.5679194e-02
 -9.9920249e-03
  7.8216985e-02
 -6.1533403e-02
 -1.4466217e-01
 -6.4973109e-03
 -1.3616970e-01
 -2.5865577e-02
 -1.6363012e-02
  3.8815741e-03
 -9.4134919e-02
 -9.9478289e-02
  2.6175333e-03
  2.3248566e-02
  4.0103070e-02
 -1.9803599e-02
  1.0897009e-01
 -3.0090158e+00
  2.9659455e+00
 -1.9643060e+00
 -1.1384217e+00
 -2.9003096e+00
  6.3729227e-01
  3.2842021e-02
 -1.7025357e-01
 -9.6479321e-01
  1.8789540e-01
  2.5035818e-03
 -5.9545976e-01
 -7.2823122e-02
 -5.2578485e-01
  1.6956575e-01
 -1.6611992e-01
  8.4600210e-01
 -5.5943304e-01
 -2.3795266e-01
 -2.4493651e-02
 -1.8722147e-01
  7.8431731e-01
 -2.8393331e-01
 -7.8386404e-02
  4.1470208e-04
 -3.1578866e-01
 -1.2502143e-01
  2.6296457e-02
  2.4990749e-02
 -2.8529061e-02
 -9.0739584e-01
 -1.2184770e+00
  9.0078041e-02
  2.9121835e+00
 -1.1452160e+00
  5.4644935e-02
  1.0086356e-02
 -7.3439017e-02
  1.4154346e-01
  2.9080823e-01
 -1.1085749e-01
 -2.9085688e-02
  9.7255267e-02
  2.7827379e-01
  9.4790265e-02
  2.2252442e-02
  2.8558474e-02
  9.4081596e-02
 -2.2578230e-02
 -5.9166490e-03
 -7.5717457e-03
 -3.1419177e-02
  1.4259794e-01
 -6.1608977e-03
 -2.3214512e-02
  6.5837264e-02
 -2.3344096e-02
 -4.2493287e-02
  4.3732416e-02
  3.8905529e-04
 -2.8133500e-01
  1.0667558e+00
 -4.4340376e-02
 -6.0566641e-02
  5.0999755e-01
  7.3123700e-03
 -2.3878174e-02
 -3.1001596e-02
 -3.0107910e-02
  2.7712643e-02
  5.9560373e-02
  1.0039505e-01
  3.9138999e-02
  1.3328664e-02
 -7.0871346e-02
 -2.7104108e-02
  8.0572441e-02
 -6.2470056e-02
  6.7324005e-03
  1.0441069e-02
  1.6324358e-01
  7.7265382e-02
  1.2426622e-01
  1.4480934e-02
 -1.9122664e-02
 -3.0374257e-02
  7.5623472e-03
 -1.1326079e-01
  3.6587229e-03
 -7.1088667e-03
 -4.0032458e-02
 -1.1004578e+00
 -5.1215458e-01
  3.5093497e-02
 -2.5216172e-02
 -1.4098291e-01
 -2.8146142e-01
 -6.1939959e-03
 -7.5486787e-03
 -4.5991000e-03
 -1.7395115e-02
 -5.0883478e-01
  3.4265619e-02
  1.1490064e-01
 -1.3104363e-01
  6.7428730e-02
 -4.4971821e-01
 -2.5463182e-02
 -1.5070204e-01
 -3.1115159e-01
 -5.4348564e-01
 -3.7755188e-01
 -1.6193520e-01
 -2.4061006e-01
 -1.1317313e-01
  4.4868980e-02
  1.0429456e-01
 -1.4169037e-02
 -2.1766033e-02
  6.6314600e-02
  4.9362577e-02
 -2.7051842e-01
  1.3255812e-01
 -4.1894570e-02
 -1.6990453e+00
 -5.7428319e-02
 -1.6622357e-02
 -7.2318412e-02
  4.2080365e-02
  9.6813804e-03
  1.4229726e-02
 -3.4636267e-02
 -3.2438149e-03
  3.9093882e-02
  8.1430813e-03
 -1.7262844e-02
 -1.6454587e-02
  4.1927338e-02
  2.1071104e-02
 -1.0392756e-01
 -7.2963811e-03
 -4.9592264e-02
 -1.6013905e-02
 -1.3907364e-03
  2.4866363e-02
 -4.0765069e-03
  1.3538565e-02
 -1.7988926e-02
  1.4302474e-02
 -6.9476040e-03
 -4.3543369e-01
 -2.3505071e-02
  5.5990285e-01
  1.5710243e+00
  8.2135785e-01
  2.8443906e-02
  9.9433225e-01
 -1.2772327e-02
  3.0232629e-02
  9.4845749e-02
 -1.2367859e-02
  2.5501479e-03
  1.5326805e-01
  4.6566028e-02
  1.6511656e-02
  3.7415501e-02
  5.5941097e-02
 -1.2614849e-03
 -7.8201652e-02
  8.9919800e-03
 -4.9095172e-03
  1.1689493e-01
  5.0955534e-02
  8.8138189e-03
 -5.6590294e-03
  1.2937607e-02
 -2.1112502e-02
  6.8600222e-02
 -1.0936737e-02
 -7.2456524e-02
 -2.2980969e-02
  6.1059171e-01
 -6.1495591e-02
  4.6703458e-01
  3.2962373e-01
  2.6930161e-04
  5.4922730e-02
 -2.8499588e-02
 -8.5609835e-03
 -4.1743699e-02
  6.0086949e-03
 -3.7496004e-02
 -4.0866047e-02
 -3.3005249e-02
 -1.5987311e-02
 -7.5556941e-02
  4.0306233e-02
  2.1878298e-02
 -1.5645761e-02
 -1.9817537e-02
  6.0828947e-03
 -9.4496636e-03
 -5.4964058e-02
 -6.6937737e-02
  5.3570177e-02
  2.3019150e-02
  6.4725559e-03
 -2.9549303e-02
 -9.1321068e-03
  3.4975495e-02
  1.9760458e-01
 -2.2845798e+00
 -1.8664819e+00
  1.5811262e+00
 -1.2061194e+00
  3.1547958e-01
 -1.2426620e-01
  8.1953434e-03
 -1.3114394e-01
  1.2818897e-02
  1.9708736e-02
 -2.9277158e-01
 -2.4439855e-02
 -8.7319806e-02
 -1.3111533e-01
  1.8769167e-02
 -3.3252093e-01
 -1.2285374e-02
  3.6871348e-02
 -2.1193078e-01
 -1.7663005e-01
 -1.4694618e-01
 -2.1982312e-02
 -1.8838530e-02
 -2.8811786e-01
  1.6824558e-02
  1.8266249e-01
 -9.8124102e-02
 -2.7501652e-02
  9.6150776e-03
 -1.1194641e-02
 -4.5135736e-01
 -6.2124776e-03
 -1.8985502e-01
 -4.7193259e-01
 -9.4259260e-03
  1.5366514e-03
  1.3053673e-02
  4.0572055e-02
  2.0379085e-02
  5.7304047e-02
 -6.5701798e-02
  1.0962909e-02
 -1.0138477e-03
  1.4893174e-02
  3.6260060e-03
  4.2011458e-02
  5.0735656e-02
 -1.5834475e-02
  1.1785662e-02
 -1.6056518e-01
 -3.6726862e-02
 -8.9763915e-03
 -4.0875461e-02
  3.1456489e-03
 -6.8327449e-02
  5.7830256e-03
 -7.4925676e-02
 -1.1624782e-02
 -6.7074396e-02
 -4.5638213e-01
 -2.1061924e-01
 -9.4524121e-01
 -5.4741703e-02
 -3.3164058e+00
 -1.6261148e+00
 -5.9237617e-01
 -4.8559183e-01
 -6.6956326e-02
  4.5267075e-01
  2.0573993e-01
 -4.0119830e-01
  2.7960138e-02
 -2.4683256e-01
 -1.1465471e-01
  5.2035172e-02
 -4.5027208e-01
  1.4626949e-01
  6.2749743e-02
 -1.8082544e-01
 -3.3562917e-01
 -4.3077376e-02
 -1.3202742e-01
  4.2607117e-01
 -8.8963278e-02
  7.2419405e-02
  1.9469722e-01
  7.9592606e-03
 -4.7615770e-02
  2.7419120e-02
  8.7024754e-01
 -4.4252622e-01
 -5.2288485e-01
 -2.9212466e-01
 -7.5161010e-01
 -4.8858768e-01
  1.7861050e-02
 -2.1028945e-01
  2.8134955e-02
 -1.9070676e-02
 -5.0960165e-02
 -1.6018276e-01
  8.7986644e-03
  2.3833357e-02
  2.4687337e-02
  1.0571102e-01
 -2.5542033e-01
  7.8745939e-02
 -1.8106471e-01
 -2.0686276e-01
 -1.6615094e-01
 -7.8502834e-02
 -1.8784840e-01
 -2.9907312e-02
 -2.4279878e-02
  2.1786414e-01
 -7.3283422e-03
  5.5116702e-02
  1.0326265e-01
 -8.4630279e-03
  1.0587815e+00
  4.6717644e-01
  4.3179970e-02
  5.4931623e-01
  6.8269050e-01
 -7.6690596e-04
 -2.7112339e-02
 -3.7354574e-01
  1.5590766e-02
  1.0689920e-02
 -2.7568869e-02
  1.6180776e-02
 -1.6529337e-02
 -1.0647597e-01
 -9.7164586e-02
 -1.5443982e-01
  1.8237831e-01
  6.3262135e-02
 -1.9202121e-02
  1.5735877e-01
  2.8769949e-02
  6.6746265e-01
  6.3701034e-02
  2.7772326e-02
  1.0293647e-01
 -3.0596100e-03
 -3.3534434e-02
  5.0512888e-03
 -2.7906276e-02
  1.9564830e-02
 -2.2564645e+00
  9.2001051e-01
 -1.2408204e+00
 -6.0914749e-01
  9.5367682e-01
  2.0686670e-01
  6.2676780e-02
  2.4821785e-01
 -2.7597651e-01
 -2.2760272e-01
  1.7821573e-02
 -4.8220120e-03
  1.4091344e-01
  6.6047758e-02
 -2.5587162e-01
 -3.7616957e-02
  2.2233544e-01
 -2.2694593e-02
  5.4243375e-02
  2.3086298e-02
 -2.2940557e-01
  1.2096661e-01
  4.3552715e-01
 -2.1605839e-01
 -6.1930805e-01
  4.5290109e-02
  5.3892981e-02
 -1.0272354e-02
  2.3938008e-02
  5.7426445e-02
  2.3552664e-02
 -8.4200782e-01
  2.5168067e-01
 -2.3521896e-01
 -1.8791150e-01
 -1.4588450e-02
 -1.4189770e-02
  2.4083778e-02
  9.5139118e-03
 -5.2782008e-03
 -2.8855072e-03
 -8.4312215e-02
 -1.4153604e-02
  9.3955090e-03
 -2.9192786e-03
  4.7109138e-02
 -7.3638594e-01
 -2.6937890e-01
 -1.2799568e-01
 -3.1327073e-02
  5.9643675e-02
 -4.3824676e-02
 -1.2103554e-02
  1.1289608e-01
 -2.0631531e-02
  4.3750461e-02
  1.6783921e-02
 -8.5425012e-02
 -4.1970536e-03
 -2.7770683e-02
 -2.2258673e-02
  4.2405215e-01
  1.6697189e-02
  2.0460869e-01
  3.5495937e-01
  4.5468606e-02
  6.0423964e-04
 -1.3959964e-02
 -2.8110374e-02
 -2.0330885e-02
 -4.2108409e-02
 -6.9318456e-05
  2.2543276e-02
 -7.9224557e-03
  4.5077920e-02
  2.9119416e-03
  5.8963131e-02
  4.0020691e-03
  1.8489573e-02
  4.5339223e-02
  4.8822369e-02
 -3.6933575e-02
 -3.8902357e-02
  2.2260504e-02
  1.9972483e-03
  7.4877338e-03
  7.1782977e-03
  3.2414939e-02
 -5.1523019e-03
 -8.1890322e-02
 -1.4498480e-01
  5.1071811e-01
 -8.1856154e-02
  3.2526204e-01
  4.2689613e-01
 -8.9033335e-02
 -1.0859031e-01
 -4.2144388e-02
  3.1626828e-02
  6.0692953e-04
 -7.8919753e-02
  1.7450951e-04
  1.6253686e-02
  1.7056839e-03
 -9.9268770e-03
 -7.2257638e-02
  1.3325669e-01
 -2.2712348e-02
 -6.4293317e-02
  3.8085241e-02
  4.4529144e-02
  2.5566546e-02
  2.7277617e-02
  7.4969113e-02
  1.9363493e-02
 -3.8095835e-01
  2.9174833e-02
 -2.6760280e-02
 -3.4548145e-02
 -6.0493767e-02
 -1.2596478e-01
  4.8406178e-01
 -6.8527006e-02
  3.2770872e-01
  1.6474390e-01
 -1.3946554e-02
  1.5438847e-02
 -2.4843980e-02
  8.7031787e-03
  1.1543993e+00
 -8.3288543e-02
  8.2379607e-03
  2.2486171e-02
  4.1793492e-02
 -3.2448244e-01
  7.4884859e-03
  5.6541614e-02
 -5.4119038e-03
  4.0705327e-02
 -4.4803109e-02
  1.1093970e-01
 -1.2012769e-02
  6.6154008e-03
  8.4175795e-02
 -4.8496104e-03
  5.9416287e-02
 -2.3908008e-02
  8.9943416e-02
  7.2359540e-02
 -4.9900714e-02
 -1.1903459e+00
 -2.8942448e-01
 -1.2778141e-01
  1.3714798e-01
  1.7220566e+00
  5.1754106e-02
  1.3730682e-02
 -7.0997395e-02
 -8.4750094e-02
 -8.4204609e-03
  1.4196567e-02
 -8.9125514e-02
 -3.4474651e-03
 -9.2678435e-02
 -1.4988327e-01
 -2.3038339e-02
 -2.4609599e-01
 -6.8521142e-02
  1.1158510e-01
 -4.3298928e-03
  6.4006248e-03
  4.1573908e-02
  1.5254883e-03
 -6.3359495e-03
  1.9361845e-01
 -3.7707444e-02
  1.2544544e-02
 -4.4068269e-02
 -1.1212395e-01
  6.2192585e-02
  2.0384481e+00
  3.4829694e-01
  3.5893425e-02
 -6.7590582e-01
 -1.8793817e-01
 -2.8050182e-02
 -1.2784474e-01
 -1.8287836e-02
 -2.3824305e-03
  8.6906165e-02
 -9.7743712e-02
 -5.4051131e-01
 -2.7552811e-02
  2.8800758e-02
 -1.4945735e-01
  2.0924525e-01
 -2.2405714e-01
 -4.6513993e-02
  9.9151105e-02
  1.0185229e-02
  5.5416745e-01
 -7.3341611e-03
 -4.0381212e-02
  3.9758854e-02
  8.4372409e-02
  1.1328726e-01
  9.6310064e-02
 -2.1606067e-02
 -6.6952437e-02
  3.6707230e-02
  1.9352671e-02
  9.2693293e-01
 -2.0509239e-01
  4.5685145e-01
  6.8931419e-01
 -3.8493432e-03
 -8.6681760e-04
  8.8198312e-02
 -3.3235509e-02
  1.1593967e-01
  2.2957830e-02
  4.2347055e-02
 -1.3322769e-02
 -3.6756760e-03
 -1.3888568e-02
 -1.7724256e-03
  5.4871146e-02
 -2.6276186e-02
  7.1445899e-03
 -6.7964126e-03
  8.0244672e-03
  1.5231904e-02
  1.3074748e-02
 -4.9466845e-02
 -1.8759741e-01
 -1.8423701e-02
 -9.0926468e-02
 -9.4489992e-02
  2.7260249e-02
 -6.0993586e-02
 -1.7836493e+00
  7.4851000e-01
  2.1362920e+00
  8.8712490e-01
  3.2168549e-01
  2.9175723e-01
  4.1409510e-01
  1.6763531e-01
 -1.9447976e-01
 -1.8719742e-01
 -2.3893928e-05
  3.3345394e-02
  3.0027686e-02
  2.5650553e-02
 -5.4032035e-02
 -3.0871604e-02
  6.6510350e-01
  1.6580119e+00
  1.0558066e-02
  1.0514981e+00
 -7.4035600e-02
  1.6543545e-03
  1.4337204e-01
  6.3870596e-03
 -2.7987757e-01
 -2.6642965e-02
 -3.6478005e-02
  4.2775493e-02
 -1.7779943e-02
  1.0707724e-02
  1.8040230e-02
  5.6398720e-01
 -8.5198075e-02
  5.0727051e-01
  3.5557175e-01
  3.6925439e-02
  9.1595370e-03
 -5.3477390e-03
 -1.0092275e+00
 -2.7239982e-02
 -9.7218506e-02
  2.4653256e-02
 -1.2708743e-02
 -4.8983149e-02
  2.7564783e-02
 -5.0736085e-02
  1.3618545e-02
  7.9849310e-02
 -2.7431002e-02
  6.5716334e-02
  6.9177113e-02
  5.1376540e-02
  2.0249629e-02
  3.7080586e-02
  2.2815296e-02
  4.2715859e-02
 -8.6969852e-02
 -4.9726509e-02
 -1.6235599e-02
  6.8368418e-03
  1.2020715e-01
 -1.7287583e+00
  8.2731180e-02
 -2.0705545e+00
 -5.8205403e-02
 -5.7291789e-03
 -5.3443494e-03
  8.1323637e-03
  6.9885552e-02
 -3.0194141e-02
 -2.9909423e-02
 -5.1696855e-03
 -2.4606343e-03
 -1.0324524e-01
 -1.5895309e-01
  3.3328965e-02
  1.9733647e-02
 -1.0352998e-02
 -8.0299921e-02
 -1.0021012e-04
 -1.3467145e-01
  3.3141624e-02
  3.9968025e-02
 -1.0215525e-01
 -1.8516393e-01
 -1.4414219e-02
 -1.3083692e-03
 -6.0266767e-02
  2.4258250e-03
  6.3236862e-02
 -1.1560510e-01
  1.7833146e+00
 -2.1738254e-01
  2.0194734e-02
  6.8903595e-02
 -1.1246253e-01
  3.8895835e-03
  5.9270170e-02
  4.8377085e-02
 -1.5743519e-03
 -6.1090112e-02
  1.7470933e-01
 -1.2171303e-01
 -6.3473448e-02
 -2.1450059e-01
 -2.2628562e-01
  2.2698361e-01
 -6.6294447e-02
  1.1917520e-03
 -8.1994627e-03
  1.1692862e-03
 -4.4262264e-02
 -3.9049853e-02
 -1.2064706e-01
 -1.2015485e-02
 -1.8420250e-03
  4.0932678e-02
 -1.5204331e-01
 -8.7632209e-02
  6.9999476e-03
 -5.1693112e-01
 -1.8047065e+00
  1.2434261e+00
 -4.3685728e-01
 -1.2166336e+00
 -7.9364456e-02
 -1.9332322e-01
 -8.1985041e-02
 -4.5370129e-01
  3.3508193e-02
  5.3887077e-02
 -1.8412362e-01
  1.4970215e-01
 -2.6706558e-02
  1.4693670e-01
  2.7543220e-01
 -2.2891295e-01
 -6.4377896e-02
 -1.0040095e-02
  9.1039485e-01
 -3.8215782e-02
 -5.2845109e-02
 -3.4024411e-01
  8.2529269e-02
 -2.1587355e-01
 -5.2026358e-02
  9.0946808e-02
  1.5537249e-02
  4.9370557e-02
 -4.9711566e-02
  3.0412352e-01
 -3.6764672e-01
 -3.2977748e-01
 -2.6754315e-03
 -4.0672860e-01
  9.2142392e-03
 -4.9785078e-02
  8.6970227e-03
  3.8911957e-02
  1.0391458e-01
  5.0419603e-02
  6.8837353e-03
 -8.4967978e-02
 -3.3730887e-02
  2.2272723e-02
  2.2684271e-02
  3.9235735e-03
 -9.4437487e-02
  1.8044159e-02
 -6.3484035e-02
  5.9179273e-03
 -8.3276499e-03
 -6.7312285e-02
 -6.5836228e-02
  1.6987082e-02
  8.5834011e-02
 -2.1128424e-02
 -1.1179715e-02
  7.7726707e-02
  4.8386429e-02
 -6.9669765e-01
 -4.9756534e-02
  7.6287813e-02
  1.5047287e+00
  4.7155607e-01
 -4.5416905e-03
 -1.5195988e-02
 -3.8247060e-02
 -8.4949769e-03
 -1.0361211e-02
 -3.2321063e-03
  1.3144231e-01
 -2.9531298e-02
  2.7836882e-02
 -1.4406039e-02
 -2.9223204e-01
  1.3976912e-01
  8.9645296e-02
  6.8206750e-02
  7.1961656e-02
 -3.3824075e-02
  2.0642510e-02
 -3.3260915e-02
 -2.0363288e-04
  8.7899312e-02
 -6.7805156e-02
  3.1349575e-03
 -3.8845554e-02
  5.4652225e-02
  1.5537389e-02
 -1.6308154e-01
 -9.0129510e-02
  2.0533834e+00
  5.0504637e-01
  5.5996048e-01
  6.6011315e-03
  8.2586892e-03
 -9.9288709e-02
 -6.6780560e-02
 -2.2598149e-03
  6.1858664e-03
  1.4482783e-01
 -2.2313751e-02
 -9.7410809e-03
  1.0399352e-01
 -7.9460859e-02
  1.2649195e-01
  1.0014693e-01
 -1.7626762e-02
  4.0864320e-03
  2.3158658e-02
 -3.3905078e-02
  2.5463505e-02
  3.4337550e-02
  1.4276561e-01
 -9.0135261e-02
 -7.9227939e-02
  4.3998636e-02
 -8.6902017e-03
  6.9073774e-02
  6.4650482e-01
  3.2571414e-01
 -6.3119829e-02
 -3.9335558e-01
 -7.0620197e-01
 -8.7126955e-02
 -2.9005271e-01
 -6.5100700e-02
  1.3693905e-02
 -2.5612168e-02
 -1.0500277e-02
 -1.1335634e-01
 -3.5837784e-02
  3.3322375e-02
 -8.6993791e-02
  2.3437287e-01
 -2.4677339e-01
  4.0214971e-02
  4.3934144e-02
 -3.3163708e-02
  5.1352322e-01
 -2.6229340e-01
 -1.2986432e-03
  2.9608959e-02
 -5.0639015e-02
 -1.9749289e-02
  1.1923904e-01
 -2.1799099e-02
 -1.2534231e-02
  1.5719564e-01
  1.8498355e-01
 -6.4414042e-01
  1.1538370e-01
 -4.6438414e-01
 -3.0201805e-01
 -4.6753425e-02
  9.7058984e-03
 -4.4330936e-02
  9.2084762e-03
 -1.4080381e-02
 -5.0153988e-03
  5.7403702e-01
 -7.7857803e-06
 -4.4266721e-03
  7.9245590e-02
  9.7965829e-02
  3.4959398e-02
 -1.1537892e-02
 -3.7215281e-02
 -1.5414080e-02
 -6.7960627e-02
  4.0056147e-02
 -4.1494572e-01
 -4.7499355e-02
 -6.7063257e-02
  7.0137039e-02
  1.3376895e-03
 -1.8133465e-02
 -6.2300742e-02
  1.9826269e-02
 -1.6693367e-01
  1.3275902e+00
 -2.9852551e-01
 -2.7203715e+00
 -1.1297601e+00
 -4.7811414e-03
  2.5390951e-02
 -1.6731893e-01
  4.3383189e-02
 -2.8274459e-01
 -2.1587339e-01
 -3.7546879e-01
 -7.7967742e-04
  9.0530431e-03
  1.3768256e-01
  7.1066998e-02
 -3.5587868e-01
 -6.9344246e-01
 -1.1470508e-01
  1.4659935e-01
  2.3075390e-01
  2.1759278e-01
  3.7801623e-02
 -3.8856246e-02
 -2.7451479e-01
 -3.4384336e-02
  2.1406326e-02
  2.4705574e-02
  1.5383538e-02
 -1.0352970e-01
  2.6831341e-01
 -8.3471268e-01
 -9.5445842e-01
  1.7007065e+00
 -1.6388447e+00
 -1.5978493e-01
 -5.9174344e-02
 -8.7806654e-01
  1.2865947e-01
  2.8360587e-01
 -3.0501562e-01
 -4.8961350e-01
 -3.2774466e-01
  4.1450462e-01
 -4.1314874e-02
  1.9085258e-01
 -2.2512609e-01
  1.9165222e-02
 -2.7627837e-02
 -4.9423738e-03
 -8.2440473e-02
 -3.4469274e-01
  3.1092805e-01
  4.9690879e-03
  2.1420503e-01
  7.1229048e-02
  1.4340225e-01
  9.8276203e-03
 -4.4472098e-02
  1.3801421e-01
 -8.3345935e-02
 -1.1264414e+00
 -8.2200927e-01
  1.6083372e-01
 -7.0978224e-01
  7.0188969e-02
 -5.0462607e-02
  5.2358411e-02
 -1.0516612e-01
  4.9748335e-02
  2.5461141e-02
 -2.3958835e-01
  7.4917644e-02
  2.2058101e-02
  4.4192839e-02
 -2.4859518e-02
 -4.9427867e-02
 -1.7516989e-01
 -6.0736850e-02
 -1.5065232e-02
  6.1162296e-03
 -5.0344151e-03
  1.0136361e-03
 -7.0320047e-02
 -7.5561017e-02
  8.3957136e-02
 -8.4505910e-03
 -1.3906935e-01
 -3.3783324e-02
 -1.9043688e-01
 -2.4441833e+00
 -3.5709059e-01
 -3.0497676e-01
  1.7650093e+00
  2.0174661e-01
  1.2267836e-01
  8.8430232e-01
  1.1746848e-01
 -1.2868945e-02
 -4.6230179e-01
  3.9826784e-02
  3.2878396e-01
 -1.6106857e-02
  2.2273963e-02
  8.9191133e-03
  2.4319109e-01
  2.8705275e-01
 -6.2829219e-02
 -1.9502422e-02
  9.5293069e-01
  6.3912503e-02
 -6.6564836e-02
  8.8533917e-03
  3.7493606e-03
  2.5199691e-03
 -1.3633244e-01
 -2.5606463e-02
 -1.0491310e-01
  4.5711443e-02
 -5.9415810e-02
  5.9395856e-01
 -3.3496764e-01
 -2.5481529e+00
 -1.7920152e+00
 -3.2320242e-02
 -1.3137874e-01
 -1.5399544e-01
  1.3995993e-02
 -8.9039214e-02
  4.2927620e-01
 -3.0224280e-02
  3.7610447e-01
  2.2343194e-01
  6.2994678e-03
 -8.1666148e-01
 -1.3788268e-01
  1.8572518e-01
  1.3886617e-02
 -6.7038494e-03
 -1.9523603e-03
 -2.9339327e-03
 -6.6252790e-02
 -1.9449929e-02
  6.9645695e-02
 -8.2688287e-02
 -2.2569351e-02
  1.3558268e-02
  2.3167897e-02
 -1.6948296e-02
  5.7407987e-01
  1.8592050e+00
  1.6259699e+00
 -2.8625754e-01
 -6.1205053e-01
 -1.3198664e+00
 -8.9910381e-02
  1.1403153e-02
 -1.1244687e-01
  9.8797075e-02
  5.7347875e-02
 -4.1429572e-02
 -3.8424417e-02
 -4.0112797e-02
  8.3645970e-02
 -6.4696989e-04
  1.9803397e-02
  2.2140075e-02
  3.6564592e-02
  1.2387534e-01
 -6.6717863e-02
  7.4386452e-03
 -1.3026564e-01
  1.2353281e-02
 -7.1779147e-02
 -3.7830729e-02
  2.9820969e-02
 -3.6157480e-01
  1.4485820e-01
  5.4476965e-02
  1.2487381e-02
  1.2538300e+00
 -4.1746774e-01
  1.0438965e-01
  4.0363184e-01
  2.6424148e+00
  1.4113003e-01
 -2.4624942e-01
  1.0426186e-01
 -5.1937443e-03
 -5.2537732e-02
  1.4739124e-01
  6.0462064e-01
 -1.3826105e-02
 -1.2032773e-01
  1.9679590e-01
 -3.4137374e-01
  1.9827989e-01
 -1.3535003e-01
 -6.8987034e-02
 -4.9813062e-01
  1.1997388e-02
  3.2145607e-01
 -6.2144373e-02
  1.2014608e-02
  8.9894593e-02
 -9.6974410e-02
  7.5927838e-03
 -9.0177767e-03
 -2.2589780e-02
 -3.9478712e-02
 -2.4430585e-01
  1.8037784e-01
  4.6796635e-02
  6.9898464e-02
  4.2878047e-01
  4.2688325e-02
  8.4713861e-02
 -1.3821837e-02
  1.9341025e-03
  2.1133202e-03
  4.6486482e-02
 -1.5610000e-02
 -1.9852610e-02
 -4.5795813e-03
  7.3375548e-03
  2.1030925e-02
 -1.9714154e-02
  4.1106246e-02
 -5.3290226e-03
  2.9669669e-02
  2.2791063e-02
 -2.3628958e-02
 -1.0201291e-02
  7.9095354e-03
 -1.9688290e-02
 -4.6448796e-03
 -1.5064583e-02
 -5.9158567e-02
  1.6795138e-02
  8.4389850e-02
  2.6562819e+00
 -6.1475094e-02
 -8.6994427e-01
 -1.2808783e+00
 -1.2472577e-01
  3.9830650e-03
 -1.3040945e-02
  1.3342347e-02
 -9.4402023e-02
 -1.4355385e-03
  3.6777467e-02
 -3.8229856e-01
  3.3567984e-02
  2.1268891e-02
 -1.5408541e-01
  2.8569939e-02
 -1.9900262e-01
 -9.0547226e-04
  1.3203852e-02
  1.0559601e-01
  3.4548379e-02
 -3.9521441e-02
  5.9369826e-03
 -3.1449660e-03
  1.9451642e-01
  7.5186618e-02
  6.9971524e-02
 -2.5861971e-02
 -4.3332741e-02
 -2.1590313e-02
  1.1963853e-01
  1.9696970e-01
  8.8432688e-01
  2.1048595e-01
  2.0785253e+00
  1.0952711e-01
  4.1023561e-01
  6.5560347e-01
 -2.3543341e-02
 -3.0818433e-02
  3.7507811e-03
  4.9962193e-01
  2.8119570e-01
 -2.1888617e-01
  1.9797465e-01
 -2.0724183e-01
  3.2806921e-01
  2.4297182e-02
 -1.3491271e-01
 -8.3096373e-01
 -2.6616409e-01
  8.8810790e-01
  3.3924428e-01
 -1.9009240e-02
  1.5218143e-01
 -1.2424788e-02
 -4.3270484e-02
 -3.4978528e-02
  5.6021657e-02
 -4.3848626e-02
  5.6546134e-01
 -4.8514497e-01
  6.1911318e-02
 -1.5396900e+00
 -7.6112127e-01
  2.1284256e-02
 -4.8291534e-02
  7.3464423e-01
  3.0159112e-02
 -1.0750937e-01
  5.9749596e-02
 -2.4837401e-02
 -1.1006945e-01
 -2.3483163e-02
 -3.0721149e-03
 -1.6309531e-02
 -1.8075187e-02
 -9.3385942e-02
  6.1878923e-04
 -4.6420619e-02
 -8.3464123e-02
 -8.1178714e-03
 -8.6554371e-02
  1.5399945e-02
 -1.2757440e-01
 -3.1768452e-02
  9.4727827e-03
  6.0122062e-02
 -4.4891908e-04
 -7.5978525e-03
  8.0112481e-01
 -6.3446271e-01
  2.4660236e-01
 -5.7808661e-01
 -2.6736322e-01
 -2.3860732e-02
 -5.8450013e-01
 -6.8580336e-03
 -1.0502454e-02
 -4.2929500e-02
  4.2561167e-03
 -3.7940368e-03
  1.0481188e-01
  1.0173482e-02
  1.9731607e-02
  1.0970536e-01
 -4.6375200e-02
 -3.5693076e-02
  1.5170164e-01
 -5.9958283e-02
 -4.1285343e-02
  4.3081995e-03
  9.9394647e-03
  1.4503435e-02
  2.0545175e-02
 -2.2550650e-02
  2.5301270e-02
 -2.5065728e-02
 -5.4720897e-02
  3.3219937e-02
 -1.0012463e+00
  6.4031547e-01
 -4.9527174e-01
 -5.8392221e-01
  4.3311095e-01
  1.6926639e-01
  1.3052781e-02
 -1.0632669e+00
 -5.8797162e-02
 -4.3761046e-03
 -1.4730320e-02
  3.0866298e-01
 -3.0705767e-02
 -1.4595585e-01
 -8.9013144e-02
  3.9059296e-03
 -2.5753447e-01
 -1.2067283e-03
 -5.6728544e-03
 -1.2523100e-01
 -8.5670706e-03
  2.4045648e-01
 -5.9261613e-02
  4.8803817e-02
  2.4229482e-02
 -7.0767201e-02
 -2.9453905e-03
  1.2065052e-02
  1.8266497e-02
 -1.3723750e-02
 -8.8014431e-02
 -2.2147026e+00
 -1.4931514e+00
 -1.0524536e+00
  1.7357269e-01
 -1.2189496e-01
 -1.8944709e-01
  5.7935977e-01
 -9.2909239e-02
  2.8367931e-01
 -1.5327418e-01
  1.6929063e-01
  4.5562777e-01
  4.9611334e-02
 -3.6849335e-01
 -1.7157693e-01
  1.0021336e-01
  3.4717655e-01
 -1.2154340e-02
 -4.3190464e-01
 -1.7750290e-01
 -1.4305713e-02
 -1.9253874e-01
 -1.2961636e-01
 -7.6415509e-01
 -1.2586449e-02
 -1.7949373e-02
  4.6634292e-03
  2.8751146e-02
  3.5392070e-01
  2.5335622e-01
 -1.4641311e+00
 -9.0090949e-03
  1.2590373e+00
 -1.1986344e+00
  3.9426932e-01
 -4.2180243e-01
  2.1091776e-01
  4.3043625e-01
 -3.8903898e-01
  9.4880438e-01
 -2.9057035e-01
 -6.6323608e-01
  6.5647125e-02
  1.3153448e+00
  9.6638602e-01
 -8.2960266e-01
 -7.7111232e-01
  1.1675667e+00
  8.7820894e-01
 -1.1922669e+00
 -2.2341290e+00
 -1.9098060e+00
  8.9032924e-01
  2.6448098e-01
  4.4210663e-01
  1.7382731e+00
 -1.0921861e+00
 -1.3264632e+00
 -1.1404430e+00
 -6.3204542e-02
  1.8016032e+00
  1.3965094e-02
 -1.2741794e-01
  2.4433938e-01
  9.0571858e-02
  1.0321093e+00
  4.1037019e-02
  3.5301402e-01
  5.9953052e-01
  2.3305833e-01
  3.5033700e-01
  6.7525476e-01
 -1.5737822e+00
  2.3092636e-01
  1.3586911e+00
 -9.8113430e-01
 -1.0359343e-01
 -3.1617090e-02
  1.9094491e-01
  4.2144501e-01
  1.5871425e-01
 -3.9505929e-01
 -2.5604120e-01
  7.5200409e-01
 -3.8651448e-01
  1.8896872e+00
 -4.0774357e-01
  3.1159231e-01
 -7.2103387e-01
 -1.6306679e-01
 -5.2297848e-01
  1.1143649e-01
 -6.0084009e-01
 -1.6417840e-01
 -1.2603951e+00
 -8.9983958e-01
  9.6714216e-01
  1.2112597e+00
 -3.7645012e-01
  1.5550788e-01
  1.5442442e+00
  1.9265528e+00
  1.8266146e-01
 -7.4503273e-01
  2.3292144e-01
  4.0114957e-01
  2.1691728e-01
 -2.1058312e-01
  2.1740649e+00
 -1.0118845e+00
 -9.3378186e-01
  3.9602742e-01
  4.5584306e-01
 -5.8295298e-01
 -1.2826011e-01
 -2.7716811e+00
 -1.0068780e+00
 -8.5105133e-01
  1.1836858e+00
  1.6297977e+00
 -3.9707389e-01
  1.0601547e+00
  2.6101911e-01
 -6.2489837e-01
  1.4927119e+00
 -1.0485847e-01
 -4.1266602e-01
  7.0835793e-01
  1.3275222e+00
  7.3548722e+00
  1.7658974e+00
  5.2536088e-01
  1.1455303e+00
  2.5784102e-01
  1.7125461e+00
  1.1542069e+00
 -1.5802721e+00
 -2.7869567e-01
 -2.6861417e+00
  4.8804037e-02
  2.0651992e-01
  2.2245235e+00
 -1.5561942e+00
  3.8425615e+00
 -6.3946193e-01
 -9.7517085e-01
 -1.4162128e+00
  1.6247503e+00
 -1.5258223e+00
 -2.9589707e-01
 -7.7762865e-02
  1.3543800e+00
 -2.9230475e-01
 -3.3695769e-01
  1.6867586e+00
  1.4893649e+00
 -2.0289047e-01
  2.1785800e+00
  7.7544987e-01
  1.1461531e+00
 -1.6866786e+00
 -8.9379907e-01
 -1.5173713e+00
  1.7333429e+00
 -3.5683177e+00
 -9.1472585e-03
  2.5986585e-01
  2.9852139e-02
  5.1237869e-01
  6.6634816e-01
  1.1862733e+00
  4.9547651e-03
  3.0047069e+00
 -9.2818230e-01
 -5.6452781e-01
 -1.2085085e+00
  7.2396493e-01
  1.7735970e-01
 -7.6076007e-01
 -1.1233631e+00
  5.3794445e-03
  5.6468844e-01
  1.4004520e+00
  4.9295828e-01
  7.4143267e-01
  2.0395634e+00
 -7.9745430e-01
  9.2149824e-02
  2.4107518e+00
 -1.2732433e-01
 -4.6440813e-01
 -1.2214884e+00
  1.9413685e+00
  2.8551245e-01
  1.9162147e-01
 -1.3691150e+00
  2.2949250e+00
 -3.2780147e-01
  9.3730742e-01
 -2.9150829e-01
  1.5399463e+00
  1.2947512e+00
 -8.1365967e-01
 -1.0858784e-02
  1.7045838e+00
 -2.0890007e+00
 -2.3433521e+00
 -1.6709007e+00
  2.3649452e-02
 -2.1383066e-01
 -5.2665788e-01
  4.6650016e-01
 -2.7500701e-01
 -1.0298848e+00
  1.4645295e+00
 -5.1413029e-01
 -9.5198369e-01
  1.9221106e-01
 -1.2791181e+00
 -1.3822164e-01
  6.0809162e-02
  3.2662659e+00
  2.0530555e+00
 -5.1033157e-01
  3.1774294e-02
  1.8720237e+00
 -1.2775272e+00
 -1.5710571e+00
  1.3385074e-01
  6.7024010e-01
  1.4034647e-01
 -1.0622355e-01
  3.6425304e-01
  1.2025640e+00
 -9.5368326e-01
 -7.3321140e-01
  2.6909232e-01
  3.0516918e+00
 -1.7107213e+00
 -1.5034373e+00
  3.2047531e-01
  1.0869375e+00
 -2.6120732e+00
  1.4346614e-02
 -2.5716552e-01
 -8.9357299e-01
  1.3549339e+00
  2.2142594e+00
 -1.0704591e+00
  3.9361966e-01
 -2.5766485e+00
  4.6302342e-01
  1.0163779e+00
  1.6447545e+00
  9.2519939e-02
  9.9226522e-01
 -5.4385692e-01
  3.7147114e-01
 -8.1405461e-01
  2.7399640e+00
  1.3646990e+00
  6.1715430e-01
 -2.8297283e-02
  6.4661431e-01
 -3.8209897e-01
 -8.3065132e-04
 -5.1562995e-01
  2.1803565e-01
  7.2051328e-01
 -4.0591022e-01
 -1.5153651e+00
  5.2176273e-01
  1.8444521e+00
  4.2551515e-01
  4.5455450e-01
 -1.7153009e+00
  1.4127424e+00
 -1.0859395e+00
 -4.8166714e+00
 -1.0399215e+00
  2.3109159e+00
 -3.9248085e+00
 -7.7600613e-02
 -1.7814207e+00
  1.1042305e+00
  1.4045975e+00
  4.7146946e-02
 -1.5657420e+00
  1.1528862e+00
  1.4743172e-02
 -8.0331206e-01
 -3.6242202e-01
  6.5607041e-01
  5.0526071e-01
 -6.8698597e-01
 -2.7388480e-01
  1.0954443e+00
 -2.5494704e+00
 -8.7961352e-01
 -1.7216948e+00
  8.5427916e-01
  4.7972345e-01
 -6.5715891e-01
 -1.4568241e+00
  4.0898359e-01
  8.1195152e-01
 -8.9691663e-01
 -3.5382931e+00
  1.7102398e+00
  9.0766799e-01
 -9.2753708e-01
 -8.7850529e-01
 -1.0056206e-01
 -2.7047375e-01
 -9.3034935e-01
 -1.0771346e+00
 -7.9322624e-01
  1.5507965e-01
  1.8946341e+00
  1.0247695e+00
 -2.8480715e-01
 -1.1929530e+00
  2.4198556e-01
 -3.7948963e-01
  1.6118813e+00
  1.0983792e-01
 -1.4379002e+00
 -2.1964395e+00
  2.5479150e-01
 -3.0327307e-03
 -3.5335675e-01
  1.0517141e+00
 -5.7232505e-01
  6.8721437e-01
 -6.9621302e-02
  5.7241195e-01
 -1.6903123e+00
 -1.5610649e-01
 -1.0451480e-01
 -4.7141150e-01
 -1.1007576e-01
 -2.5469607e-01
  1.7211033e-01
 -6.8111336e-01
 -3.6884332e-01
 -1.0872213e+00
  4.8832288e-01
 -7.8809077e-01
  3.2212436e+00
 -1.2741263e+00
 -5.7491463e-01
  1.2677680e+00
  1.4910111e+00
  2.5481138e-01
  1.4578801e+00
  1.7812774e-02
 -1.9870578e+00
 -1.1256646e+00
 -4.6166927e-01
  6.3137561e-01
 -9.2112780e-01
  1.2059395e+00
 -1.9564714e+00
  1.8891622e+00
 -2.3592596e-01
  3.0211163e+00
 -3.3320042e-01
  9.4233400e-01
 -7.0207751e-01
 -4.5876201e-02
  3.4190103e-01
 -8.7025708e-01
 -8.8545811e-01
  2.9417577e-01
 -3.8017699e-01
 -5.0729871e-01
  1.3393085e-01
  5.5750215e-01
 -7.1065468e-01
  1.9571984e-01
  6.1325505e-02
  6.0890448e-01
  1.4435740e+00
  1.0276695e+00
 -2.5662739e+00
 -1.6541383e+00
  7.8500438e-01
 -3.8210578e-02
  8.5578322e-01
 -1.7036364e+00
  1.8078834e+00
  3.3035633e-01
  4.8906165e-01
 -4.0587586e-01
 -2.1123722e-01
 -1.3499430e-02
  4.1250294e-01
  6.9353354e-01
 -9.2113644e-01
 -7.0284404e-02
  3.5461408e-01
 -1.3184506e+00
  1.4049286e-01
 -1.0044290e-01
  1.0629455e+00
 -2.1601847e-01
  7.7898717e-01
 -9.8058873e-01
  1.2027581e-01
  1.2821674e-01
  7.9547507e-01
  5.9686816e-01
 -6.0339218e-01
 -1.2316171e+00
 -8.2892984e-02
  9.5687187e-01
 -4.2215121e-01
  5.3658642e-02
 -2.7485517e-01
 -1.7070707e+00
  1.3040925e+00
 -7.1612865e-02
 -1.3001789e+00
  6.4255029e-02
 -1.1706315e-02
 -2.4292520e-03
  8.8169962e-01
 -9.0498322e-01
 -1.4424054e-01
  2.2011441e-03
 -1.6726165e-01
 -8.6537993e-01
 -6.6910356e-01
  1.3769372e+00
 -4.6704534e-01
 -7.1349961e-01
  1.3781753e-01
 -3.0239892e-01
 -8.7744087e-01
  4.1264585e-01
 -6.6421196e-02
 -9.6914035e-01
 -2.1768120e-01
  1.9605464e+00
  6.5581459e-01
  3.4306586e-01
 -5.0166273e-01
  7.0556623e-01
 -8.7168419e-01
 -1.3564098e-01
 -2.9451564e-01
 -1.3643600e-02
 -1.8402739e-01
  7.8796345e-01
  4.0823114e-01
  3.8631147e-01
 -1.7756552e+00
 -1.2385315e+00
  1.8850222e+00
  1.8808827e-02
 -4.5578830e-02
 -9.9926293e-02
 -2.0420887e+00
  6.2518221e-01
 -2.8100247e-02
 -4.6144634e-01
  1.5944802e+00
  1.9211560e+00
 -4.7642538e-01
  7.7943593e-01
  1.6228637e+00
  2.6393181e-01
 -2.6315838e-01
  1.5914544e-01
  1.0923780e+00
 -7.1355468e-01
 -1.1407229e+00
 -9.1382915e-01
 -6.2538600e-01
 -1.1065919e+00
 -1.0920563e+00
 -9.4003338e-01
 -7.4427021e-01
 -6.7038365e-02
 -8.8484466e-02
 -5.8556687e-02
 -5.3007221e-01
  1.8376676e-02
 -3.6946014e-01
 -5.4690683e-01
  1.3398721e-02
  1.3398721e-02
  1.3398721e-02
  1.3398721e-02
  1.3398721e-02
  6.9747843e-02
  6.9747843e-02
  6.9747843e-02
  6.9747843e-02
  6.9747843e-02
  6.1458152e-02
  6.1458152e-02
  6.1458152e-02
  6.1458152e-02
  6.1458152e-02
  3.6929954e-02
  3.6929954e-02
  3.6929954e-02
  3.6929954e-02
  3.6929954e-02
  1.9013453e-02
  1.9013453e-02
  1.9013453e-02
  1.9013453e-02
  1.9013453e-02
  4.6505094e-02
  4.6505094e-02
  4.6505094e-02
  4.6505094e-02
  4.6505094e-02
