nep4_zbl 1 U 
zbl 1 2
cutoff 5 5 35 35
n_max 4 4
basis_size 8 8
l_max 4 2 0
ANN 30 0
  2.1632128e-05
 -2.0230940e-05
 -7.2260172e-04
  2.4312598e-04
 -3.8949718e-05
  1.7715167e-01
  2.1399127e-03
  4.1255360e-03
  1.3323467e-04
  8.4629946e-04
 -5.5263652e-05
 -1.2885928e-04
 -1.0060972e-04
 -4.0805314e-02
  3.8476312e-04
  5.4612032e-05
  2.1646993e-04
 -8.5843698e-04
 -3.4543136e-04
  3.3917000e-05
 -2.6521424e-03
 -6.3367544e-05
  8.4081075e-05
 -5.5141812e-05
  7.2787099e-02
  1.4819601e-04
  8.0157886e-05
  9.6198390e-05
  1.5996757e-04
  1.8845424e-02
  3.4538329e-01
 -5.3662395e-01
 -9.6531712e-02
 -1.6254006e-02
  1.5853003e-01
  2.9268829e-02
 -2.1520722e-01
  1.4667281e-02
  7.2885738e-03
  6.0357624e-01
  1.3435075e-01
 -9.8157775e-01
 -2.6187059e-01
  3.3131295e-03
  6.9270676e-01
  8.5185713e-01
 -7.6222354e-01
 -1.1226475e+00
 -3.8245496e-01
 -2.1169892e-01
  3.8958886e-01
 -4.0633520e-01
 -2.5549477e-01
  7.6082146e-01
  6.3950583e-02
 -1.3837597e-01
 -6.0698319e-02
 -5.5024439e-01
  3.2920659e-01
 -1.0155518e-02
  1.6839941e-01
  2.1005394e+00
  2.4294043e-01
 -4.4358400e-01
  1.4810467e+00
 -2.5635642e-01
 -2.2590524e-01
 -3.3588096e-01
  1.2764832e-01
 -2.9390319e-05
  8.5996586e-01
 -5.7345536e-02
  5.2252701e-03
  4.3341288e-01
 -8.5559380e-01
 -8.4444916e-01
 -4.2952083e-02
 -6.2592959e-01
 -6.0424471e-01
 -3.3562531e-04
  8.8670355e-01
 -7.3268336e-01
 -2.7759156e-01
  5.3410251e-03
 -1.4264606e-01
  3.5165791e-05
 -5.6357775e-04
 -6.5508118e-04
  4.5663383e-04
 -6.3556382e-03
 -4.2111680e-01
  3.9553723e-01
 -7.6295894e-01
 -1.6377178e-01
  3.0548613e+00
  6.1347222e-01
  2.7795646e-01
 -3.0205384e-01
 -1.3744572e-01
 -8.1308447e-02
 -5.3790486e-01
 -4.5038089e-01
 -8.2058662e-01
 -1.5668863e-01
  7.0484614e-01
  3.6940137e-01
 -7.7861089e-01
  6.5783739e-01
 -1.8664900e+00
 -8.8714333e-03
  1.1465594e+00
  4.4400731e-01
 -7.8355867e-01
  1.0368217e+00
  3.6907953e-01
  8.0001826e-04
 -3.1792498e-04
  4.2396411e-02
  1.9341025e-01
 -1.6176960e-04
 -9.9711798e-02
  4.6021822e-03
  7.7250379e-01
  1.1576484e+00
  2.1063070e-01
  2.0275232e-01
  4.6687308e-01
 -6.0619652e-01
  1.6728128e-01
 -3.1565253e-02
  4.6744466e-01
  4.5431361e-01
 -2.0534128e-03
  1.5656033e-04
  7.7823773e-02
  1.2025269e-01
  1.0209293e+00
 -8.3465439e-01
  4.9001500e-02
  4.8663612e-02
  4.4129884e-01
  4.8291105e-01
  1.0666449e-01
  1.2745403e+00
 -1.4670346e+00
  1.0875624e-01
  2.5190169e-01
  3.1627381e-01
  1.1213791e-01
  4.8549191e-04
 -1.9391755e-05
 -1.5839294e-04
 -2.0932121e-04
 -7.0724130e-04
  6.2929594e-04
  3.8654552e-04
  2.1637173e-04
  8.9626343e-07
  6.8306678e-04
  1.2175707e-03
 -3.4041973e-03
  2.5866486e-04
  5.6778299e-05
 -4.3264401e-04
  2.1390559e-04
 -1.0944565e-04
 -4.8041268e-04
  8.1855840e-05
 -7.6804124e-04
  4.8589858e-04
 -3.6372097e-05
 -1.8813439e-04
  1.0720707e-03
 -7.2990987e-04
 -1.2810386e-04
  7.5336065e-05
  2.3639391e-04
  3.2922815e-04
 -8.0819897e-05
 -7.6297217e-04
 -6.8836719e-01
 -3.3734089e-01
 -8.8104349e-01
 -1.0457692e-01
 -1.1786231e-01
  4.1325212e-01
  1.1228203e+00
 -2.0880179e-01
 -6.0323876e-01
 -7.1772730e-01
 -1.3508408e+00
  7.7283603e-01
 -3.1225744e-01
  3.6567196e-01
  1.9926976e+00
 -2.4093729e-01
  1.7872152e+00
  2.3636934e-01
 -3.2778080e-03
  6.1598068e-01
  2.9105237e-01
  6.6046757e-01
 -8.1593329e-01
 -2.6818022e-01
  2.0492651e+00
 -2.2661792e-01
  9.8263703e-02
  6.8099856e-01
 -8.0098002e-04
  7.7245329e-03
  6.4376843e-01
  6.4151651e-01
  9.8845005e-01
  1.1013209e+00
 -1.1386899e+00
 -4.0101767e-01
  5.1830572e-01
 -1.6244376e-01
 -1.9930946e-02
  9.8753488e-03
 -1.2623610e+00
 -1.4033126e+00
 -3.7965089e-02
 -5.1587705e-02
 -3.5437444e-01
 -4.8448536e-01
  3.2574065e-02
 -3.7568098e-01
 -3.3832872e-01
  1.9472227e-01
 -7.6594479e-02
 -1.7924602e-01
  8.0743608e-05
 -4.3845871e-01
  2.9401425e-03
  3.6873493e-01
 -3.0058939e-02
  1.7383107e-04
  2.2374818e-01
  3.0847284e-01
 -1.2136099e-04
 -5.3727567e-06
 -6.2784756e-04
 -1.6024244e-03
 -5.9041480e-04
  3.0026171e-05
 -1.9771808e-06
 -4.4131866e-05
 -3.6059548e-06
 -7.2812327e-05
 -1.3365452e-04
  1.9791764e-04
 -5.2293635e-05
  8.3335582e-04
  2.5799606e-04
  5.1559982e-05
  2.3926799e-03
 -3.0534729e-04
  1.8852612e-04
  2.9441781e-04
  3.1892661e-05
 -6.1762898e-04
 -3.6508348e-04
 -2.2883547e-04
 -1.7096045e-04
 -3.8711532e-05
 -2.6464218e-04
  2.2870948e-04
 -2.5573152e-04
 -6.6234315e-05
  1.0627116e-01
  7.8226218e-04
 -2.0434053e-03
  1.3608042e-03
 -7.8493031e-05
 -3.5138205e-01
 -3.2240488e-02
  1.1404059e-02
  1.4224736e-02
  5.1693153e-03
 -1.0715500e-04
 -2.4828693e-04
 -3.3391854e-05
 -5.8589078e-04
 -7.7570061e-05
 -3.3337396e-01
 -1.9095195e-03
 -1.6958159e-01
  1.8265324e-04
  2.8577569e-04
 -3.3579057e-04
 -5.4713113e-05
 -4.3706215e-04
 -5.5943990e-05
  2.8108430e-01
  9.8595431e-04
  6.5512891e-04
  4.9943786e-02
 -1.2471550e-03
 -9.7953423e-04
  2.4974096e-04
  1.1470748e-04
  1.1218629e-05
  2.5760930e-06
  1.6382501e-04
  5.3131027e-04
  2.3232276e-05
  4.1360405e-04
 -4.2195643e-05
 -1.1728958e-04
 -1.1774269e-04
  6.1339611e-05
  5.5880047e-04
 -1.9214353e-05
 -1.4899092e-05
  2.3005472e-04
  1.8341988e-04
  1.7564901e-04
  1.4276216e-04
 -3.5203193e-05
 -2.0829799e-05
  1.3231169e-04
  1.4555179e-04
  1.4163003e-03
 -2.3644314e-04
 -1.1017289e-05
 -2.9411456e-05
 -4.6097458e-04
 -5.3585926e-04
 -3.0632486e-06
 -6.5157597e-05
 -2.4241899e-01
 -1.4424869e-01
  1.1367879e-02
 -3.9974708e-02
  8.6308396e-01
  6.1478943e-02
 -2.5883886e-01
  4.8314589e-01
  1.7200265e-02
  3.2079428e-01
  1.4781453e-04
  1.0982169e-04
  2.1442270e-03
  1.1389982e-03
  1.5606207e-01
  2.7685377e-01
 -3.6152166e-01
 -5.5665374e-02
  6.0877365e-01
 -9.9575087e-02
 -8.7525412e-02
 -2.1676220e-02
 -2.6108067e-02
  2.6235519e-02
  7.2863451e-03
  4.4433228e-04
  2.2883713e-03
  4.0931683e-03
  2.7765508e-04
 -3.5519525e-02
  2.3551385e+00
  1.1961951e-01
  6.8694484e-01
 -1.1507428e-01
 -2.4063709e-01
  1.5759578e+00
 -6.1323676e-02
  2.0813598e-01
 -5.2827114e-01
 -2.5969333e-04
  2.2721793e-01
 -4.7000591e-03
  3.0058935e-01
 -1.2343957e-02
  3.8462527e-02
 -2.6206404e-01
 -6.7777789e-01
 -3.4672058e-01
  7.2861809e-01
 -1.1515722e+00
 -1.8890204e-01
  2.2093797e+00
 -9.7121626e-01
  1.7872286e-01
  3.2620138e-01
  1.1055235e+00
 -1.9143285e-04
  3.3764479e-01
  4.9521527e-03
 -1.2085512e+00
  1.1155679e+00
 -2.9702845e-01
 -4.7215973e-03
  6.9618690e-01
  2.4022667e-01
  7.4153729e-02
 -1.2566678e-01
  4.9868907e-04
 -1.9511133e-01
 -1.7477453e+00
  6.4776891e-01
  4.6270052e-05
  2.8391084e-01
  1.2075167e+00
  5.6781765e-04
 -1.2555761e+00
 -4.0690732e-01
 -5.7863128e-01
  1.0777441e-02
  4.6056783e-01
 -1.5630235e-01
 -1.3202979e-01
 -1.2030850e-05
  3.0210432e-01
  1.1998487e-01
 -5.1306263e-03
  6.2551751e-04
 -8.4964871e-05
 -1.3556844e-04
  5.2681351e-01
 -1.3543429e+00
  1.7151557e+00
 -1.3266370e+00
 -1.6413743e+00
 -5.9372831e-02
  3.6356050e-01
 -3.4166434e-01
  4.1530010e-01
  2.2658287e-01
  1.8752483e+00
 -6.8374705e-01
 -1.1866837e+00
 -1.6435543e+00
  1.5289509e+00
 -5.6121343e-01
 -2.4749039e-01
  8.8342118e-01
  4.9360371e-01
  3.5859603e-01
  1.1934077e-02
  2.0269660e-02
 -1.1631131e+00
  2.0754994e-01
 -2.4497983e+00
 -1.1141697e-01
  2.1717699e-01
 -5.3878084e-05
 -2.4660872e-02
  8.1687991e-04
 -9.1119593e-01
  6.1139041e-01
 -3.6664027e-01
  4.8913780e-01
  1.5543016e+00
 -1.6677681e-01
 -5.7220471e-01
  7.6745611e-01
 -5.6978356e-02
  1.4056945e-01
 -1.2155542e+00
 -1.4933155e-01
  1.1871910e-01
 -5.1418060e-01
 -1.4133655e+00
  2.6283592e-01
  2.4301978e-02
 -1.2278060e+00
 -1.4376167e+00
 -1.4570668e+00
  3.7041551e-01
 -1.5840442e+00
 -6.1626935e-01
 -4.4898143e+00
 -1.7165098e+00
 -2.6077211e-01
  5.1274762e-04
 -8.4109249e-04
  3.0559764e-05
  7.4253494e-01
  8.3813979e-04
 -1.4346201e-05
  3.0833846e-05
 -2.0854842e-04
  1.3023085e-03
  3.0087284e-04
 -1.5635058e-04
  1.6449524e-04
  4.8832584e-04
  9.4346606e-06
 -5.0270828e-06
 -5.2878191e-04
  8.0370938e-04
  1.9384115e-05
 -6.1589386e-04
  2.4800021e-05
 -3.0386586e-06
  5.8354803e-05
 -4.8113456e-05
  1.2359324e-04
 -6.6599407e-04
 -1.1987731e-05
  2.6062433e-05
 -1.5608846e-04
 -1.1820894e-04
  2.5665431e-04
 -1.2231909e-04
 -1.6905299e-04
 -2.6328410e-03
  3.5369725e-04
 -1.2071445e+00
  6.8262219e-01
  2.0073802e+00
 -5.5949908e-02
 -1.0701941e+00
 -2.2702762e-01
  3.1030720e-01
  1.8995251e-01
 -8.6249195e-02
  5.7625258e-01
  1.1428106e+00
  2.4630292e-01
 -1.9573405e-01
  4.9407014e-01
 -1.9764701e-02
 -3.1264457e-01
 -3.7297335e-01
  1.7310041e-01
 -2.6988262e-01
  1.0464704e+00
  3.4341246e-01
 -1.1230751e+00
  7.5838125e-01
 -8.6972374e-01
  1.1800675e+00
  1.4556068e-01
  3.5115027e-01
  2.7293058e-03
  8.9560099e-02
  1.8811713e-01
 -1.7326901e-04
 -7.9297330e-05
  3.9847957e-05
 -1.3419926e-05
 -7.5197499e-06
 -5.2365835e-04
 -1.0577997e-04
 -9.1707283e-05
 -5.1404833e-04
 -8.4669773e-05
 -1.5381801e-04
  3.4173965e-04
 -1.0095139e-04
 -2.9513019e-03
  2.4918941e-04
  4.6811975e-04
  9.9232646e-05
 -3.6070411e-04
 -9.3900853e-05
 -8.3629071e-05
  3.9995604e-04
 -8.6125027e-04
  3.0671051e-04
  2.0469562e-04
  2.0973689e-04
  1.6153326e-05
 -8.6213775e-05
 -1.2342484e-03
  3.9322367e-05
 -1.6452261e-04
  5.1694661e-01
 -1.7436925e+00
 -1.2793621e-01
 -9.2960715e-01
  3.3762297e-01
  7.7283055e-01
 -1.6502827e-01
 -2.7404457e-01
 -5.1764709e-01
 -1.1247615e-01
  1.6534305e+00
 -1.5131121e-03
 -1.8726317e-04
 -4.7337762e-03
 -4.4734462e-04
 -5.1670319e-01
 -8.0442107e-01
 -2.5346810e-01
  9.5439912e-04
 -1.0499458e-02
  2.3670408e-01
 -9.9200273e-01
  5.4449439e-01
 -1.3899232e+00
 -6.4161485e-01
  3.6760199e-01
  1.5835406e-01
 -1.1408883e-04
 -1.5503347e-03
  2.7368113e-03
  2.2690018e-01
  8.2862437e-01
  1.4344440e-01
  2.2621562e+00
  2.4162418e-01
  5.6538916e-01
 -3.4122252e-01
 -7.6193023e-01
 -6.2791055e-01
 -1.7008586e+00
 -1.4304954e-01
 -3.3814600e-01
  1.3485092e-01
  1.2530823e-01
 -6.3090169e-01
 -1.0092147e-01
 -1.0854927e+00
  2.2698978e-01
 -3.0011216e-01
 -1.9802856e-01
 -1.0153097e-01
  6.5344289e-02
  8.2642937e-01
 -1.1529651e+00
 -1.0469971e-02
 -1.2900231e-03
 -1.1416484e-02
  3.8940015e-01
  2.5893629e-01
  7.5609644e-04
 -1.1156871e-03
 -1.0294209e-03
  2.2326417e-06
 -1.1636806e-04
 -2.4157995e-04
 -2.1422593e-04
 -3.1624356e-04
  4.2329873e-05
  1.3945282e-04
 -1.1696314e-04
  4.2585997e-04
  1.1660670e-04
  2.0407646e-05
 -8.3644292e-05
  4.0965842e-04
 -4.4125421e-03
  8.8098996e-06
  2.1805805e-04
 -1.1892311e-03
 -2.6191291e-04
 -1.4090305e-03
 -1.6128810e-04
 -3.2838664e-04
 -6.9364556e-04
 -5.8862363e-04
  2.8234598e-04
  6.8462850e-04
 -2.3169803e-05
 -1.7684877e-04
  8.0435319e-05
 -2.6381819e-02
 -1.3270417e+00
  7.9713678e-01
 -1.5809072e+00
 -8.5165912e-01
 -2.8522685e-01
 -8.4554905e-01
  4.6470374e-01
  9.7013134e-01
  1.6999775e+00
 -2.2291274e-01
 -1.8279094e+00
  1.0687302e+00
 -5.7151876e-03
 -6.9614208e-01
  2.8200842e-02
 -8.6178631e-01
 -4.2580139e-02
  1.0189182e+00
  1.7564520e-01
  6.5121108e-01
  6.0802191e-02
  1.1221831e+00
 -5.8772519e-02
 -3.5436073e-01
 -1.0234847e-03
  1.0758324e+00
  6.0716467e-03
 -5.4009910e-05
  1.2684567e-04
  2.0568211e+00
 -3.2781881e-01
 -1.9670346e-01
 -5.7849669e-01
  1.2571266e-01
  2.5607279e-01
 -1.7213919e+00
  2.8233901e-02
 -1.0152765e-01
 -6.3960510e-01
 -1.1963825e+00
 -8.5487372e-01
 -9.5574670e-02
  2.8220159e-01
 -8.8395399e-01
  7.2483832e-01
 -2.1486273e-01
 -6.8606317e-02
  7.1225703e-01
 -1.9533989e+00
 -1.5373097e-01
  3.3531535e-01
  3.9271867e-01
 -6.4164656e-01
  1.2172384e+00
 -7.1770525e-01
  3.3191749e-01
 -1.7220678e+00
  2.7457900e+00
 -4.2079527e-02
  1.0140937e-01
 -6.6880691e-01
  9.0215498e-01
 -1.3898592e+00
  6.1344349e-01
 -2.5880530e-01
 -1.2069993e+00
  6.0839456e-01
  3.0724704e-01
  5.5899030e-01
 -1.0105078e-01
 -1.3869817e+00
  1.2612930e-01
  1.1331336e+00
  1.4385090e+00
 -6.6595381e-01
 -1.7106924e-02
  7.5835133e-01
 -9.9955022e-01
  8.1200820e-01
  4.0028155e-02
  9.0138453e-01
  7.0302054e-02
  6.3488001e-01
 -3.1060442e-01
 -4.6956558e-02
 -8.8151771e-04
 -1.3239982e-02
  2.2674514e-01
 -1.0674777e+00
 -9.7563779e-01
 -1.5854071e+00
 -7.4350005e-01
 -1.0038751e+00
  2.0119452e-01
  2.6303715e-01
  3.5096302e-03
  1.0959290e-02
  1.9429903e-03
  9.7708821e-01
 -3.9702934e-01
  1.6889101e-04
 -1.0001919e-03
 -8.3980471e-05
  1.0594593e-04
 -3.0654970e-01
  1.2442680e-01
 -4.1052213e-01
  6.1804749e-02
  7.8861558e-01
  6.6139561e-01
 -3.8391966e-01
 -1.2223569e+00
  2.2632528e-04
 -1.1160770e-05
 -2.3628335e-04
 -3.9390300e-04
 -8.9923605e-02
  6.1095543e-03
  8.9261055e-05
 -5.2881718e-01
 -8.7289298e-01
 -1.2417972e-02
  1.3748871e+00
 -1.3071858e+00
 -8.2206208e-01
  1.8930139e-02
  1.0341723e-02
  2.8214478e-01
  2.8878456e-05
 -8.8053368e-02
  7.6125525e-02
 -6.0166128e-02
  7.2181773e-01
  2.5486364e-04
 -1.3742409e+00
 -4.5980325e-01
 -3.3840504e-01
 -2.0840939e-03
  7.6372050e-02
 -1.7580557e+00
  1.2805926e+00
  6.0240896e-03
 -2.7056489e-04
  3.6197591e-01
 -3.2909752e-03
  6.6010799e-04
 -6.3611042e-01
  4.6468814e-04
  7.7080568e-03
 -6.1217361e-05
  3.5214209e-05
 -1.7387188e-03
  5.9970480e-05
  1.1555239e-04
 -3.0994725e-05
  1.0707331e-05
 -5.4611512e-05
 -4.4507213e-04
 -1.0690446e-05
  1.1583464e-04
  1.3437716e-04
 -2.5148263e-05
  3.6682081e-04
 -1.2292965e-04
 -5.7011748e-05
  6.3870735e-05
  9.9839512e-05
 -1.7090395e-04
  7.3661715e-05
 -7.5017044e-04
 -7.3265162e-04
  7.8094585e-05
 -7.3195421e-05
 -1.1241799e-04
 -4.8075828e-05
  7.9758291e-05
  1.8635098e-03
 -8.3156272e-05
 -3.4793911e-03
  1.2447037e+00
 -7.7138275e-02
 -1.6794915e+00
  3.1616367e-02
 -6.1245024e-01
  3.0642834e-01
  5.9424978e-01
 -5.3785932e-01
 -3.9333895e-01
 -9.3286842e-01
 -6.7405599e-01
  5.8229810e-01
 -5.3404313e-01
 -7.3268396e-01
 -1.5209141e+00
  4.1100517e-01
  2.6359394e-01
  5.8401650e-01
 -7.5630367e-01
 -8.8889313e-01
  5.2160960e-01
  1.1957169e-01
 -9.6470639e-02
  2.7274579e-01
  3.5757404e-02
 -3.2249153e-01
 -1.6758821e+00
 -2.0831490e-02
 -4.8266032e-01
  2.0247691e-05
 -2.8966275e-01
  1.2269462e-02
  9.0908098e-01
  2.2012742e-01
 -8.4785986e-01
  9.9338237e-03
  2.0588656e-01
  1.8962054e-01
 -6.4438082e-02
 -9.1621321e-01
 -1.3462645e+00
 -1.2046440e+00
 -3.0792147e-01
 -2.6559290e-01
  2.9967062e-02
  4.1245303e-01
  4.8349437e-01
  1.5478302e+00
  4.4688600e-01
  3.0507421e-01
 -7.5668454e-01
  5.5788553e-01
 -1.3474145e+00
 -1.5298104e-01
 -8.0047220e-02
 -8.5703410e-02
 -2.4584178e-03
  8.1610802e-04
  1.9809850e-01
  1.4198865e-04
 -1.2005802e-04
 -1.1558994e+00
 -1.0103427e-01
  2.9414603e-01
  1.8867922e+00
 -3.7915404e-05
  5.6568986e-01
 -3.1813957e-02
 -2.3285803e-04
  5.2936774e-01
 -8.0479731e-05
  6.1866122e-01
  6.1973989e-01
 -2.2129090e-01
 -7.7811015e-01
  5.3779548e-01
 -4.0369397e-03
  6.2121749e-01
  7.4427767e-04
 -9.4343722e-01
  2.4114227e-01
  1.1917973e-03
 -3.0988342e-01
  5.6677020e-01
 -1.1149273e+00
 -4.9267408e-01
 -6.9202709e-01
  2.9720198e-03
 -1.4046991e-01
 -4.1814977e-01
  2.0556740e-01
 -8.5679936e-01
  5.3937840e-01
 -7.7344894e-01
  1.6856077e+00
  8.4948246e-05
 -6.3095301e-01
 -1.2255573e+00
 -9.1260175e-05
  3.6503574e-01
 -1.6498774e-04
  5.8333057e-01
 -1.0309761e+00
  3.4071115e-01
 -6.6328704e-01
  1.3978966e+00
 -6.0464612e-05
 -1.3305438e+00
  8.4786298e-05
 -4.6949047e-01
 -8.6552924e-01
 -3.1673862e-05
 -9.1883940e-01
 -1.1878594e+00
 -1.4257764e+00
  4.3403387e-01
  3.8237026e-01
  3.6352481e-05
  1.4453682e+00
 -7.2625530e-01
  2.9719315e+00
  2.1554677e-01
  1.2387477e-01
 -7.0754397e-01
  2.2467613e-01
 -1.6924367e+00
  3.5474828e-01
 -9.1716522e-01
  1.0718156e+00
  1.7216167e+00
  8.5121822e-01
  6.2838441e-01
  3.5289451e-02
  2.4701984e+00
  3.4852707e+00
 -7.2893393e-01
  1.7576488e+00
 -1.0469271e+00
 -3.2933369e-01
  9.3330461e-01
  9.5409566e-01
 -5.5516052e-01
 -4.4936809e-01
 -5.6384337e-01
  1.6779181e+00
  1.2980807e+00
  5.5115652e-01
 -6.5799332e-01
  2.9694587e-01
  1.2352557e+00
  4.5329618e-01
  4.0053770e-01
  1.1046373e+00
 -1.0140997e+00
  1.0141606e+00
  1.8700296e+00
 -2.5849265e-01
 -1.6215467e+00
  5.8393610e-01
  6.4996797e-01
 -2.5521728e-01
 -1.2215358e-01
  5.2814966e-01
  1.3757225e+00
 -2.0978806e+00
  1.9314772e-01
 -1.2353384e+00
 -5.4511237e-01
  1.0208694e+00
 -1.3122033e-01
 -2.4279213e+00
  2.0849214e+00
 -8.4192224e-02
 -1.2717428e+00
  1.6191425e+00
 -1.0239813e+00
 -7.1447957e-01
 -5.3716373e-01
 -4.1838195e-02
 -1.1420511e+00
  3.7682769e-01
 -1.8225155e+00
 -1.8115060e-01
  1.3814551e-01
 -4.7813538e-01
 -8.3033705e-01
 -1.1494534e+00
 -9.3235934e-01
 -7.6916385e-01
  1.1289986e+00
 -1.0286471e+00
  1.0850065e+00
  2.3096433e+00
 -5.9029949e-01
 -3.7174490e-01
  4.9206271e+00
  1.2650453e-01
  4.9149919e+00
 -8.6842418e-01
  1.5316740e+00
 -3.0218401e+00
 -3.2165822e-01
 -9.4505675e-02
 -4.1668296e+00
 -1.3835399e-01
 -1.0811599e+00
  3.2639128e-01
 -1.1403264e+00
 -6.6860050e-01
  7.2668964e-01
  3.9526057e-01
  5.4426558e-02
  5.4426558e-02
  5.4426558e-02
  5.4426558e-02
  5.4426558e-02
  3.4172177e-01
  3.4172177e-01
  3.4172177e-01
  3.4172177e-01
  3.4172177e-01
  6.0305584e-02
  6.0305584e-02
  6.0305584e-02
  6.0305584e-02
  6.0305584e-02
  8.1448056e-02
  8.1448056e-02
  8.1448056e-02
  8.1448056e-02
  8.1448056e-02
  2.3254741e-02
  2.3254741e-02
  2.3254741e-02
  2.3254741e-02
  2.3254741e-02
  5.5857595e-02
  5.5857595e-02
  5.5857595e-02
  5.5857595e-02
  5.5857595e-02
